{"learner":{"attributes":{"scikit_learn":"{\"_estimator_type\": \"regressor\"}"},"feature_names":[],"feature_types":[],"gradient_booster":{"model":{"gbtree_model_param":{"num_parallel_tree":"1","num_trees":"600"},"iteration_indptr":[0,1,2,3,4,5,6,7,8,9,10,11,12,13,14,15,16,17,18,19,20,21,22,23,24,25,26,27,28,29,30,31,32,33,34,35,36,37,38,39,40,41,42,43,44,45,46,47,48,49,50,51,52,53,54,55,56,57,58,59,60,61,62,63,64,65,66,67,68,69,70,71,72,73,74,75,76,77,78,79,80,81,82,83,84,85,86,87,88,89,90,91,92,93,94,95,96,97,98,99,100,101,102,103,104,105,106,107,108,109,110,111,112,113,114,115,116,117,118,119,120,121,122,123,124,125,126,127,128,129,130,131,132,133,134,135,136,137,138,139,140,141,142,143,144,145,146,147,148,149,150,151,152,153,154,155,156,157,158,159,160,161,162,163,164,165,166,167,168,169,170,171,172,173,174,175,176,177,178,179,180,181,182,183,184,185,186,187,188,189,190,191,192,193,194,195,196,197,198,199,200,201,202,203,204,205,206,207,208,209,210,211,212,213,214,215,216,217,218,219,220,221,222,223,224,225,226,227,228,229,230,231,232,233,234,235,236,237,238,239,240,241,242,243,244,245,246,247,248,249,250,251,252,253,254,255,256,257,258,259,260,261,262,263,264,265,266,267,268,269,270,271,272,273,274,275,276,277,278,279,280,281,282,283,284,285,286,287,288,289,290,291,292,293,294,295,296,297,298,299,300,301,302,303,304,305,306,307,308,309,310,311,312,313,314,315,316,317,318,319,320,321,322,323,324,325,326,327,328,329,330,331,332,333,334,335,336,337,338,339,340,341,342,343,344,345,346,347,348,349,350,351,352,353,354,355,356,357,358,359,360,361,362,363,364,365,366,367,368,369,370,371,372,373,374,375,376,377,378,379,380,381,382,383,384,385,386,387,388,389,390,391,392,393,394,395,396,397,398,399,400,401,402,403,404,405,406,407,408,409,410,411,412,413,414,415,416,417,418,419,420,421,422,423,424,425,426,427,428,429,430,431,432,433,434,435,436,437,438,439,440,441,442,443,444,445,446,447,448,449,450,451,452,453,454,455,456,457,458,459,460,461,462,463,464,465,466,467,468,469,470,471,472,473,474,475,476,477,478,479,480,481,482,483,484,485,486,487,488,489,490,491,492,493,494,495,496,497,498,499,500,501,502,503,504,505,506,507,508,509,510,511,512,513,514,515,516,517,518,519,520,521,522,523,524,525,526,527,528,529,530,531,532,533,534,535,536,537,538,539,540,541,542,543,544,545,546,547,548,549,550,551,552,553,554,555,556,557,558,559,560,561,562,563,564,565,566,567,568,569,570,571,572,573,574,575,576,577,578,579,580,581,582,583,584,585,586,587,588,589,590,591,592,593,594,595,596,597,598,599,600],"tree_info":[0,0,0,0,0,0,0,0,0,0,0,0,0,0,0,0,0,0,0,0,0,0,0,0,0,0,0,0,0,0,0,0,0,0,0,0,0,0,0,0,0,0,0,0,0,0,0,0,0,0,0,0,0,0,0,0,0,0,0,0,0,0,0,0,0,0,0,0,0,0,0,0,0,0,0,0,0,0,0,0,0,0,0,0,0,0,0,0,0,0,0,0,0,0,0,0,0,0,0,0,0,0,0,0,0,0,0,0,0,0,0,0,0,0,0,0,0,0,0,0,0,0,0,0,0,0,0,0,0,0,0,0,0,0,0,0,0,0,0,0,0,0,0,0,0,0,0,0,0,0,0,0,0,0,0,0,0,0,0,0,0,0,0,0,0,0,0,0,0,0,0,0,0,0,0,0,0,0,0,0,0,0,0,0,0,0,0,0,0,0,0,0,0,0,0,0,0,0,0,0,0,0,0,0,0,0,0,0,0,0,0,0,0,0,0,0,0,0,0,0,0,0,0,0,0,0,0,0,0,0,0,0,0,0,0,0,0,0,0,0,0,0,0,0,0,0,0,0,0,0,0,0,0,0,0,0,0,0,0,0,0,0,0,0,0,0,0,0,0,0,0,0,0,0,0,0,0,0,0,0,0,0,0,0,0,0,0,0,0,0,0,0,0,0,0,0,0,0,0,0,0,0,0,0,0,0,0,0,0,0,0,0,0,0,0,0,0,0,0,0,0,0,0,0,0,0,0,0,0,0,0,0,0,0,0,0,0,0,0,0,0,0,0,0,0,0,0,0,0,0,0,0,0,0,0,0,0,0,0,0,0,0,0,0,0,0,0,0,0,0,0,0,0,0,0,0,0,0,0,0,0,0,0,0,0,0,0,0,0,0,0,0,0,0,0,0,0,0,0,0,0,0,0,0,0,0,0,0,0,0,0,0,0,0,0,0,0,0,0,0,0,0,0,0,0,0,0,0,0,0,0,0,0,0,0,0,0,0,0,0,0,0,0,0,0,0,0,0,0,0,0,0,0,0,0,0,0,0,0,0,0,0,0,0,0,0,0,0,0,0,0,0,0,0,0,0,0,0,0,0,0,0,0,0,0,0,0,0,0,0,0,0,0,0,0,0,0,0,0,0,0,0,0,0,0,0,0,0,0,0,0,0,0,0,0,0,0,0,0,0,0,0,0,0,0,0,0,0,0,0,0,0,0,0,0,0,0,0,0,0,0,0,0,0,0,0,0,0,0,0,0,0,0,0,0,0,0,0,0,0,0,0,0,0,0,0,0,0,0,0,0,0,0,0,0,0,0,0,0,0,0,0,0,0,0,0,0,0,0,0,0,0,0,0,0,0,0,0,0,0],"trees":[{"base_weights":[2.6239755E-3,-1.3287798E-1,1.3477418E-1,-1.6845402E-1,-6.397557E-2,7.024326E-2,2.4824625E-1,-1.8375316E-1,-1.4467414E-1,-9.020412E-2,-3.272691E-2,4.6114422E-2,1.294515E-1,2.1118096E-1,3.652061E-1,-5.729133E-3,-5.0485614E-3,-4.7573806E-3,-4.035098E-3,-4.8161286E-4,-2.8154042E-3,-1.418491E-3,-3.2930647E-4,9.400641E-4,2.381965E-3,3.3126732E-3,5.371028E-3,4.2553954E-3,7.0237718E-3,9.154093E-3,1.2407422E-2],"categories":[],"categories_nodes":[],"categories_segments":[],"categories_sizes":[],"default_left":[0,0,0,0,0,0,0,0,0,0,0,0,0,0,0,0,0,0,0,0,0,0,0,0,0,0,0,0,0,0,0],"id":0,"left_children":[1,3,5,7,9,11,13,15,17,19,21,23,25,27,29,-1,-1,-1,-1,-1,-1,-1,-1,-1,-1,-1,-1,-1,-1,-1,-1],"loss_changes":[7.438406E1,5.0167885E0,1.5381683E1,4.6529007E-1,5.7077265E-1,1.9112468E0,3.2262611E0,5.9301376E-2,5.419159E-2,1.0113382E-1,1.0110837E-1,4.6728492E-1,3.4631348E-1,8.9108276E-1,4.0266418E-1,0E0,0E0,0E0,0E0,0E0,0E0,0E0,0E0,0E0,0E0,0E0,0E0,0E0,0E0,0E0,0E0],"parents":[2147483647,0,0,1,1,2,2,3,3,4,4,5,5,6,6,7,7,8,8,9,9,10,10,11,11,12,12,13,13,14,14],"right_children":[2,4,6,8,10,12,14,16,18,20,22,24,26,28,30,-1,-1,-1,-1,-1,-1,-1,-1,-1,-1,-1,-1,-1,-1,-1,-1],"split_conditions":[2.2065364E-1,1.1449019E-1,4.1740355E-1,6.564557E-2,1.6455875E-1,3.6198208E-1,5.957157E-1,5.1282678E-2,8.593155E-2,9.331944E-2,1.9035494E-1,3.2251608E-1,4.6551085E-1,3.8420966E-1,5.957157E-1,-5.729133E-3,-5.0485614E-3,-4.7573806E-3,-4.035098E-3,-4.8161286E-4,-2.8154042E-3,-1.418491E-3,-3.2930647E-4,9.400641E-4,2.381965E-3,3.3126732E-3,5.371028E-3,4.2553954E-3,7.0237718E-3,9.154093E-3,1.2407422E-2],"split_indices":[6,6,6,6,5,5,6,6,3,3,6,6,5,5,5,0,0,0,0,0,0,0,0,0,0,0,0,0,0,0,0],"split_type":[0,0,0,0,0,0,0,0,0,0,0,0,0,0,0,0,0,0,0,0,0,0,0,0,0,0,0,0,0,0,0],"sum_hessian":[4.152E3,2.05E3,2.102E3,1.351E3,6.99E2,1.341E3,7.61E2,8.18E2,5.33E2,3.79E2,3.2E2,9.54E2,3.87E2,5.8E2,1.81E2,5.5E2,2.68E2,2.19E2,3.14E2,1.8E1,3.61E2,1.91E2,1.29E2,6.62E2,2.92E2,2.82E2,1.05E2,1.46E2,4.34E2,8.4E1,9.7E1],"tree_param":{"num_deleted":"0","num_feature":"7","num_nodes":"31","size_leaf_vector":"1"}},{"base_weights":[-1.3630687E-3,-1.2296526E-1,1.1977163E-1,-1.5477104E-1,-6.273097E-2,5.7614937E-2,2.2441597E-1,-1.7143236E-1,-1.3230869E-1,-8.658452E-2,-4.317648E-2,4.135495E-2,1.126611E-1,1.9391578E-1,3.1779528E-1,-4.9562813E-3,-5.7024914E-3,-3.7630363E-3,-4.6356167E-3,-4.437198E-4,-2.7087035E-3,-1.5260186E-3,-7.7688275E-4,6.320653E-4,1.8916719E-3,2.9288398E-3,4.944472E-3,5.213689E-3,7.339324E-3,8.008526E-3,1.2255182E-2],"categories":[],"categories_nodes":[],"categories_segments":[],"categories_sizes":[],"default_left":[0,0,0,0,0,0,0,0,0,0,0,0,0,0,0,0,0,0,0,0,0,0,0,0,0,0,0,0,0,0,0],"id":1,"left_children":[1,3,5,7,9,11,13,15,17,19,21,23,25,27,29,-1,-1,-1,-1,-1,-1,-1,-1,-1,-1,-1,-1,-1,-1,-1,-1],"loss_changes":[6.110106E1,3.9559956E0,1.3503098E1,4.8405457E-1,3.307023E-1,1.1633811E0,2.1427956E0,5.8429718E-2,6.9330215E-2,8.432913E-2,5.1311195E-2,4.4285786E-1,2.1677089E-1,5.557709E-1,7.626438E-1,0E0,0E0,0E0,0E0,0E0,0E0,0E0,0E0,0E0,0E0,0E0,0E0,0E0,0E0,0E0,0E0],"parents":[2147483647,0,0,1,1,2,2,3,3,4,4,5,5,6,6,7,7,8,8,9,9,10,10,11,11,12,12,13,13,14,14],"right_children":[2,4,6,8,10,12,14,16,18,20,22,24,26,28,30,-1,-1,-1,-1,-1,-1,-1,-1,-1,-1,-1,-1,-1,-1,-1,-1],"split_conditions":[2.1722758E-1,1.0822793E-1,4.103794E-1,6.00813E-2,1.4939465E-1,3.7882724E-1,5.8892745E-1,1.1819151E-1,1.5467383E-1,9.3235865E-2,1.9035494E-1,2.954419E-1,4.6161783E-1,5.269095E-1,6.5084714E-1,-4.9562813E-3,-5.7024914E-3,-3.7630363E-3,-4.6356167E-3,-4.437198E-4,-2.7087035E-3,-1.5260186E-3,-7.7688275E-4,6.320653E-4,1.8916719E-3,2.9288398E-3,4.944472E-3,5.213689E-3,7.339324E-3,8.008526E-3,1.2255182E-2],"split_indices":[5,5,5,5,5,4,5,0,0,2,5,5,3,3,4,0,0,0,0,0,0,0,0,0,0,0,0,0,0,0,0],"split_type":[0,0,0,0,0,0,0,0,0,0,0,0,0,0,0,0,0,0,0,0,0,0,0,0,0,0,0,0,0,0,0],"sum_hessian":[4.146E3,2.069E3,2.077E3,1.353E3,7.16E2,1.304E3,7.73E2,7.73E2,5.8E2,3.21E2,3.95E2,1.008E3,2.96E2,5.85E2,1.88E2,5.87E2,1.86E2,4.48E2,1.32E2,1.6E1,3.05E2,2.72E2,1.23E2,5.22E2,4.86E2,2.32E2,6.4E1,4.22E2,1.63E2,1.23E2,6.5E1],"tree_param":{"num_deleted":"0","num_feature":"7","num_nodes":"31","size_leaf_vector":"1"}},{"base_weights":[1.6122526E-3,-1.17158405E-1,1.14341095E-1,-1.4678179E-1,-5.9874237E-2,5.1243152E-2,2.1215701E-1,-1.6483752E-1,-1.3307804E-1,-8.304591E-2,-3.964817E-2,2.6059724E-2,7.733024E-2,1.8059863E-1,3.3104688E-1,-4.960294E-3,1.873119E-3,-3.7713896E-3,-4.68685E-3,-1.3165628E-4,-2.605871E-3,-3.2671884E-4,-1.2892045E-3,5.5784907E-4,1.8151712E-3,2.0716758E-3,4.447378E-3,4.7639725E-3,6.875693E-3,8.300355E-3,1.2770252E-2],"categories":[],"categories_nodes":[],"categories_segments":[],"categories_sizes":[],"default_left":[0,0,0,0,0,0,0,0,0,0,0,0,0,0,0,0,0,0,0,0,0,0,0,0,0,0,0,0,0,0,0],"id":2,"left_children":[1,3,5,7,9,11,13,15,17,19,21,23,25,27,29,-1,-1,-1,-1,-1,-1,-1,-1,-1,-1,-1,-1,-1,-1,-1,-1],"loss_changes":[5.592535E1,3.4428082E0,1.3215689E1,3.096218E-1,3.224342E-1,8.546636E-1,3.0918694E0,7.6283455E-2,1.1113644E-1,9.658122E-2,3.5201192E-2,1.6986689E-1,3.6530375E-1,6.690769E-1,7.8256226E-1,0E0,0E0,0E0,0E0,0E0,0E0,0E0,0E0,0E0,0E0,0E0,0E0,0E0,0E0,0E0,0E0],"parents":[2147483647,0,0,1,1,2,2,3,3,4,4,5,5,6,6,7,7,8,8,9,9,10,10,11,11,12,12,13,13,14,14],"right_children":[2,4,6,8,10,12,14,16,18,20,22,24,26,28,30,-1,-1,-1,-1,-1,-1,-1,-1,-1,-1,-1,-1,-1,-1,-1,-1],"split_conditions":[2.1019852E-1,1.0822793E-1,3.9592803E-1,5.1282678E-2,1.4939465E-1,3.0345896E-1,5.957157E-1,5.6608546E-1,1.717451E-1,9.3235865E-2,1.3414699E-1,3.34726E-1,4.6551085E-1,4.9835575E-1,6.5084714E-1,-4.960294E-3,1.873119E-3,-3.7713896E-3,-4.68685E-3,-1.3165628E-4,-2.605871E-3,-3.2671884E-4,-1.2892045E-3,5.5784907E-4,1.8151712E-3,2.0716758E-3,4.447378E-3,4.7639725E-3,6.875693E-3,8.300355E-3,1.2770252E-2],"split_indices":[5,5,5,5,5,5,5,3,0,2,1,1,3,2,3,0,0,0,0,0,0,0,0,0,0,0,0,0,0,0,0],"split_type":[0,0,0,0,0,0,0,0,0,0,0,0,0,0,0,0,0,0,0,0,0,0,0,0,0,0,0,0,0,0,0],"sum_hessian":[4.175E3,2.033E3,2.142E3,1.339E3,6.94E2,1.303E3,8.39E2,5.73E2,7.66E2,3.22E2,3.72E2,6.64E2,6.39E2,6.65E2,1.74E2,5.72E2,1E0,5.86E2,1.8E2,1.5E1,3.07E2,3.9E1,3.33E2,5.47E2,1.17E2,5.74E2,6.5E1,4.62E2,2.03E2,1.13E2,6.1E1],"tree_param":{"num_deleted":"0","num_feature":"7","num_nodes":"31","size_leaf_vector":"1"}},{"base_weights":[-6.50152E-4,-1.24338955E-1,1.2047304E-1,-1.5410292E-1,-6.104908E-2,6.204325E-2,2.2166638E-1,-1.7454167E-1,-1.3968685E-1,-8.273857E-2,-3.587426E-2,4.6884067E-2,1.2897027E-1,1.8865447E-1,3.331351E-1,-5.0618486E-3,-5.7291454E-3,5.9651155E-3,-4.2099818E-3,-2.8802687E-3,-1.887076E-3,-1.4441853E-3,-3.5445852E-4,8.8392553E-4,2.2492814E-3,3.451588E-3,5.675884E-3,4.1202656E-3,6.3944384E-3,8.905869E-3,1.24865435E-2],"categories":[],"categories_nodes":[],"categories_segments":[],"categories_sizes":[],"default_left":[0,0,0,0,0,0,0,0,0,0,0,0,0,0,0,0,0,0,0,0,0,0,0,0,0,0,0,0,0,0,0],"id":3,"left_children":[1,3,5,7,9,11,13,15,17,19,21,23,25,27,29,-1,-1,-1,-1,-1,-1,-1,-1,-1,-1,-1,-1,-1,-1,-1,-1],"loss_changes":[6.2892685E1,3.9031525E0,1.2527096E1,3.9165878E-1,3.6068702E-1,1.3595495E0,2.7926712E0,2.3174286E-2,2.1003151E-1,8.7934494E-2,9.0908915E-2,5.355964E-1,1.8610191E-1,7.260723E-1,4.068432E-1,0E0,0E0,0E0,0E0,0E0,0E0,0E0,0E0,0E0,0E0,0E0,0E0,0E0,0E0,0E0,0E0],"parents":[2147483647,0,0,1,1,2,2,3,3,4,4,5,5,6,6,7,7,8,8,9,9,10,10,11,11,12,12,13,13,14,14],"right_children":[2,4,6,8,10,12,14,16,18,20,22,24,26,28,30,-1,-1,-1,-1,-1,-1,-1,-1,-1,-1,-1,-1,-1,-1,-1,-1],"split_conditions":[2.1722758E-1,1.1449019E-1,4.103794E-1,5.1282678E-2,1.6190442E-1,3.902458E-1,5.957157E-1,7.0806764E-2,2.6130425E-2,1.4523128E-1,2.1376713E-1,3.1256726E-1,4.905304E-1,4.0644705E-1,7.3409975E-1,-5.0618486E-3,-5.7291454E-3,5.9651155E-3,-4.2099818E-3,-2.8802687E-3,-1.887076E-3,-1.4441853E-3,-3.5445852E-4,8.8392553E-4,2.2492814E-3,3.451588E-3,5.675884E-3,4.1202656E-3,6.3944384E-3,8.905869E-3,1.24865435E-2],"split_indices":[6,6,6,6,6,5,6,1,5,5,5,6,3,5,6,0,0,0,0,0,0,0,0,0,0,0,0,0,0,0,0],"split_type":[0,0,0,0,0,0,0,0,0,0,0,0,0,0,0,0,0,0,0,0,0,0,0,0,0,0,0,0,0,0,0],"sum_hessian":[4.196E3,2.076E3,2.12E3,1.411E3,6.65E2,1.345E3,7.75E2,5.79E2,8.32E2,3.56E2,3.09E2,1.098E3,2.47E2,6E2,1.75E2,4.36E2,1.43E2,1E0,8.31E2,2.11E2,1.45E2,2.04E2,1.05E2,6.79E2,4.19E2,2.03E2,4.4E1,1.96E2,4.04E2,1.25E2,5E1],"tree_param":{"num_deleted":"0","num_feature":"7","num_nodes":"31","size_leaf_vector":"1"}},{"base_weights":[-1.209229E-3,-1.21487804E-1,1.18037984E-1,-1.5010703E-1,-6.1035234E-2,5.8428857E-2,2.2312123E-1,-1.6353574E-1,-1.2846887E-1,-8.644068E-2,-3.4597985E-2,4.0535457E-2,1.2059106E-1,1.836328E-1,3.2027537E-1,-4.7475956E-3,-5.4175532E-3,-4.257599E-3,-3.6783144E-3,-2.879386E-3,-2.042204E-3,-1.4517726E-3,-4.2942664E-4,1.0352505E-3,2.9870425E-3,3.1575211E-3,5.0248187E-3,4.0446687E-3,6.202085E-3,8.695722E-3,1.292323E-2],"categories":[],"categories_nodes":[],"categories_segments":[],"categories_sizes":[],"default_left":[0,0,0,0,0,0,0,0,0,0,0,0,0,0,0,0,0,0,0,0,0,0,0,0,0,0,0,0,0,0,0],"id":4,"left_children":[1,3,5,7,9,11,13,15,17,19,21,23,25,27,29,-1,-1,-1,-1,-1,-1,-1,-1,-1,-1,-1,-1,-1,-1,-1,-1],"loss_changes":[5.9924572E1,3.5894604E0,1.3128666E1,3.889904E-1,4.470148E-1,1.4855852E0,2.8530617E0,4.9505234E-2,2.5546074E-2,5.321002E-2,9.164232E-2,3.6730313E-1,1.9750357E-1,5.8333397E-1,6.078701E-1,0E0,0E0,0E0,0E0,0E0,0E0,0E0,0E0,0E0,0E0,0E0,0E0,0E0,0E0,0E0,0E0],"parents":[2147483647,0,0,1,1,2,2,3,3,4,4,5,5,6,6,7,7,8,8,9,9,10,10,11,11,12,12,13,13,14,14],"right_children":[2,4,6,8,10,12,14,16,18,20,22,24,26,28,30,-1,-1,-1,-1,-1,-1,-1,-1,-1,-1,-1,-1,-1,-1,-1,-1],"split_conditions":[2.1722758E-1,1.1449019E-1,4.103794E-1,6.564557E-2,1.593484E-1,3.7882724E-1,5.8168703E-1,1.1821117E-1,7.8292966E-2,1.4523128E-1,1.9035494E-1,3.8722774E-1,4.501305E-1,4.0644705E-1,7.053592E-1,-4.7475956E-3,-5.4175532E-3,-4.257599E-3,-3.6783144E-3,-2.879386E-3,-2.042204E-3,-1.4517726E-3,-4.2942664E-4,1.0352505E-3,2.9870425E-3,3.1575211E-3,5.0248187E-3,4.0446687E-3,6.202085E-3,8.695722E-3,1.292323E-2],"split_indices":[6,6,6,6,6,5,6,1,2,5,6,2,2,5,0,0,0,0,0,0,0,0,0,0,0,0,0,0,0,0,0],"split_type":[0,0,0,0,0,0,0,0,0,0,0,0,0,0,0,0,0,0,0,0,0,0,0,0,0,0,0,0,0,0,0],"sum_hessian":[4.176E3,2.079E3,2.097E3,1.41E3,6.69E2,1.339E3,7.58E2,8.66E2,5.44E2,3.4E2,3.29E2,1.041E3,2.98E2,5.41E2,2.17E2,6.69E2,1.97E2,1.58E2,3.86E2,2.21E2,1.19E2,1.95E2,1.34E2,9.46E2,9.5E1,2.27E2,7.1E1,1.76E2,3.65E2,1.73E2,4.4E1],"tree_param":{"num_deleted":"0","num_feature":"7","num_nodes":"31","size_leaf_vector":"1"}},{"base_weights":[4.6986944E-4,-1.1844394E-1,1.15024775E-1,-1.4447789E-1,-5.8580507E-2,5.776729E-2,2.1290891E-1,-1.5789661E-1,-1.24413386E-1,-7.983717E-2,-3.699878E-2,3.4129195E-2,9.527654E-2,1.796383E-1,3.22941E-1,-4.5298887E-3,-5.251914E-3,-4.1026184E-3,-3.514192E-3,-1.5904667E-4,-2.5150413E-3,-1.3221178E-3,-3.8736546E-4,8.9994224E-4,4.523842E-3,2.5101376E-3,3.9706635E-3,4.7722673E-3,7.245026E-3,8.86443E-3,1.2555046E-2],"categories":[],"categories_nodes":[],"categories_segments":[],"categories_sizes":[],"default_left":[0,0,0,0,0,0,0,0,0,0,0,0,0,0,0,0,0,0,0,0,0,0,0,0,0,0,0,0,0,0,0],"id":5,"left_children":[1,3,5,7,9,11,13,15,17,19,21,23,25,27,29,-1,-1,-1,-1,-1,-1,-1,-1,-1,-1,-1,-1,-1,-1,-1,-1],"loss_changes":[5.691339E1,3.1864243E0,1.1914289E1,3.648281E-1,2.8285098E-1,1.1884022E0,2.8157387E0,7.4495316E-2,3.5773277E-2,9.281635E-2,5.2405477E-2,3.9357483E-1,2.1225739E-1,7.311802E-1,3.513031E-1,0E0,0E0,0E0,0E0,0E0,0E0,0E0,0E0,0E0,0E0,0E0,0E0,0E0,0E0,0E0,0E0],"parents":[2147483647,0,0,1,1,2,2,3,3,4,4,5,5,6,6,7,7,8,8,9,9,10,10,11,11,12,12,13,13,14,14],"right_children":[2,4,6,8,10,12,14,16,18,20,22,24,26,28,30,-1,-1,-1,-1,-1,-1,-1,-1,-1,-1,-1,-1,-1,-1,-1,-1],"split_conditions":[2.1019852E-1,1.1632856E-1,4.103794E-1,6.46379E-2,1.5740189E-1,3.2558823E-1,5.957157E-1,1.8603428E-1,8.2426846E-2,9.6942104E-2,2.308679E-1,4.4553456E-1,4.0644705E-1,5.269095E-1,7.053592E-1,-4.5298887E-3,-5.251914E-3,-4.1026184E-3,-3.514192E-3,-1.5904667E-4,-2.5150413E-3,-1.3221178E-3,-3.8736546E-4,8.9994224E-4,4.523842E-3,2.5101376E-3,3.9706635E-3,4.7722673E-3,7.245026E-3,8.86443E-3,1.2555046E-2],"split_indices":[6,6,6,6,6,6,6,0,3,4,4,4,2,3,0,0,0,0,0,0,0,0,0,0,0,0,0,0,0,0,0],"split_type":[0,0,0,0,0,0,0,0,0,0,0,0,0,0,0,0,0,0,0,0,0,0,0,0,0,0,0,0,0,0,0],"sum_hessian":[4.176E3,2.049E3,2.127E3,1.427E3,6.22E2,1.343E3,7.84E2,8.51E2,5.76E2,3.12E2,3.1E2,8.25E2,5.18E2,6.04E2,1.8E2,6.14E2,2.37E2,2.07E2,3.69E2,1.6E1,2.96E2,2.39E2,7.1E1,7.98E2,2.7E1,3.97E2,1.21E2,4.56E2,1.48E2,1.43E2,3.7E1],"tree_param":{"num_deleted":"0","num_feature":"7","num_nodes":"31","size_leaf_vector":"1"}},{"base_weights":[-2.0846985E-3,-1.1427744E-1,1.106513E-1,-1.4318417E-1,-5.893202E-2,5.866682E-2,2.033468E-1,-1.609999E-1,-1.291256E-1,-8.362464E-2,-3.871617E-2,4.1365374E-2,1.170012E-1,1.709882E-1,3.0215004E-1,-5.0305435E-3,-4.585854E-3,6.0256314E-3,-3.8945307E-3,-3.9359037E-4,-2.6039132E-3,-1.4662141E-3,-3.5863058E-4,9.6747925E-4,2.3368495E-3,3.1699336E-3,5.2507897E-3,3.5710575E-3,5.86673E-3,8.027829E-3,1.1436252E-2],"categories":[],"categories_nodes":[],"categories_segments":[],"categories_sizes":[],"default_left":[0,0,0,0,0,0,0,0,0,0,0,0,0,0,0,0,0,0,0,0,0,0,0,0,0,0,0,0,0,0,0],"id":6,"left_children":[1,3,5,7,9,11,13,15,17,19,21,23,25,27,29,-1,-1,-1,-1,-1,-1,-1,-1,-1,-1,-1,-1,-1,-1,-1,-1],"loss_changes":[5.2464565E1,3.3176613E0,9.958015E0,3.210926E-1,3.5367775E-1,1.3344607E0,2.3238087E0,6.9007874E-3,2.0146751E-1,7.066083E-2,1.067912E-1,3.3881927E-1,1.8082428E-1,6.940899E-1,3.9519882E-1,0E0,0E0,0E0,0E0,0E0,0E0,0E0,0E0,0E0,0E0,0E0,0E0,0E0,0E0,0E0,0E0],"parents":[2147483647,0,0,1,1,2,2,3,3,4,4,5,5,6,6,7,7,8,8,9,9,10,10,11,11,12,12,13,13,14,14],"right_children":[2,4,6,8,10,12,14,16,18,20,22,24,26,28,30,-1,-1,-1,-1,-1,-1,-1,-1,-1,-1,-1,-1,-1,-1,-1,-1],"split_conditions":[2.2065364E-1,1.0837048E-1,4.1740355E-1,5.1282678E-2,1.4939465E-1,3.8087207E-1,5.957157E-1,3.8664773E-2,2.6130425E-2,9.331944E-2,2.1376713E-1,3.4945756E-1,4.9451187E-1,4.0644705E-1,7.3409975E-1,-5.0305435E-3,-4.585854E-3,6.0256314E-3,-3.8945307E-3,-3.9359037E-4,-2.6039132E-3,-1.4662141E-3,-3.5863058E-4,9.6747925E-4,2.3368495E-3,3.1699336E-3,5.2507897E-3,3.5710575E-3,5.86673E-3,8.027829E-3,1.1436252E-2],"split_indices":[6,6,6,6,6,5,6,6,5,3,5,2,3,5,6,0,0,0,0,0,0,0,0,0,0,0,0,0,0,0,0],"split_type":[0,0,0,0,0,0,0,0,0,0,0,0,0,0,0,0,0,0,0,0,0,0,0,0,0,0,0,0,0,0,0],"sum_hessian":[4.146E3,2.078E3,2.068E3,1.364E3,7.14E2,1.326E3,7.42E2,5.97E2,7.67E2,3.2E2,3.94E2,1.024E3,3.02E2,5.61E2,1.81E2,3.17E2,2.8E2,1E0,7.66E2,1.4E1,3.06E2,2.85E2,1.09E2,8.21E2,2.03E2,2.55E2,4.7E1,1.82E2,3.79E2,1.29E2,5.2E1],"tree_param":{"num_deleted":"0","num_feature":"7","num_nodes":"31","size_leaf_vector":"1"}},{"base_weights":[-5.043571E-4,-9.920057E-2,9.6935704E-2,-1.243282E-1,-4.6308096E-2,4.6919066E-2,1.8811531E-1,-1.3940616E-1,-1.0682669E-1,-6.5422304E-2,-3.3592332E-2,2.1933716E-2,7.697066E-2,1.566019E-1,2.690898E-1,-3.9879596E-3,-4.7234935E-3,-3.0083123E-3,-3.8012534E-3,6.192825E-4,-2.1837994E-3,-1.2089707E-3,-6.0094974E-4,4.4561079E-4,1.5487698E-3,1.995515E-3,4.240475E-3,4.2344453E-3,6.095398E-3,6.798569E-3,1.0853153E-2],"categories":[],"categories_nodes":[],"categories_segments":[],"categories_sizes":[],"default_left":[0,0,0,0,0,0,0,0,0,0,0,0,0,0,0,0,0,0,0,0,0,0,0,0,0,0,0,0,0,0,0],"id":7,"left_children":[1,3,5,7,9,11,13,15,17,19,21,23,25,27,29,-1,-1,-1,-1,-1,-1,-1,-1,-1,-1,-1,-1,-1,-1,-1,-1],"loss_changes":[4.0535507E1,2.7773018E0,9.66399E0,3.5956192E-1,1.6210532E-1,1.0277264E0,1.8742466E0,6.773472E-2,7.336807E-2,1.721524E-1,3.629923E-2,1.5689787E-1,4.0919137E-1,3.6217594E-1,7.4069786E-1,0E0,0E0,0E0,0E0,0E0,0E0,0E0,0E0,0E0,0E0,0E0,0E0,0E0,0E0,0E0,0E0],"parents":[2147483647,0,0,1,1,2,2,3,3,4,4,5,5,6,6,7,7,8,8,9,9,10,10,11,11,12,12,13,13,14,14],"right_children":[2,4,6,8,10,12,14,16,18,20,22,24,26,28,30,-1,-1,-1,-1,-1,-1,-1,-1,-1,-1,-1,-1,-1,-1,-1,-1],"split_conditions":[2.1722758E-1,1.16215505E-1,4.1740355E-1,6.00813E-2,1.4939465E-1,3.153248E-1,5.8168703E-1,7.205528E-2,1.4906041E-1,1.02393314E-1,1.9035494E-1,3.34726E-1,4.6551085E-1,5.402008E-1,6.5084714E-1,-3.9879596E-3,-4.7234935E-3,-3.0083123E-3,-3.8012534E-3,6.192825E-4,-2.1837994E-3,-1.2089707E-3,-6.0094974E-4,4.4561079E-4,1.5487698E-3,1.995515E-3,4.240475E-3,4.2344453E-3,6.095398E-3,6.798569E-3,1.0853153E-2],"split_indices":[5,5,5,5,5,5,5,0,0,3,5,1,3,3,3,0,0,0,0,0,0,0,0,0,0,0,0,0,0,0,0],"split_type":[0,0,0,0,0,0,0,0,0,0,0,0,0,0,0,0,0,0,0,0,0,0,0,0,0,0,0,0,0,0,0],"sum_hessian":[4.213E3,2.093E3,2.12E3,1.418E3,6.75E2,1.37E3,7.5E2,7.58E2,6.6E2,2.68E2,4.07E2,7.49E2,6.21E2,5.42E2,2.08E2,5.64E2,1.94E2,5.01E2,1.59E2,2.1E1,2.47E2,2.71E2,1.36E2,6.06E2,1.43E2,5.36E2,8.5E1,4.1E2,1.32E2,1.45E2,6.3E1],"tree_param":{"num_deleted":"0","num_feature":"7","num_nodes":"31","size_leaf_vector":"1"}},{"base_weights":[1.4705248E-3,-1.048161E-1,1.0709818E-1,-1.336145E-1,-5.449877E-2,5.4780375E-2,1.971413E-1,-1.4998679E-1,-1.204866E-1,-6.545544E-2,-1.6023189E-2,3.6900476E-2,9.966631E-2,1.6819443E-1,2.9333484E-1,-4.3583796E-3,-4.9348418E-3,-4.154618E-3,-3.4611197E-3,-2.377157E-3,-1.4975644E-3,-6.349567E-4,1.8068011E-3,6.332812E-4,1.7508012E-3,2.6983016E-3,5.0365557E-3,4.4339416E-3,6.465813E-3,7.5502135E-3,1.1435122E-2],"categories":[],"categories_nodes":[],"categories_segments":[],"categories_sizes":[],"default_left":[0,0,0,0,0,0,0,0,0,0,0,0,0,0,0,0,0,0,0,0,0,0,0,0,0,0,0,0,0,0,0],"id":8,"left_children":[1,3,5,7,9,11,13,15,17,19,21,23,25,27,29,-1,-1,-1,-1,-1,-1,-1,-1,-1,-1,-1,-1,-1,-1,-1,-1],"loss_changes":[4.6984184E1,3.0154533E0,9.877296E0,2.6692963E-1,3.1976175E-1,1.0629194E0,2.0975132E0,1.6123772E-2,5.2262306E-2,1.2281752E-1,6.792825E-2,3.213724E-1,2.3562264E-1,5.425682E-1,5.517721E-1,0E0,0E0,0E0,0E0,0E0,0E0,0E0,0E0,0E0,0E0,0E0,0E0,0E0,0E0,0E0,0E0],"parents":[2147483647,0,0,1,1,2,2,3,3,4,4,5,5,6,6,7,7,8,8,9,9,10,10,11,11,12,12,13,13,14,14],"right_children":[2,4,6,8,10,12,14,16,18,20,22,24,26,28,30,-1,-1,-1,-1,-1,-1,-1,-1,-1,-1,-1,-1,-1,-1,-1,-1],"split_conditions":[2.2065364E-1,1.0837048E-1,4.1740355E-1,5.2772053E-2,1.8630953E-1,3.6198208E-1,5.957157E-1,1.1821117E-1,6.00813E-2,1.4939465E-1,3.3178657E-1,3.0345896E-1,4.9451187E-1,5.152894E-1,7.3409975E-1,-4.3583796E-3,-4.9348418E-3,-4.154618E-3,-3.4611197E-3,-2.377157E-3,-1.4975644E-3,-6.349567E-4,1.8068011E-3,6.332812E-4,1.7508012E-3,2.6983016E-3,5.0365557E-3,4.4339416E-3,6.465813E-3,7.5502135E-3,1.1435122E-2],"split_indices":[6,6,6,6,6,5,6,1,5,5,5,6,3,3,6,0,0,0,0,0,0,0,0,0,0,0,0,0,0,0,0],"split_type":[0,0,0,0,0,0,0,0,0,0,0,0,0,0,0,0,0,0,0,0,0,0,0,0,0,0,0,0,0,0,0],"sum_hessian":[4.183E3,2.085E3,2.098E3,1.325E3,7.6E2,1.328E3,7.7E2,5.85E2,7.4E2,5.91E2,1.69E2,9.51E2,3.77E2,5.94E2,1.76E2,4.5E2,1.35E2,1.58E2,5.82E2,3.11E2,2.8E2,1.59E2,1E1,5.49E2,4.02E2,3.32E2,4.5E1,4.18E2,1.76E2,1.22E2,5.4E1],"tree_param":{"num_deleted":"0","num_feature":"7","num_nodes":"31","size_leaf_vector":"1"}},{"base_weights":[2.1541242E-3,-1.01001546E-1,1.07499324E-1,-1.310124E-1,-4.922067E-2,5.6464322E-2,1.9589448E-1,-1.4807913E-1,-1.1749344E-1,-7.193261E-2,-2.6323818E-2,4.1321125E-2,1.0480988E-1,1.612321E-1,2.7885756E-1,-4.454818E-3,-1.5117637E-3,6.071475E-3,-3.5456656E-3,6.2618E-5,-2.246969E-3,-1.2103559E-3,-2.3497209E-4,9.3047E-4,2.2630596E-3,2.8120345E-3,4.877053E-3,4.351739E-3,6.322612E-3,7.063076E-3,9.699762E-3],"categories":[],"categories_nodes":[],"categories_segments":[],"categories_sizes":[],"default_left":[0,0,0,0,0,0,0,0,0,0,0,0,0,0,0,0,0,0,0,0,0,0,0,0,0,0,0,0,0,0,0],"id":9,"left_children":[1,3,5,7,9,11,13,15,17,19,21,23,25,27,29,-1,-1,-1,-1,-1,-1,-1,-1,-1,-1,-1,-1,-1,-1,-1,-1],"loss_changes":[4.55108E1,3.2817898E0,9.336239E0,2.9154015E-1,4.0269125E-1,9.583888E-1,2.134819E0,1.6345024E-2,1.9120026E-1,8.578849E-2,1.0054207E-1,3.5027742E-1,1.8498778E-1,3.9954948E-1,3.5252953E-1,0E0,0E0,0E0,0E0,0E0,0E0,0E0,0E0,0E0,0E0,0E0,0E0,0E0,0E0,0E0,0E0],"parents":[2147483647,0,0,1,1,2,2,3,3,4,4,5,5,6,6,7,7,8,8,9,9,10,10,11,11,12,12,13,13,14,14],"right_children":[2,4,6,8,10,12,14,16,18,20,22,24,26,28,30,-1,-1,-1,-1,-1,-1,-1,-1,-1,-1,-1,-1,-1,-1,-1,-1],"split_conditions":[2.2804645E-1,1.0837048E-1,4.1740355E-1,5.1282678E-2,1.6455875E-1,3.7882724E-1,5.8168703E-1,6.296322E-1,2.6130425E-2,8.252024E-2,1.9035494E-1,3.4466502E-1,4.9451187E-1,5.269095E-1,5.957157E-1,-4.454818E-3,-1.5117637E-3,6.071475E-3,-3.5456656E-3,6.2618E-5,-2.246969E-3,-1.2103559E-3,-2.3497209E-4,9.3047E-4,2.2630596E-3,2.8120345E-3,4.877053E-3,4.351739E-3,6.322612E-3,7.063076E-3,9.699762E-3],"split_indices":[6,6,6,6,5,5,6,4,5,4,6,6,3,3,3,0,0,0,0,0,0,0,0,0,0,0,0,0,0,0,0],"split_type":[0,0,0,0,0,0,0,0,0,0,0,0,0,0,0,0,0,0,0,0,0,0,0,0,0,0,0,0,0,0,0],"sum_hessian":[4.186E3,2.115E3,2.071E3,1.338E3,7.77E2,1.314E3,7.57E2,5.87E2,7.51E2,3.89E2,3.88E2,1.002E3,3.12E2,5.36E2,2.21E2,5.84E2,3E0,1E0,7.5E2,1.5E1,3.74E2,2.2E2,1.68E2,7.71E2,2.31E2,2.64E2,4.8E1,4.07E2,1.29E2,1.15E2,1.06E2],"tree_param":{"num_deleted":"0","num_feature":"7","num_nodes":"31","size_leaf_vector":"1"}},{"base_weights":[1.0895644E-3,-9.704251E-2,1.0808814E-1,-1.2629986E-1,-4.2761363E-2,5.9260268E-2,1.95031E-1,-1.4337839E-1,-1.13802254E-1,-5.872382E-2,-6.9865165E-3,4.516445E-2,1.1574359E-1,1.6273364E-1,2.8354308E-1,-4.583621E-3,-3.9945166E-3,5.980403E-3,-3.4329554E-3,1.6320906E-4,-1.8544373E-3,-7.412144E-4,2.8888113E-4,9.423379E-4,2.216137E-3,3.5359447E-3,-1.3730838E-3,3.4895423E-3,5.473595E-3,7.583711E-3,1.0562002E-2],"categories":[],"categories_nodes":[],"categories_segments":[],"categories_sizes":[],"default_left":[0,0,0,0,0,0,0,0,0,0,0,0,0,0,0,0,0,0,0,0,0,0,0,0,0,0,0,0,0,0,0],"id":10,"left_children":[1,3,5,7,9,11,13,15,17,19,21,23,25,27,29,-1,-1,-1,-1,-1,-1,-1,-1,-1,-1,-1,-1,-1,-1,-1,-1],"loss_changes":[4.348046E1,3.424942E0,8.398251E0,2.83144E-1,4.3244898E-1,1.005919E0,1.9892578E0,3.6337852E-2,1.8349552E-1,1.0425377E-1,6.943225E-2,3.9959598E-1,9.2074394E-2,4.583912E-1,3.0927944E-1,0E0,0E0,0E0,0E0,0E0,0E0,0E0,0E0,0E0,0E0,0E0,0E0,0E0,0E0,0E0,0E0],"parents":[2147483647,0,0,1,1,2,2,3,3,4,4,5,5,6,6,7,7,8,8,9,9,10,10,11,11,12,12,13,13,14,14],"right_children":[2,4,6,8,10,12,14,16,18,20,22,24,26,28,30,-1,-1,-1,-1,-1,-1,-1,-1,-1,-1,-1,-1,-1,-1,-1,-1],"split_conditions":[2.3301594E-1,1.1632856E-1,4.260498E-1,5.1282678E-2,1.9035494E-1,4.0020445E-1,5.957157E-1,3.8664773E-2,2.6130425E-2,1.0242773E-1,2.1376713E-1,3.3178657E-1,6.403625E-1,4.0644705E-1,7.3409975E-1,-4.583621E-3,-3.9945166E-3,5.980403E-3,-3.4329554E-3,1.6320906E-4,-1.8544373E-3,-7.412144E-4,2.8888113E-4,9.423379E-4,2.216137E-3,3.5359447E-3,-1.3730838E-3,3.4895423E-3,5.473595E-3,7.583711E-3,1.0562002E-2],"split_indices":[6,6,6,6,6,5,6,6,5,4,5,6,1,5,6,0,0,0,0,0,0,0,0,0,0,0,0,0,0,0,0],"split_type":[0,0,0,0,0,0,0,0,0,0,0,0,0,0,0,0,0,0,0,0,0,0,0,0,0,0,0,0,0,0,0],"sum_hessian":[4.139E3,2.159E3,1.98E3,1.402E3,7.57E2,1.269E3,7.11E2,5.88E2,8.14E2,5.23E2,2.34E2,1.017E3,2.52E2,5.23E2,1.88E2,2.99E2,2.89E2,1E0,8.13E2,2.4E1,4.99E2,1.13E2,1.21E2,6.89E2,3.28E2,2.49E2,3E0,1.58E2,3.65E2,1.33E2,5.5E1],"tree_param":{"num_deleted":"0","num_feature":"7","num_nodes":"31","size_leaf_vector":"1"}},{"base_weights":[-1.3720264E-3,-9.762666E-2,9.6710004E-2,-1.22905046E-1,-4.64557E-2,5.1385697E-2,1.851358E-1,-1.349195E-1,-1.04835875E-1,-6.361759E-2,-2.7874395E-2,3.871565E-2,1.061374E-1,1.6598351E-1,2.950424E-1,-3.8741396E-3,-4.491925E-3,-3.4267893E-3,-2.8875438E-3,2.3382952E-4,-1.9894629E-3,-1.1518573E-3,-2.8987037E-4,7.177853E-4,2.1505246E-3,2.676283E-3,4.9012415E-3,4.3791872E-3,6.296633E-3,8.3018077E-4,8.922468E-3],"categories":[],"categories_nodes":[],"categories_segments":[],"categories_sizes":[],"default_left":[0,0,0,0,0,0,0,0,0,0,0,0,0,0,0,0,0,0,0,0,0,0,0,0,0,0,0,0,0,0,0],"id":11,"left_children":[1,3,5,7,9,11,13,15,17,19,21,23,25,27,29,-1,-1,-1,-1,-1,-1,-1,-1,-1,-1,-1,-1,-1,-1,-1,-1],"loss_changes":[3.9170086E1,2.702921E0,8.226591E0,2.89999E-1,2.1953654E-1,9.3933153E-1,1.4160805E0,5.242443E-2,3.447008E-2,6.987369E-2,6.3817084E-2,5.3755593E-1,2.3249793E-1,4.9210167E-1,5.649185E-2,0E0,0E0,0E0,0E0,0E0,0E0,0E0,0E0,0E0,0E0,0E0,0E0,0E0,0E0,0E0,0E0],"parents":[2147483647,0,0,1,1,2,2,3,3,4,4,5,5,6,6,7,7,8,8,9,9,10,10,11,11,12,12,13,13,14,14],"right_children":[2,4,6,8,10,12,14,16,18,20,22,24,26,28,30,-1,-1,-1,-1,-1,-1,-1,-1,-1,-1,-1,-1,-1,-1,-1,-1],"split_conditions":[2.2065364E-1,1.1449019E-1,4.260498E-1,6.46379E-2,1.6190442E-1,3.8722774E-1,6.403625E-1,1.8603428E-1,8.256447E-2,9.331944E-2,2.1364425E-1,3.36761E-1,4.905304E-1,5.269095E-1,3.7421167E-2,-3.8741396E-3,-4.491925E-3,-3.4267893E-3,-2.8875438E-3,2.3382952E-4,-1.9894629E-3,-1.1518573E-3,-2.8987037E-4,7.177853E-4,2.1505246E-3,2.676283E-3,4.9012415E-3,4.3791872E-3,6.296633E-3,8.3018077E-4,8.922468E-3],"split_indices":[6,6,6,6,6,2,6,0,6,3,2,6,3,3,1,0,0,0,0,0,0,0,0,0,0,0,0,0,0,0,0],"split_type":[0,0,0,0,0,0,0,0,0,0,0,0,0,0,0,0,0,0,0,0,0,0,0,0,0,0,0,0,0,0,0],"sum_hessian":[4.147E3,2.093E3,2.054E3,1.4E3,6.93E2,1.359E3,6.95E2,8.37E2,5.63E2,3.59E2,3.34E2,1.105E3,2.54E2,5.94E2,1.01E2,6.09E2,2.28E2,2.63E2,3E2,1.3E1,3.46E2,2.11E2,1.23E2,7.64E2,3.41E2,1.98E2,5.6E1,4.11E2,1.83E2,1E0,1E2],"tree_param":{"num_deleted":"0","num_feature":"7","num_nodes":"31","size_leaf_vector":"1"}},{"base_weights":[7.6889136E-4,-9.566853E-2,9.63305E-2,-1.20122105E-1,-4.55813E-2,4.9064804E-2,1.743855E-1,-1.3179472E-1,-1.0074973E-1,-6.189206E-2,-2.4355713E-2,3.4732312E-2,1.00701116E-1,1.4954874E-1,2.5879964E-1,-4.293386E-3,-3.7251215E-3,-3.2477023E-3,-2.791886E-3,-2.3580881E-4,-1.9543518E-3,-2.4581351E-3,-6.174151E-4,9.282797E-4,3.4921945E-3,2.7705494E-3,4.4734604E-3,3.023096E-3,5.010973E-3,7.007044E-3,1.0368341E-2],"categories":[],"categories_nodes":[],"categories_segments":[],"categories_sizes":[],"default_left":[0,0,0,0,0,0,0,0,0,0,0,0,0,0,0,0,0,0,0,0,0,0,0,0,0,0,0,0,0,0,0],"id":12,"left_children":[1,3,5,7,9,11,13,15,17,19,21,23,25,27,29,-1,-1,-1,-1,-1,-1,-1,-1,-1,-1,-1,-1,-1,-1,-1,-1],"loss_changes":[3.8401886E1,2.5347843E0,7.7131977E0,3.0171585E-1,2.3460472E-1,9.623029E-1,1.6154957E0,5.6957245E-2,2.0393372E-2,6.7157745E-2,6.309429E-2,3.130337E-1,1.00626945E-1,5.051031E-1,3.09165E-1,0E0,0E0,0E0,0E0,0E0,0E0,0E0,0E0,0E0,0E0,0E0,0E0,0E0,0E0,0E0,0E0],"parents":[2147483647,0,0,1,1,2,2,3,3,4,4,5,5,6,6,7,7,8,8,9,9,10,10,11,11,12,12,13,13,14,14],"right_children":[2,4,6,8,10,12,14,16,18,20,22,24,26,28,30,-1,-1,-1,-1,-1,-1,-1,-1,-1,-1,-1,-1,-1,-1,-1,-1],"split_conditions":[2.2065364E-1,1.1449019E-1,4.103794E-1,6.564557E-2,1.696708E-1,3.7882724E-1,5.957157E-1,3.920055E-2,8.958371E-2,9.331944E-2,1.3658996E-1,4.3761578E-1,4.905304E-1,3.8420966E-1,6.754832E-1,-4.293386E-3,-3.7251215E-3,-3.2477023E-3,-2.791886E-3,-2.3580881E-4,-1.9543518E-3,-2.4581351E-3,-6.174151E-4,9.282797E-4,3.4921945E-3,2.7705494E-3,4.4734604E-3,3.023096E-3,5.010973E-3,7.007044E-3,1.0368341E-2],"split_indices":[6,6,6,6,5,5,6,6,4,3,6,4,3,5,0,0,0,0,0,0,0,0,0,0,0,0,0,0,0,0,0],"split_type":[0,0,0,0,0,0,0,0,0,0,0,0,0,0,0,0,0,0,0,0,0,0,0,0,0,0,0,0,0,0,0],"sum_hessian":[4.165E3,2.073E3,2.092E3,1.392E3,6.81E2,1.304E3,7.88E2,8.65E2,5.27E2,3.84E2,2.97E2,1.022E3,2.82E2,6.11E2,1.77E2,3.41E2,5.24E2,2.6E2,2.67E2,2.2E1,3.62E2,1.7E1,2.8E2,9.78E2,4.4E1,2.43E2,3.9E1,1.63E2,4.48E2,1.4E2,3.7E1],"tree_param":{"num_deleted":"0","num_feature":"7","num_nodes":"31","size_leaf_vector":"1"}},{"base_weights":[-5.214789E-4,-9.245455E-2,9.212072E-2,-1.14825614E-1,-4.3560073E-2,4.5676634E-2,1.6980784E-1,-1.303009E-1,-1.03600115E-1,-5.8879666E-2,-2.6793683E-2,3.3134528E-2,9.3399726E-2,1.4030145E-1,2.4565633E-1,-3.788064E-3,-4.4420506E-3,6.0139527E-3,-3.1261302E-3,-2.6617226E-5,-1.9149571E-3,-1.1233506E-3,-3.6706892E-4,8.2044926E-4,2.5010838E-3,2.456881E-3,4.1063894E-3,3.4557334E-3,5.119032E-3,5.9477566E-3,8.959655E-3],"categories":[],"categories_nodes":[],"categories_segments":[],"categories_sizes":[],"default_left":[0,0,0,0,0,0,0,0,0,0,0,0,0,0,0,0,0,0,0,0,0,0,0,0,0,0,0,0,0,0,0],"id":13,"left_children":[1,3,5,7,9,11,13,15,17,19,21,23,25,27,29,-1,-1,-1,-1,-1,-1,-1,-1,-1,-1,-1,-1,-1,-1,-1,-1],"loss_changes":[3.548133E1,2.2821789E0,7.479065E0,2.3561287E-1,1.6743255E-1,7.75018E-1,1.7022343E0,2.4215698E-2,1.744833E-1,9.84503E-2,4.8541665E-2,2.9740095E-1,1.23838425E-1,4.076414E-1,4.8338604E-1,0E0,0E0,0E0,0E0,0E0,0E0,0E0,0E0,0E0,0E0,0E0,0E0,0E0,0E0,0E0,0E0],"parents":[2147483647,0,0,1,1,2,2,3,3,4,4,5,5,6,6,7,7,8,8,9,9,10,10,11,11,12,12,13,13,14,14],"right_children":[2,4,6,8,10,12,14,16,18,20,22,24,26,28,30,-1,-1,-1,-1,-1,-1,-1,-1,-1,-1,-1,-1,-1,-1,-1,-1],"split_conditions":[2.1722758E-1,1.1632856E-1,4.103794E-1,5.1282678E-2,1.6689359E-1,3.8087207E-1,5.8168703E-1,2.4789004E-1,2.6130425E-2,1.0242773E-1,1.8630953E-1,3.8722774E-1,4.9835575E-1,4.6161783E-1,5.957157E-1,-3.788064E-3,-4.4420506E-3,6.0139527E-3,-3.1261302E-3,-2.6617226E-5,-1.9149571E-3,-1.1233506E-3,-3.6706892E-4,8.2044926E-4,2.5010838E-3,2.456881E-3,4.1063894E-3,3.4557334E-3,5.119032E-3,5.9477566E-3,8.959655E-3],"split_indices":[6,6,6,6,5,5,6,2,5,4,6,2,5,3,3,0,0,0,0,0,0,0,0,0,0,0,0,0,0,0,0],"split_type":[0,0,0,0,0,0,0,0,0,0,0,0,0,0,0,0,0,0,0,0,0,0,0,0,0,0,0,0,0,0,0],"sum_hessian":[4.164E3,2.09E3,2.074E3,1.433E3,6.57E2,1.299E3,7.75E2,5.98E2,8.35E2,3.42E2,3.15E2,1.03E3,2.69E2,5.6E2,2.15E2,4.94E2,1.04E2,1E0,8.34E2,2.7E1,3.15E2,1.81E2,1.34E2,9.25E2,1.05E2,2.15E2,5.4E1,3.09E2,2.51E2,1.16E2,9.9E1],"tree_param":{"num_deleted":"0","num_feature":"7","num_nodes":"31","size_leaf_vector":"1"}},{"base_weights":[8.895821E-5,-8.85748E-2,8.951665E-2,-1.1207838E-1,-4.7366332E-2,4.6346944E-2,1.6557334E-1,-1.2630236E-1,-1.0042547E-1,-6.745481E-2,-2.8177358E-2,2.0552998E-2,6.982029E-2,1.3700148E-1,2.368309E-1,-3.6253773E-3,-4.198655E-3,9.3425775E-4,-3.0300512E-3,-4.89387E-4,-2.108943E-3,-1.1659288E-3,-2.145444E-4,3.4923383E-4,1.4249086E-3,1.6990859E-3,3.6313094E-3,3.524121E-3,5.078807E-3,5.9505273E-3,8.397451E-3],"categories":[],"categories_nodes":[],"categories_segments":[],"categories_sizes":[],"default_left":[0,0,0,0,0,0,0,0,0,0,0,0,0,0,0,0,0,0,0,0,0,0,0,0,0,0,0,0,0,0,0],"id":14,"left_children":[1,3,5,7,9,11,13,15,17,19,21,23,25,27,29,-1,-1,-1,-1,-1,-1,-1,-1,-1,-1,-1,-1,-1,-1,-1,-1],"loss_changes":[3.327006E1,2.0354195E0,6.8512344E0,2.095871E-1,2.9376042E-1,8.0626225E-1,1.5067406E0,2.7784348E-2,5.9399605E-2,5.323708E-2,8.825472E-2,1.5240422E-1,4.6452713E-1,3.219471E-1,3.0092144E-1,0E0,0E0,0E0,0E0,0E0,0E0,0E0,0E0,0E0,0E0,0E0,0E0,0E0,0E0,0E0,0E0],"parents":[2147483647,0,0,1,1,2,2,3,3,4,4,5,5,6,6,7,7,8,8,9,9,10,10,11,11,12,12,13,13,14,14],"right_children":[2,4,6,8,10,12,14,16,18,20,22,24,26,28,30,-1,-1,-1,-1,-1,-1,-1,-1,-1,-1,-1,-1,-1,-1,-1,-1],"split_conditions":[2.1722758E-1,1.04531534E-1,4.1332373E-1,5.1282678E-2,1.4939465E-1,3.0345896E-1,5.8168703E-1,1.8603428E-1,3.8664773E-2,9.331944E-2,1.9035494E-1,3.1256726E-1,4.0644705E-1,4.8104855E-1,5.957157E-1,-3.6253773E-3,-4.198655E-3,9.3425775E-4,-3.0300512E-3,-4.89387E-4,-2.108943E-3,-1.1659288E-3,-2.145444E-4,3.4923383E-4,1.4249086E-3,1.6990859E-3,3.6313094E-3,3.524121E-3,5.078807E-3,5.9505273E-3,8.397451E-3],"split_indices":[6,6,6,6,6,6,6,0,3,3,6,2,2,3,3,0,0,0,0,0,0,0,0,0,0,0,0,0,0,0,0],"split_type":[0,0,0,0,0,0,0,0,0,0,0,0,0,0,0,0,0,0,0,0,0,0,0,0,0,0,0,0,0,0,0],"sum_hessian":[4.194E3,2.106E3,2.088E3,1.34E3,7.66E2,1.333E3,7.55E2,5.99E2,7.41E2,3.73E2,3.93E2,6.36E2,6.97E2,5.41E2,2.14E2,4.35E2,1.64E2,3E0,7.38E2,2E1,3.53E2,2.6E2,1.33E2,4.79E2,1.57E2,5.56E2,1.41E2,3.4E2,2.01E2,1.16E2,9.8E1],"tree_param":{"num_deleted":"0","num_feature":"7","num_nodes":"31","size_leaf_vector":"1"}},{"base_weights":[1.8226126E-3,-8.157532E-2,9.266438E-2,-1.0840983E-1,-3.3929013E-2,4.9842894E-2,1.63473E-1,-1.1902206E-1,-9.098544E-2,-5.0009795E-2,-5.7533556E-3,3.898458E-2,9.992919E-2,1.3885415E-1,2.3912682E-1,-3.413189E-3,-3.97977E-3,-3.6545077E-3,-2.6627907E-3,5.958548E-5,-1.5826916E-3,-2.996145E-4,1.2928017E-3,7.827717E-4,2.1364202E-3,3.1161082E-3,-1.0618237E-3,3.7893078E-3,5.851414E-3,6.4294324E-3,9.674197E-3],"categories":[],"categories_nodes":[],"categories_segments":[],"categories_sizes":[],"default_left":[0,0,0,0,0,0,0,0,0,0,0,0,0,0,0,0,0,0,0,0,0,0,0,0,0,0,0,0,0,0,0],"id":15,"left_children":[1,3,5,7,9,11,13,15,17,19,21,23,25,27,29,-1,-1,-1,-1,-1,-1,-1,-1,-1,-1,-1,-1,-1,-1,-1,-1],"loss_changes":[3.1561666E1,2.773365E0,6.037918E0,2.4601173E-1,3.5493207E-1,6.7265725E-1,1.3655415E0,4.646778E-2,2.5557995E-2,7.136786E-2,5.957721E-2,4.2362213E-1,1.2154055E-1,3.7644005E-1,3.0933762E-1,0E0,0E0,0E0,0E0,0E0,0E0,0E0,0E0,0E0,0E0,0E0,0E0,0E0,0E0,0E0,0E0],"parents":[2147483647,0,0,1,1,2,2,3,3,4,4,5,5,6,6,7,7,8,8,9,9,10,10,11,11,12,12,13,13,14,14],"right_children":[2,4,6,8,10,12,14,16,18,20,22,24,26,28,30,-1,-1,-1,-1,-1,-1,-1,-1,-1,-1,-1,-1,-1,-1,-1,-1],"split_conditions":[2.3821647E-1,1.1632856E-1,4.1740355E-1,6.564557E-2,1.8630953E-1,3.9255112E-1,5.957157E-1,1.8603428E-1,6.0823526E-2,1.0242773E-1,3.3024314E-1,3.4466502E-1,6.403625E-1,5.71807E-1,6.754832E-1,-3.413189E-3,-3.97977E-3,-3.6545077E-3,-2.6627907E-3,5.958548E-5,-1.5826916E-3,-2.996145E-4,1.2928017E-3,7.827717E-4,2.1364202E-3,3.1161082E-3,-1.0618237E-3,3.7893078E-3,5.851414E-3,6.4294324E-3,9.674197E-3],"split_indices":[6,6,6,6,6,2,6,0,2,4,4,6,1,4,0,0,0,0,0,0,0,0,0,0,0,0,0,0,0,0,0],"split_type":[0,0,0,0,0,0,0,0,0,0,0,0,0,0,0,0,0,0,0,0,0,0,0,0,0,0,0,0,0,0,0],"sum_hessian":[4.164E3,2.171E3,1.993E3,1.388E3,7.83E2,1.243E3,7.5E2,8.59E2,5.29E2,4.98E2,2.85E2,1.023E3,2.2E2,5.68E2,1.82E2,6.27E2,2.32E2,3.2E1,4.97E2,2.5E1,4.73E2,2.63E2,2.2E1,7.32E2,2.91E2,2.14E2,6E0,4.67E2,1.01E2,1.43E2,3.9E1],"tree_param":{"num_deleted":"0","num_feature":"7","num_nodes":"31","size_leaf_vector":"1"}},{"base_weights":[-5.2224216E-4,-8.339545E-2,8.5312426E-2,-1.0732948E-1,-4.124649E-2,4.3585453E-2,1.5240361E-1,-1.2095554E-1,-9.7593784E-2,-6.6356584E-2,-2.8037949E-2,3.0074498E-2,8.714578E-2,1.280003E-1,2.2789396E-1,-3.4742693E-3,-3.9878045E-3,2.6769596E-3,-2.9453912E-3,8.7386917E-4,-2.049372E-3,-1.1007324E-3,1.1207219E-4,8.063257E-4,2.9377246E-3,2.308128E-3,3.8158058E-3,2.944773E-3,4.6025324E-3,5.9025236E-3,8.967052E-3],"categories":[],"categories_nodes":[],"categories_segments":[],"categories_sizes":[],"default_left":[0,0,0,0,0,0,0,0,0,0,0,0,0,0,0,0,0,0,0,0,0,0,0,0,0,0,0,0,0,0,0],"id":16,"left_children":[1,3,5,7,9,11,13,15,17,19,21,23,25,27,29,-1,-1,-1,-1,-1,-1,-1,-1,-1,-1,-1,-1,-1,-1,-1,-1],"loss_changes":[2.9584608E1,2.1301823E0,5.71276E0,1.6715336E-1,2.528602E-1,7.395303E-1,1.4132843E0,1.8985748E-2,9.545803E-2,5.129254E-2,1.3898274E-1,2.064727E-1,1.1204076E-1,4.3548203E-1,3.6135864E-1,0E0,0E0,0E0,0E0,0E0,0E0,0E0,0E0,0E0,0E0,0E0,0E0,0E0,0E0,0E0,0E0],"parents":[2147483647,0,0,1,1,2,2,3,3,4,4,5,5,6,6,7,7,8,8,9,9,10,10,11,11,12,12,13,13,14,14],"right_children":[2,4,6,8,10,12,14,16,18,20,22,24,26,28,30,-1,-1,-1,-1,-1,-1,-1,-1,-1,-1,-1,-1,-1,-1,-1,-1],"split_conditions":[2.2508736E-1,1.0837048E-1,4.103794E-1,4.9601603E-2,1.3977516E-1,3.7639412E-1,5.957157E-1,7.822906E-2,2.6130425E-2,6.614202E-2,2.2804645E-1,4.414105E-1,4.681996E-1,4.501305E-1,7.3409975E-1,-3.4742693E-3,-3.9878045E-3,2.6769596E-3,-2.9453912E-3,8.7386917E-4,-2.049372E-3,-1.1007324E-3,1.1207219E-4,8.063257E-4,2.9377246E-3,2.308128E-3,3.8158058E-3,2.944773E-3,4.6025324E-3,5.9025236E-3,8.967052E-3],"split_indices":[6,6,6,6,6,5,6,0,5,4,5,4,1,5,6,0,0,0,0,0,0,0,0,0,0,0,0,0,0,0,0],"split_type":[0,0,0,0,0,0,0,0,0,0,0,0,0,0,0,0,0,0,0,0,0,0,0,0,0,0,0,0,0,0,0],"sum_hessian":[4.157E3,2.115E3,2.042E3,1.348E3,7.67E2,1.26E3,7.82E2,5.57E2,7.91E2,2.63E2,5.04E2,9.63E2,2.97E2,5.93E2,1.89E2,3.97E2,1.6E2,2E0,7.89E2,5E0,2.58E2,3.96E2,1.08E2,9.21E2,4.2E1,2.39E2,5.8E1,2.75E2,3.18E2,1.34E2,5.5E1],"tree_param":{"num_deleted":"0","num_feature":"7","num_nodes":"31","size_leaf_vector":"1"}},{"base_weights":[-4.6499455E-4,-8.0108225E-2,8.3432406E-2,-1.0396605E-1,-3.7834708E-2,4.451299E-2,1.4910148E-1,-1.1189413E-1,-8.941575E-2,-5.9192155E-2,-2.2838792E-2,2.9894793E-2,8.9732975E-2,1.2152837E-1,2.1273834E-1,-3.2278479E-3,-3.6895466E-3,-3.0046024E-3,-2.523522E-3,4.1228303E-4,-1.826502E-3,-1.0081398E-3,2.6461235E-4,4.997815E-4,1.3608969E-3,2.194939E-3,3.5391035E-3,2.2752925E-3,4.1601327E-3,5.509586E-3,8.248012E-3],"categories":[],"categories_nodes":[],"categories_segments":[],"categories_sizes":[],"default_left":[0,0,0,0,0,0,0,0,0,0,0,0,0,0,0,0,0,0,0,0,0,0,0,0,0,0,0,0,0,0,0],"id":17,"left_children":[1,3,5,7,9,11,13,15,17,19,21,23,25,27,29,-1,-1,-1,-1,-1,-1,-1,-1,-1,-1,-1,-1,-1,-1,-1,-1],"loss_changes":[2.7743084E1,2.144288E0,5.161195E0,1.4699364E-1,2.4525964E-1,8.3749247E-1,1.2936535E0,2.8583527E-2,1.9168139E-2,3.9938927E-2,1.5503722E-1,1.961956E-1,1.3640022E-1,4.022131E-1,3.5833836E-1,0E0,0E0,0E0,0E0,0E0,0E0,0E0,0E0,0E0,0E0,0E0,0E0,0E0,0E0,0E0,0E0],"parents":[2147483647,0,0,1,1,2,2,3,3,4,4,5,5,6,6,7,7,8,8,9,9,10,10,11,11,12,12,13,13,14,14],"right_children":[2,4,6,8,10,12,14,16,18,20,22,24,26,28,30,-1,-1,-1,-1,-1,-1,-1,-1,-1,-1,-1,-1,-1,-1,-1,-1],"split_conditions":[2.2804645E-1,1.0837048E-1,4.1332373E-1,6.564557E-2,1.4939465E-1,3.7882724E-1,5.71807E-1,1.8603428E-1,7.8292966E-2,6.614202E-2,2.2804645E-1,3.0084395E-1,4.0287846E-1,3.8420966E-1,6.5084714E-1,-3.2278479E-3,-3.6895466E-3,-3.0046024E-3,-2.523522E-3,4.1228303E-4,-1.826502E-3,-1.0081398E-3,2.6461235E-4,4.997815E-4,1.3608969E-3,2.194939E-3,3.5391035E-3,2.2752925E-3,4.1601327E-3,5.509586E-3,8.248012E-3],"split_indices":[6,6,6,6,6,5,6,0,2,4,5,6,2,5,4,0,0,0,0,0,0,0,0,0,0,0,0,0,0,0,0],"split_type":[0,0,0,0,0,0,0,0,0,0,0,0,0,0,0,0,0,0,0,0,0,0,0,0,0,0,0,0,0,0,0],"sum_hessian":[4.15E3,2.129E3,2.021E3,1.36E3,7.69E2,1.27E3,7.51E2,8.76E2,4.84E2,3.16E2,4.53E2,9.61E2,3.09E2,5.26E2,2.25E2,6.39E2,2.37E2,1.54E2,3.3E2,7E0,3.09E2,3.38E2,1.15E2,5.19E2,4.42E2,1.97E2,1.12E2,1.45E2,3.81E2,1.56E2,6.9E1],"tree_param":{"num_deleted":"0","num_feature":"7","num_nodes":"31","size_leaf_vector":"1"}},{"base_weights":[-1.0075787E-3,-7.900126E-2,8.2153015E-2,-1.0221076E-1,-4.058095E-2,4.3830577E-2,1.4533553E-1,-1.0702718E-1,-8.040687E-2,-5.9455257E-2,-1.9413024E-2,1.7991465E-2,6.35438E-2,1.187203E-1,2.120615E-1,-3.588323E-3,-3.0518747E-3,-2.9526262E-3,-2.2818102E-3,-8.012306E-5,-1.8320242E-3,-9.2240795E-4,-5.411325E-5,3.2905643E-4,1.5605433E-3,1.7279608E-3,4.0313476E-3,3.6272865E-3,-6.343065E-3,5.7097375E-3,8.284259E-3],"categories":[],"categories_nodes":[],"categories_segments":[],"categories_sizes":[],"default_left":[0,0,0,0,0,0,0,0,0,0,0,0,0,0,0,0,0,0,0,0,0,0,0,0,0,0,0,0,0,0,0],"id":18,"left_children":[1,3,5,7,9,11,13,15,17,19,21,23,25,27,29,-1,-1,-1,-1,-1,-1,-1,-1,-1,-1,-1,-1,-1,-1,-1,-1],"loss_changes":[2.7312555E1,1.9335508E0,4.928254E0,1.3358784E-1,3.2646012E-1,6.4575934E-1,1.3405113E0,6.1566353E-2,1.2010336E-2,3.9477706E-2,7.738221E-2,1.3109986E-1,2.95465E-1,4.2454863E-1,2.5109673E-1,0E0,0E0,0E0,0E0,0E0,0E0,0E0,0E0,0E0,0E0,0E0,0E0,0E0,0E0,0E0,0E0],"parents":[2147483647,0,0,1,1,2,2,3,3,4,4,5,5,6,6,7,7,8,8,9,9,10,10,11,11,12,12,13,13,14,14],"right_children":[2,4,6,8,10,12,14,16,18,20,22,24,26,28,30,-1,-1,-1,-1,-1,-1,-1,-1,-1,-1,-1,-1,-1,-1,-1,-1],"split_conditions":[2.2804645E-1,1.04531534E-1,4.1740355E-1,7.939402E-2,1.593484E-1,3.0084395E-1,5.8168703E-1,3.920055E-2,8.23187E-2,8.593155E-2,2.1364425E-1,3.3932686E-1,4.9451187E-1,7.693139E-1,7.3409975E-1,-3.588323E-3,-3.0518747E-3,-2.9526262E-3,-2.2818102E-3,-8.012306E-5,-1.8320242E-3,-9.2240795E-4,-5.411325E-5,3.2905643E-4,1.5605433E-3,1.7279608E-3,4.0313476E-3,3.6272865E-3,-6.343065E-3,5.7097375E-3,8.284259E-3],"split_indices":[6,6,6,6,6,6,6,6,2,3,2,1,3,2,6,0,0,0,0,0,0,0,0,0,0,0,0,0,0,0,0],"split_type":[0,0,0,0,0,0,0,0,0,0,0,0,0,0,0,0,0,0,0,0,0,0,0,0,0,0,0,0,0,0,0],"sum_hessian":[4.209E3,2.172E3,2.037E3,1.353E3,8.19E2,1.269E3,7.68E2,1.105E3,2.48E2,4.32E2,3.87E2,5.5E2,7.19E2,5.51E2,2.17E2,3.21E2,7.84E2,4.4E1,2.04E2,1.2E1,4.2E2,2.35E2,1.52E2,4.57E2,9.3E1,6.65E2,5.4E1,5.48E2,3E0,1.65E2,5.2E1],"tree_param":{"num_deleted":"0","num_feature":"7","num_nodes":"31","size_leaf_vector":"1"}},{"base_weights":[9.692394E-4,-7.307228E-2,8.085663E-2,-9.1129385E-2,-2.5893295E-2,4.9959738E-2,1.5073416E-1,-1.0018978E-1,-6.874724E-2,-3.5800792E-2,9.089365E-3,2.8433783E-2,7.607512E-2,1.3245441E-1,2.3892586E-1,-3.2734417E-3,-2.723613E-3,-1.9396762E-3,-2.492892E-3,-1.4116894E-3,-7.596337E-4,4.453793E-3,1.4193378E-4,2.688973E-4,1.168719E-3,2.2016428E-3,1.0258506E-2,2.8754347E-3,4.41894E-3,3.1435306E-3,7.810699E-3],"categories":[],"categories_nodes":[],"categories_segments":[],"categories_sizes":[],"default_left":[0,0,0,0,0,0,0,0,0,0,0,0,0,0,0,0,0,0,0,0,0,0,0,0,0,0,0,0,0,0,0],"id":19,"left_children":[1,3,5,7,9,11,13,15,17,19,21,23,25,27,29,-1,-1,-1,-1,-1,-1,-1,-1,-1,-1,-1,-1,-1,-1,-1,-1],"loss_changes":[2.4606327E1,1.8369265E0,4.312626E0,3.096695E-1,2.0793307E-1,7.7867484E-1,9.56584E-1,8.315849E-2,2.1221876E-2,5.389315E-2,8.008309E-2,1.5598845E-1,4.2284107E-1,2.6300144E-1,2.716937E-1,0E0,0E0,0E0,0E0,0E0,0E0,0E0,0E0,0E0,0E0,0E0,0E0,0E0,0E0,0E0,0E0],"parents":[2147483647,0,0,1,1,2,2,3,3,4,4,5,5,6,6,7,7,8,8,9,9,10,10,11,11,12,12,13,13,14,14],"right_children":[2,4,6,8,10,12,14,16,18,20,22,24,26,28,30,-1,-1,-1,-1,-1,-1,-1,-1,-1,-1,-1,-1,-1,-1,-1,-1],"split_conditions":[2.3821647E-1,1.3471226E-1,4.4553456E-1,8.477642E-2,2.4065945E-1,3.422417E-1,6.296322E-1,5.0574858E-2,2.4286647E-1,1.696708E-1,2.431319E-1,2.6889366E-1,7.3409975E-1,4.260498E-1,4.9835575E-1,-3.2734417E-3,-2.723613E-3,-1.9396762E-3,-2.492892E-3,-1.4116894E-3,-7.596337E-4,4.453793E-3,1.4193378E-4,2.688973E-4,1.168719E-3,2.2016428E-3,1.0258506E-2,2.8754347E-3,4.41894E-3,3.1435306E-3,7.810699E-3],"split_indices":[6,6,5,6,5,6,3,6,1,5,5,5,6,6,6,0,0,0,0,0,0,0,0,0,0,0,0,0,0,0,0],"split_type":[0,0,0,0,0,0,0,0,0,0,0,0,0,0,0,0,0,0,0,0,0,0,0,0,0,0,0,0,0,0,0],"sum_hessian":[4.158E3,2.158E3,2E3,1.56E3,5.98E2,1.388E3,6.12E2,1.108E3,4.52E2,4.66E2,1.32E2,7.62E2,6.26E2,5.09E2,1.03E2,5.63E2,5.45E2,3.56E2,9.6E1,2.23E2,2.43E2,3E0,1.29E2,2.68E2,4.94E2,6.21E2,5E0,1.49E2,3.6E2,1.5E1,8.8E1],"tree_param":{"num_deleted":"0","num_feature":"7","num_nodes":"31","size_leaf_vector":"1"}},{"base_weights":[-6.950734E-4,-7.6247215E-2,7.212488E-2,-9.558863E-2,-3.9711993E-2,3.537189E-2,1.3642068E-1,-1.06868334E-1,-8.6503424E-2,-5.749008E-2,-2.8056078E-2,1.8318193E-2,6.537826E-2,1.150699E-1,2.0474438E-1,-3.2183258E-3,-5.9079734E-4,2.8055715E-3,-2.6133426E-3,6.9433206E-4,-1.8165277E-3,-1.0393129E-3,-2.7457174E-4,2.8116326E-4,1.496546E-3,1.6023809E-3,2.9155416E-3,3.0068776E-3,4.7556227E-3,5.295224E-3,8.174558E-3],"categories":[],"categories_nodes":[],"categories_segments":[],"categories_sizes":[],"default_left":[0,0,0,0,0,0,0,0,0,0,0,0,0,0,0,0,0,0,0,0,0,0,0,0,0,0,0,0,0,0,0],"id":20,"left_children":[1,3,5,7,9,11,13,15,17,19,21,23,25,27,29,-1,-1,-1,-1,-1,-1,-1,-1,-1,-1,-1,-1,-1,-1,-1,-1],"loss_changes":[2.3002623E1,1.4462357E0,5.0261364E0,1.281786E-1,1.4592755E-1,6.926943E-1,1.1055231E0,1.907587E-2,9.001684E-2,7.0755005E-2,5.3480566E-2,2.440893E-1,1.816752E-1,3.6585617E-1,3.0194616E-1,0E0,0E0,0E0,0E0,0E0,0E0,0E0,0E0,0E0,0E0,0E0,0E0,0E0,0E0,0E0,0E0],"parents":[2147483647,0,0,1,1,2,2,3,3,4,4,5,5,6,6,7,7,8,8,9,9,10,10,11,11,12,12,13,13,14,14],"right_children":[2,4,6,8,10,12,14,16,18,20,22,24,26,28,30,-1,-1,-1,-1,-1,-1,-1,-1,-1,-1,-1,-1,-1,-1,-1,-1],"split_conditions":[2.1019852E-1,1.04531534E-1,4.103794E-1,5.1282678E-2,1.3977516E-1,3.3178657E-1,5.957157E-1,6.296322E-1,3.8664773E-2,9.331944E-2,1.8630953E-1,3.3178657E-1,4.0644705E-1,5.269095E-1,7.3409975E-1,-3.2183258E-3,-5.9079734E-4,2.8055715E-3,-2.6133426E-3,6.9433206E-4,-1.8165277E-3,-1.0393129E-3,-2.7457174E-4,2.8116326E-4,1.496546E-3,1.6023809E-3,2.9155416E-3,3.0068776E-3,4.7556227E-3,5.295224E-3,8.174558E-3],"split_indices":[6,6,6,6,6,4,6,4,3,3,6,6,2,3,6,0,0,0,0,0,0,0,0,0,0,0,0,0,0,0,0],"split_type":[0,0,0,0,0,0,0,0,0,0,0,0,0,0,0,0,0,0,0,0,0,0,0,0,0,0,0,0,0,0,0],"sum_hessian":[4.179E3,2.051E3,2.128E3,1.34E3,7.11E2,1.355E3,7.73E2,5.93E2,7.47E2,2.8E2,4.31E2,8.65E2,4.9E2,5.91E2,1.82E2,5.9E2,3E0,2E0,7.45E2,1E1,2.7E2,3.19E2,1.12E2,6.75E2,1.9E2,3.58E2,1.32E2,4.43E2,1.48E2,1.31E2,5.1E1],"tree_param":{"num_deleted":"0","num_feature":"7","num_nodes":"31","size_leaf_vector":"1"}},{"base_weights":[-1.4155718E-3,-6.850461E-2,7.576724E-2,-8.665218E-2,-2.140415E-2,4.9043607E-2,1.5120907E-1,-9.5788404E-2,-6.4777695E-2,-3.4124922E-2,1.1670949E-3,2.7239483E-2,8.549677E-2,1.3281675E-1,2.4800825E-1,-2.7306823E-3,-3.2602947E-3,8.945176E-4,-1.981707E-3,-9.60266E-4,-1.9223259E-3,-4.5371117E-4,2.7588327E-4,1.5935826E-4,1.1633136E-3,2.0291624E-3,3.5559146E-3,3.465139E-3,4.7401087E-3,4.522814E-3,8.109393E-3],"categories":[],"categories_nodes":[],"categories_segments":[],"categories_sizes":[],"default_left":[0,0,0,0,0,0,0,0,0,0,0,0,0,0,0,0,0,0,0,0,0,0,0,0,0,0,0,0,0,0,0],"id":21,"left_children":[1,3,5,7,9,11,13,15,17,19,21,23,25,27,29,-1,-1,-1,-1,-1,-1,-1,-1,-1,-1,-1,-1,-1,-1,-1,-1],"loss_changes":[2.139083E1,1.8871632E0,3.8654737E0,3.1255627E-1,1.7690799E-1,1.1263292E0,8.608017E-1,5.9082985E-2,5.9205413E-2,2.2921205E-2,2.9307274E-2,2.2495687E-1,3.0522823E-1,1.6663027E-1,1.3060617E-1,0E0,0E0,0E0,0E0,0E0,0E0,0E0,0E0,0E0,0E0,0E0,0E0,0E0,0E0,0E0,0E0],"parents":[2147483647,0,0,1,1,2,2,3,3,4,4,5,5,6,6,7,7,8,8,9,9,10,10,11,11,12,12,13,13,14,14],"right_children":[2,4,6,8,10,12,14,16,18,20,22,24,26,28,30,-1,-1,-1,-1,-1,-1,-1,-1,-1,-1,-1,-1,-1,-1,-1,-1],"split_conditions":[2.3821647E-1,1.3471226E-1,4.6551085E-1,8.477642E-2,2.0741639E-1,3.700483E-1,6.5084714E-1,1.8603428E-1,6.614202E-2,3.0084395E-1,2.2508736E-1,2.6889366E-1,4.7383758E-1,5.269095E-1,6.1997825E-1,-2.7306823E-3,-3.2602947E-3,8.945176E-4,-1.981707E-3,-9.60266E-4,-1.9223259E-3,-4.5371117E-4,2.7588327E-4,1.5935826E-4,1.1633136E-3,2.0291624E-3,3.5559146E-3,3.465139E-3,4.7401087E-3,4.522814E-3,8.109393E-3],"split_indices":[6,6,5,6,5,6,4,0,4,3,4,5,6,6,5,0,0,0,0,0,0,0,0,0,0,0,0,0,0,0,0],"split_type":[0,0,0,0,0,0,0,0,0,0,0,0,0,0,0,0,0,0,0,0,0,0,0,0,0,0,0,0,0,0,0],"sum_hessian":[4.129E3,2.209E3,1.92E3,1.594E3,6.15E2,1.419E3,5.01E2,1.122E3,4.72E2,3.93E2,2.22E2,8.89E2,5.3E2,4.23E2,7.8E1,8.25E2,2.97E2,6E0,4.66E2,3.69E2,2.4E1,7.3E1,1.49E2,3.07E2,5.82E2,3.46E2,1.84E2,2.54E2,1.69E2,1.6E1,6.2E1],"tree_param":{"num_deleted":"0","num_feature":"7","num_nodes":"31","size_leaf_vector":"1"}},{"base_weights":[8.10482E-4,-6.2023208E-2,7.7539645E-2,-8.723439E-2,-2.2742761E-2,5.6332473E-2,1.6614826E-1,-1.0091513E-1,-7.873147E-2,-3.7161987E-2,2.1765183E-3,3.3036E-2,9.893718E-2,1.5016371E-1,2.6036483E-1,-2.8620143E-3,-3.4057377E-3,2.8721415E-3,-2.3774381E-3,4.222882E-4,-1.1718344E-3,-1.974462E-3,1.420622E-4,5.024774E-4,1.3028785E-3,2.5732287E-3,3.7913364E-3,5.9870575E-3,3.8549365E-3,3.5232643E-3,8.526717E-3],"categories":[],"categories_nodes":[],"categories_segments":[],"categories_sizes":[],"default_left":[0,0,0,0,0,0,0,0,0,0,0,0,0,0,0,0,0,0,0,0,0,0,0,0,0,0,0,0,0,0,0],"id":22,"left_children":[1,3,5,7,9,11,13,15,17,19,21,23,25,27,29,-1,-1,-1,-1,-1,-1,-1,-1,-1,-1,-1,-1,-1,-1,-1,-1],"loss_changes":[2.004644E1,2.261857E0,3.5083885E0,1.5398121E-1,3.2166934E-1,1.4974508E0,5.045719E-1,2.6024342E-2,8.534956E-2,5.5724442E-2,5.7552323E-2,1.6499066E-1,1.8204069E-1,3.0724955E-1,1.4052987E-1,0E0,0E0,0E0,0E0,0E0,0E0,0E0,0E0,0E0,0E0,0E0,0E0,0E0,0E0,0E0,0E0],"parents":[2147483647,0,0,1,1,2,2,3,3,4,4,5,5,6,6,7,7,8,8,9,9,10,10,11,11,12,12,13,13,14,14],"right_children":[2,4,6,8,10,12,14,16,18,20,22,24,26,28,30,-1,-1,-1,-1,-1,-1,-1,-1,-1,-1,-1,-1,-1,-1,-1,-1],"split_conditions":[2.525941E-1,1.1632856E-1,5.20544E-1,4.9601603E-2,2.0741639E-1,3.8420966E-1,6.754832E-1,7.822906E-2,2.6130425E-2,7.235512E-2,1.3471226E-1,2.839447E-1,4.681996E-1,2.4771309E-1,5.8892745E-1,-2.8620143E-3,-3.4057377E-3,2.8721415E-3,-2.3774381E-3,4.222882E-4,-1.1718344E-3,-1.974462E-3,1.420622E-4,5.024774E-4,1.3028785E-3,2.5732287E-3,3.7913364E-3,5.9870575E-3,3.8549365E-3,3.5232643E-3,8.526717E-3],"split_indices":[6,6,6,6,5,5,0,0,5,4,6,5,1,0,5,0,0,0,0,0,0,0,0,0,0,0,0,0,0,0,0],"split_type":[0,0,0,0,0,0,0,0,0,0,0,0,0,0,0,0,0,0,0,0,0,0,0,0,0,0,0,0,0,0,0],"sum_hessian":[4.156E3,2.285E3,1.871E3,1.391E3,8.94E2,1.511E3,3.6E2,5.29E2,8.62E2,5.66E2,3.28E2,9.78E2,5.33E2,3.1E2,5E1,3.74E2,1.55E2,2E0,8.6E2,2E1,5.46E2,1.1E1,3.17E2,3.82E2,5.96E2,3.63E2,1.7E2,9.2E1,2.18E2,8E0,4.2E1],"tree_param":{"num_deleted":"0","num_feature":"7","num_nodes":"31","size_leaf_vector":"1"}},{"base_weights":[-2.3895822E-4,-6.407241E-2,7.11368E-2,-8.323618E-2,-2.499773E-2,3.6680873E-2,1.2453392E-1,-9.6989386E-2,-7.472579E-2,-3.7916183E-2,-5.400214E-3,2.4746606E-2,7.580509E-2,1.0379912E-1,1.7962867E-1,-2.780212E-3,-3.2661955E-3,6.034986E-3,-2.2573809E-3,-1.4077912E-3,-7.2321016E-4,-3.0403328E-4,9.5329486E-4,6.575696E-4,2.3416886E-3,2.0094716E-3,3.686244E-3,2.6920892E-3,4.0678238E-3,4.8436243E-3,7.97665E-3],"categories":[],"categories_nodes":[],"categories_segments":[],"categories_sizes":[],"default_left":[0,0,0,0,0,0,0,0,0,0,0,0,0,0,0,0,0,0,0,0,0,0,0,0,0,0,0,0,0,0,0],"id":23,"left_children":[1,3,5,7,9,11,13,15,17,19,21,23,25,27,29,-1,-1,-1,-1,-1,-1,-1,-1,-1,-1,-1,-1,-1,-1,-1,-1],"loss_changes":[1.9031086E1,1.6490631E0,3.6236115E0,1.6586208E-1,1.8384954E-1,5.5842674E-1,8.6441326E-1,1.8733025E-2,1.4689684E-1,5.3366125E-2,5.1362928E-2,1.3712007E-1,1.0804832E-1,2.4001169E-1,2.8629494E-1,0E0,0E0,0E0,0E0,0E0,0E0,0E0,0E0,0E0,0E0,0E0,0E0,0E0,0E0,0E0,0E0],"parents":[2147483647,0,0,1,1,2,2,3,3,4,4,5,5,6,6,7,7,8,8,9,9,10,10,11,11,12,12,13,13,14,14],"right_children":[2,4,6,8,10,12,14,16,18,20,22,24,26,28,30,-1,-1,-1,-1,-1,-1,-1,-1,-1,-1,-1,-1,-1,-1,-1,-1],"split_conditions":[2.3821647E-1,1.23455934E-1,4.1740355E-1,4.9601603E-2,1.8630953E-1,3.8420966E-1,5.8168703E-1,1.8976508E-1,2.6130425E-2,1.6455875E-1,3.173549E-1,4.414105E-1,4.905304E-1,5.0477535E-1,7.053592E-1,-2.780212E-3,-3.2661955E-3,6.034986E-3,-2.2573809E-3,-1.4077912E-3,-7.2321016E-4,-3.0403328E-4,9.5329486E-4,6.575696E-4,2.3416886E-3,2.0094716E-3,3.686244E-3,2.6920892E-3,4.0678238E-3,4.8436243E-3,7.97665E-3],"split_indices":[6,6,6,6,6,5,6,0,5,5,5,4,3,3,0,0,0,0,0,0,0,0,0,0,0,0,0,0,0,0,0],"split_type":[0,0,0,0,0,0,0,0,0,0,0,0,0,0,0,0,0,0,0,0,0,0,0,0,0,0,0,0,0,0,0],"sum_hessian":[4.175E3,2.204E3,1.971E3,1.478E3,7.26E2,1.199E3,7.72E2,5.61E2,9.17E2,4.37E2,2.89E2,9.2E2,2.79E2,5.63E2,2.09E2,4.18E2,1.43E2,1E0,9.16E2,2.63E2,1.74E2,2.57E2,3.2E1,8.75E2,4.5E1,2.37E2,4.2E1,3.93E2,1.7E2,1.75E2,3.4E1],"tree_param":{"num_deleted":"0","num_feature":"7","num_nodes":"31","size_leaf_vector":"1"}},{"base_weights":[2.4768568E-4,-6.22425E-2,6.991031E-2,-8.168204E-2,-2.7838873E-2,4.5770247E-2,1.3502969E-1,-9.4080135E-2,-7.2741665E-2,-3.913759E-2,-5.889179E-3,3.4318585E-2,9.952957E-2,1.1212784E-1,1.7309578E-1,-3.6311795E-3,-2.7158794E-3,5.944461E-3,-2.199452E-3,6.569256E-4,-1.2330918E-3,-3.3343566E-4,1.0477087E-3,8.2187966E-4,2.2420632E-3,5.1633366E-3,2.6683789E-3,5.338199E-3,3.115699E-3,4.6340097E-3,6.634406E-3],"categories":[],"categories_nodes":[],"categories_segments":[],"categories_sizes":[],"default_left":[0,0,0,0,0,0,0,0,0,0,0,0,0,0,0,0,0,0,0,0,0,0,0,0,0,0,0,0,0,0,0],"id":24,"left_children":[1,3,5,7,9,11,13,15,17,19,21,23,25,27,29,-1,-1,-1,-1,-1,-1,-1,-1,-1,-1,-1,-1,-1,-1,-1,-1],"loss_changes":[1.812685E1,1.4657221E0,3.0890608E0,1.4855862E-1,1.9668418E-1,8.8186526E-1,4.443798E-1,4.4947147E-2,1.417408E-1,6.376052E-2,5.8181867E-2,3.3006287E-1,1.7827153E-1,1.6387558E-1,1.430769E-1,0E0,0E0,0E0,0E0,0E0,0E0,0E0,0E0,0E0,0E0,0E0,0E0,0E0,0E0,0E0,0E0],"parents":[2147483647,0,0,1,1,2,2,3,3,4,4,5,5,6,6,7,7,8,8,9,9,10,10,11,11,12,12,13,13,14,14],"right_children":[2,4,6,8,10,12,14,16,18,20,22,24,26,28,30,-1,-1,-1,-1,-1,-1,-1,-1,-1,-1,-1,-1,-1,-1,-1,-1],"split_conditions":[2.3821647E-1,1.1449019E-1,4.6551085E-1,5.1282678E-2,1.8630953E-1,4.4553456E-1,5.5126053E-1,2.7836079E-2,2.6130425E-2,9.331944E-2,3.173549E-1,3.9592803E-1,1.6190442E-1,1.5201458E-1,6.754832E-1,-3.6311795E-3,-2.7158794E-3,5.944461E-3,-2.199452E-3,6.569256E-4,-1.2330918E-3,-3.3343566E-4,1.0477087E-3,8.2187966E-4,2.2420632E-3,5.1633366E-3,2.6683789E-3,5.338199E-3,3.115699E-3,4.6340097E-3,6.634406E-3],"split_indices":[6,6,5,6,6,6,3,2,5,3,5,2,3,2,5,0,0,0,0,0,0,0,0,0,0,0,0,0,0,0,0],"split_type":[0,0,0,0,0,0,0,0,0,0,0,0,0,0,0,0,0,0,0,0,0,0,0,0,0,0,0,0,0,0,0],"sum_hessian":[4.162E3,2.194E3,1.968E3,1.401E3,7.93E2,1.437E3,5.31E2,5.83E2,8.18E2,5.23E2,2.7E2,1.186E3,2.51E2,3.34E2,1.97E2,6.4E1,5.19E2,1E0,8.17E2,1.6E1,5.07E2,2.4E2,3E1,1.014E3,1.72E2,3E1,2.21E2,3.5E1,2.99E2,1.45E2,5.2E1],"tree_param":{"num_deleted":"0","num_feature":"7","num_nodes":"31","size_leaf_vector":"1"}},{"base_weights":[-6.098716E-4,-5.1264644E-2,6.8046995E-2,-7.006345E-2,-1.5995063E-2,4.299109E-2,1.240378E-1,-8.163714E-2,-5.7061616E-2,-2.7754322E-2,-9.680118E-5,3.0625548E-2,7.38882E-2,1.060968E-1,1.9040196E-1,-3.2872288E-3,-2.3901754E-3,-1.5696726E-3,-2.1916574E-3,-7.191963E-4,-1.6533781E-3,4.438733E-5,-2.0833611E-3,1.7998783E-3,7.345482E-4,2.307496E-3,-2.5906125E-3,2.883733E-3,5.1614963E-3,5.2548065E-3,7.7698845E-3],"categories":[],"categories_nodes":[],"categories_segments":[],"categories_sizes":[],"default_left":[0,0,0,0,0,0,0,0,0,0,0,0,0,0,0,0,0,0,0,0,0,0,0,0,0,0,0,0,0,0,0],"id":25,"left_children":[1,3,5,7,9,11,13,15,17,19,21,23,25,27,29,-1,-1,-1,-1,-1,-1,-1,-1,-1,-1,-1,-1,-1,-1,-1,-1],"loss_changes":[1.4613718E1,1.602076E0,2.4974422E0,2.3264742E-1,1.5741068E-1,4.6919847E-1,6.358404E-1,3.693533E-2,5.2721977E-2,4.874605E-2,3.934849E-2,1.577819E-1,1.7745626E-1,2.7022266E-1,7.5912E-2,0E0,0E0,0E0,0E0,0E0,0E0,0E0,0E0,0E0,0E0,0E0,0E0,0E0,0E0,0E0,0E0],"parents":[2147483647,0,0,1,1,2,2,3,3,4,4,5,5,6,6,7,7,8,8,9,9,10,10,11,11,12,12,13,13,14,14],"right_children":[2,4,6,8,10,12,14,16,18,20,22,24,26,28,30,-1,-1,-1,-1,-1,-1,-1,-1,-1,-1,-1,-1,-1,-1,-1,-1],"split_conditions":[2.6889366E-1,1.3241185E-1,4.6551085E-1,6.2774956E-2,2.1019852E-1,3.9592803E-1,6.403625E-1,2.4105268E-2,2.1336406E-1,2.9162264E-1,4.501305E-1,2.0734265E-1,7.053592E-1,6.1997825E-1,7.693139E-1,-3.2872288E-3,-2.3901754E-3,-1.5696726E-3,-2.1916574E-3,-7.191963E-4,-1.6533781E-3,4.438733E-5,-2.0833611E-3,1.7998783E-3,7.345482E-4,2.307496E-3,-2.5906125E-3,2.883733E-3,5.1614963E-3,5.2548065E-3,7.7698845E-3],"split_indices":[5,5,5,5,5,4,5,4,0,1,2,2,1,2,0,0,0,0,0,0,0,0,0,0,0,0,0,0,0,0,0],"split_type":[0,0,0,0,0,0,0,0,0,0,0,0,0,0,0,0,0,0,0,0,0,0,0,0,0,0,0,0,0,0,0],"sum_hessian":[4.2E3,2.417E3,1.783E3,1.576E3,8.41E2,1.233E3,5.5E2,8.31E2,7.45E2,4.83E2,3.58E2,8.82E2,3.51E2,4.35E2,1.15E2,5.1E1,7.8E2,5.78E2,1.67E2,4.26E2,5.7E1,3.51E2,7E0,1.51E2,7.31E2,3.45E2,6E0,3.8E2,5.5E1,9.7E1,1.8E1],"tree_param":{"num_deleted":"0","num_feature":"7","num_nodes":"31","size_leaf_vector":"1"}},{"base_weights":[-1.7889202E-4,-5.6802984E-2,6.924119E-2,-7.424652E-2,-1.55475745E-2,3.629873E-2,1.1533932E-1,-8.235499E-2,-5.6675676E-2,-2.859055E-2,-3.4554808E-3,2.8251268E-2,8.0199994E-2,9.614857E-2,1.6401953E-1,-2.347812E-3,-2.8605338E-3,8.897145E-5,-1.7435632E-3,2.2713291E-5,-9.1210246E-4,-2.2014556E-4,9.642679E-4,1.742097E-3,6.048643E-4,4.3834976E-4,2.8305734E-3,4.2140265E-3,2.4838338E-3,4.001156E-3,5.9655015E-3],"categories":[],"categories_nodes":[],"categories_segments":[],"categories_sizes":[],"default_left":[0,0,0,0,0,0,0,0,0,0,0,0,0,0,0,0,0,0,0,0,0,0,0,0,0,0,0,0,0,0,0],"id":26,"left_children":[1,3,5,7,9,11,13,15,17,19,21,23,25,27,29,-1,-1,-1,-1,-1,-1,-1,-1,-1,-1,-1,-1,-1,-1,-1,-1],"loss_changes":[1.6301231E1,1.6425028E0,2.8249378E0,2.2400093E-1,1.0714872E-1,3.8211787E-1,7.0917606E-1,5.0860405E-2,4.4067264E-2,1.742053E-2,4.9164165E-2,2.209804E-1,1.5456498E-1,3.192091E-1,2.0618868E-1,0E0,0E0,0E0,0E0,0E0,0E0,0E0,0E0,0E0,0E0,0E0,0E0,0E0,0E0,0E0,0E0],"parents":[2147483647,0,0,1,1,2,2,3,3,4,4,5,5,6,6,7,7,8,8,9,9,10,10,11,11,12,12,13,13,14,14],"right_children":[2,4,6,8,10,12,14,16,18,20,22,24,26,28,30,-1,-1,-1,-1,-1,-1,-1,-1,-1,-1,-1,-1,-1,-1,-1,-1],"split_conditions":[2.525941E-1,1.3977516E-1,4.103794E-1,8.256447E-2,1.9035494E-1,4.0644705E-1,5.5126053E-1,1.0756926E-1,6.796073E-2,1.424295E-1,3.3024314E-1,1.9481322E-1,3.3952346E-1,2.7493474E-1,6.047306E-1,-2.347812E-3,-2.8605338E-3,8.897145E-5,-1.7435632E-3,2.2713291E-5,-9.1210246E-4,-2.2014556E-4,9.642679E-4,1.742097E-3,6.048643E-4,4.3834976E-4,2.8305734E-3,4.2140265E-3,2.4838338E-3,4.001156E-3,5.9655015E-3],"split_indices":[6,6,6,6,6,2,3,1,4,6,4,2,3,2,4,0,0,0,0,0,0,0,0,0,0,0,0,0,0,0,0],"split_type":[0,0,0,0,0,0,0,0,0,0,0,0,0,0,0,0,0,0,0,0,0,0,0,0,0,0,0,0,0,0,0],"sum_hessian":[4.145E3,2.283E3,1.862E3,1.604E3,6.79E2,1.087E3,7.75E2,1.095E3,5.09E2,3.26E2,3.53E2,9.2E2,1.67E2,5.58E2,2.17E2,8.38E2,2.57E2,1.2E1,4.97E2,1.9E1,3.07E2,3.19E2,3.4E1,1.95E2,7.25E2,3E1,1.37E2,1.27E2,4.31E2,1.18E2,9.9E1],"tree_param":{"num_deleted":"0","num_feature":"7","num_nodes":"31","size_leaf_vector":"1"}},{"base_weights":[1.9478473E-5,-5.4294538E-2,6.848593E-2,-7.592505E-2,-2.0389233E-2,4.4834193E-2,1.264613E-1,-8.414238E-2,-6.701913E-2,-3.2651372E-2,1.0676691E-4,3.556087E-2,9.890461E-2,1.03932686E-1,1.6527303E-1,-2.7004853E-3,-2.3885884E-3,-1.8809958E-3,-2.7454633E-3,7.212678E-4,-1.0711981E-3,8.081131E-5,-1.9850098E-3,8.4902893E-4,2.1399634E-3,4.8923483E-3,2.1504415E-3,4.257943E-3,2.9103328E-3,3.8953314E-3,5.6667794E-3],"categories":[],"categories_nodes":[],"categories_segments":[],"categories_sizes":[],"default_left":[0,0,0,0,0,0,0,0,0,0,0,0,0,0,0,0,0,0,0,0,0,0,0,0,0,0,0,0,0,0,0],"id":27,"left_children":[1,3,5,7,9,11,13,15,17,19,21,23,25,27,29,-1,-1,-1,-1,-1,-1,-1,-1,-1,-1,-1,-1,-1,-1,-1,-1],"loss_changes":[1.5711456E1,1.7263179E0,2.5571375E0,9.959793E-2,2.3097101E-1,6.628599E-1,4.5585918E-1,1.2598038E-2,6.7796946E-2,1.0045552E-1,5.932727E-2,2.929957E-1,3.2723093E-1,7.697034E-2,1.403246E-1,0E0,0E0,0E0,0E0,0E0,0E0,0E0,0E0,0E0,0E0,0E0,0E0,0E0,0E0,0E0,0E0],"parents":[2147483647,0,0,1,1,2,2,3,3,4,4,5,5,6,6,7,7,8,8,9,9,10,10,11,11,12,12,13,13,14,14],"right_children":[2,4,6,8,10,12,14,16,18,20,22,24,26,28,30,-1,-1,-1,-1,-1,-1,-1,-1,-1,-1,-1,-1,-1,-1,-1,-1],"split_conditions":[2.576914E-1,1.1632856E-1,4.6551085E-1,6.00813E-2,2.0741639E-1,4.7383758E-1,5.5782753E-1,3.920055E-2,1.5526368E-1,9.6942104E-2,4.905304E-1,4.0020445E-1,2.8730687E-1,2.6639664E-1,5.8892745E-1,-2.7004853E-3,-2.3885884E-3,-1.8809958E-3,-2.7454633E-3,7.212678E-4,-1.0711981E-3,8.081131E-5,-1.9850098E-3,8.4902893E-4,2.1399634E-3,4.8923483E-3,2.1504415E-3,4.257943E-3,2.9103328E-3,3.8953314E-3,5.6667794E-3],"split_indices":[6,6,5,5,5,6,4,6,4,4,1,2,2,2,5,0,0,0,0,0,0,0,0,0,0,0,0,0,0,0,0],"split_type":[0,0,0,0,0,0,0,0,0,0,0,0,0,0,0,0,0,0,0,0,0,0,0,0,0,0,0,0,0,0,0],"sum_hessian":[4.223E3,2.355E3,1.868E3,1.437E3,9.18E2,1.328E3,5.4E2,7.43E2,6.94E2,5.74E2,3.44E2,1.135E3,1.93E2,3.44E2,1.96E2,3.15E2,4.28E2,5.93E2,1.01E2,2.9E1,5.45E2,3.32E2,1.2E1,9.45E2,1.9E2,5.6E1,1.37E2,5E1,2.94E2,8.1E1,1.15E2],"tree_param":{"num_deleted":"0","num_feature":"7","num_nodes":"31","size_leaf_vector":"1"}},{"base_weights":[-2.3978112E-4,-5.466337E-2,6.448798E-2,-7.0986345E-2,-1.5644927E-2,3.8367752E-2,1.1646402E-1,-8.148103E-2,-5.8637165E-2,-2.4951633E-2,5.3819795E-3,3.1517934E-2,8.453714E-2,1.0400232E-1,1.9756213E-1,-2.8645284E-3,-2.2696848E-3,-2.2751058E-3,-1.6555762E-3,5.6431105E-4,-8.274096E-4,3.3814312E-4,-1.9688369E-3,1.77337E-3,7.2502554E-4,2.7489767E-3,-2.6307981E-3,2.993328E-3,6.7419363E-3,3.5749755E-3,6.5593394E-3],"categories":[],"categories_nodes":[],"categories_segments":[],"categories_sizes":[],"default_left":[0,0,0,0,0,0,0,0,0,0,0,0,0,0,0,0,0,0,0,0,0,0,0,0,0,0,0,0,0,0,0],"id":28,"left_children":[1,3,5,7,9,11,13,15,17,19,21,23,25,27,29,-1,-1,-1,-1,-1,-1,-1,-1,-1,-1,-1,-1,-1,-1,-1,-1],"loss_changes":[1.4746097E1,1.4471936E0,2.591312E0,2.0297241E-1,1.3163878E-1,4.0024042E-1,6.252403E-1,6.3250065E-2,3.974223E-2,5.4125875E-2,8.730913E-2,2.2391582E-1,2.0845115E-1,2.6116276E-1,1.1277938E-1,0E0,0E0,0E0,0E0,0E0,0E0,0E0,0E0,0E0,0E0,0E0,0E0,0E0,0E0,0E0,0E0],"parents":[2147483647,0,0,1,1,2,2,3,3,4,4,5,5,6,6,7,7,8,8,9,9,10,10,11,11,12,12,13,13,14,14],"right_children":[2,4,6,8,10,12,14,16,18,20,22,24,26,28,30,-1,-1,-1,-1,-1,-1,-1,-1,-1,-1,-1,-1,-1,-1,-1,-1],"split_conditions":[2.525941E-1,1.3977516E-1,4.501305E-1,6.564557E-2,2.4789004E-1,4.5352703E-1,6.5084714E-1,3.811916E-2,7.235512E-2,8.453556E-2,4.5747414E-1,2.0734265E-1,6.403625E-1,7.3409975E-1,5.71807E-1,-2.8645284E-3,-2.2696848E-3,-2.2751058E-3,-1.6555762E-3,5.6431105E-4,-8.274096E-4,3.3814312E-4,-1.9688369E-3,1.77337E-3,7.2502554E-4,2.7489767E-3,-2.6307981E-3,2.993328E-3,6.7419363E-3,3.5749755E-3,6.5593394E-3],"split_indices":[6,6,6,6,2,3,3,3,4,4,3,2,1,6,4,0,0,0,0,0,0,0,0,0,0,0,0,0,0,0,0],"split_type":[0,0,0,0,0,0,0,0,0,0,0,0,0,0,0,0,0,0,0,0,0,0,0,0,0,0,0,0,0,0,0],"sum_hessian":[4.184E3,2.273E3,1.911E3,1.602E3,6.71E2,1.273E3,6.38E2,8.63E2,7.39E2,4.65E2,2.06E2,1.11E3,1.63E2,5.55E2,8.3E1,2.49E2,6.14E2,1.2E2,6.19E2,2.6E1,4.39E2,1.91E2,1.5E1,2.32E2,8.78E2,1.57E2,6E0,5.38E2,1.7E1,1.9E1,6.4E1],"tree_param":{"num_deleted":"0","num_feature":"7","num_nodes":"31","size_leaf_vector":"1"}},{"base_weights":[1.6602232E-4,-5.3939577E-2,6.038377E-2,-7.0864975E-2,-2.346552E-2,4.488864E-2,1.447007E-1,-8.2445875E-2,-6.257323E-2,-3.23841E-2,-7.2327103E-3,2.3575056E-2,7.180952E-2,1.1741052E-1,1.838088E-1,-2.336749E-3,-2.8255966E-3,2.9919911E-3,-1.8926277E-3,1.8199026E-3,-1.0199224E-3,-3.469184E-4,8.0087245E-4,5.120972E-4,2.0909405E-3,2.1989483E-3,-4.8241047E-3,6.2765526E-3,2.9842819E-3,4.839322E-3,6.673124E-3],"categories":[],"categories_nodes":[],"categories_segments":[],"categories_sizes":[],"default_left":[0,0,0,0,0,0,0,0,0,0,0,0,0,0,0,0,0,0,0,0,0,0,0,0,0,0,0,0,0,0,0],"id":29,"left_children":[1,3,5,7,9,11,13,15,17,19,21,23,25,27,29,-1,-1,-1,-1,-1,-1,-1,-1,-1,-1,-1,-1,-1,-1,-1,-1],"loss_changes":[1.3589605E1,1.1315179E0,2.5725389E0,1.3042974E-1,1.13557845E-1,9.559467E-1,3.050027E-1,2.399683E-2,7.533288E-2,7.817066E-2,4.145532E-2,2.7874446E-1,2.6701212E-1,2.805016E-1,7.18832E-2,0E0,0E0,0E0,0E0,0E0,0E0,0E0,0E0,0E0,0E0,0E0,0E0,0E0,0E0,0E0,0E0],"parents":[2147483647,0,0,1,1,2,2,3,3,4,4,5,5,6,6,7,7,8,8,9,9,10,10,11,11,12,12,13,13,14,14],"right_children":[2,4,6,8,10,12,14,16,18,20,22,24,26,28,30,-1,-1,-1,-1,-1,-1,-1,-1,-1,-1,-1,-1,-1,-1,-1,-1],"split_conditions":[2.3821647E-1,1.1632856E-1,5.402008E-1,5.1282678E-2,1.8630953E-1,3.6375165E-1,5.957157E-1,1.8976508E-1,3.8664773E-2,8.252024E-2,3.0516955E-1,3.9255112E-1,7.693139E-1,2.6318192E-1,6.754832E-1,-2.336749E-3,-2.8255966E-3,2.9919911E-3,-1.8926277E-3,1.8199026E-3,-1.0199224E-3,-3.469184E-4,8.0087245E-4,5.120972E-4,2.0909405E-3,2.1989483E-3,-4.8241047E-3,6.2765526E-3,2.9842819E-3,4.839322E-3,6.673124E-3],"split_indices":[6,6,6,6,6,6,3,0,3,4,4,2,2,4,0,0,0,0,0,0,0,0,0,0,0,0,0,0,0,0,0],"split_type":[0,0,0,0,0,0,0,0,0,0,0,0,0,0,0,0,0,0,0,0,0,0,0,0,0,0,0,0,0,0,0],"sum_hessian":[4.169E3,2.196E3,1.973E3,1.411E3,7.85E2,1.668E3,3.05E2,5.85E2,8.26E2,5.06E2,2.79E2,9.32E2,7.36E2,1.82E2,1.23E2,4.27E2,1.58E2,2E0,8.24E2,8E0,4.98E2,2.48E2,3.1E1,8.18E2,1.14E2,7.32E2,4E0,2.8E1,1.54E2,8.1E1,4.2E1],"tree_param":{"num_deleted":"0","num_feature":"7","num_nodes":"31","size_leaf_vector":"1"}},{"base_weights":[6.521324E-4,-5.2006006E-2,5.929862E-2,-7.001513E-2,-2.5405228E-2,3.4766767E-2,1.133074E-1,-6.500841E-2,-8.266675E-2,-3.6067296E-2,-3.3418983E-3,2.4376076E-2,8.004965E-2,9.8192886E-2,1.8290333E-1,-2.2543492E-3,-1.6228961E-3,-2.777839E-3,-2.2662487E-3,2.408603E-4,-1.1252481E-3,-2.1475443E-4,1.1403261E-3,3.552874E-4,1.2202729E-3,5.117512E-4,2.7387615E-3,2.539006E-3,4.2182435E-3,4.480277E-3,6.605681E-3],"categories":[],"categories_nodes":[],"categories_segments":[],"categories_sizes":[],"default_left":[0,0,0,0,0,0,0,0,0,0,0,0,0,0,0,0,0,0,0,0,0,0,0,0,0,0,0,0,0,0,0],"id":30,"left_children":[1,3,5,7,9,11,13,15,17,19,21,23,25,27,29,-1,-1,-1,-1,-1,-1,-1,-1,-1,-1,-1,-1,-1,-1,-1,-1],"loss_changes":[1.3029174E1,1.0631647E0,2.6406322E0,7.855511E-2,2.1136087E-1,6.445439E-1,6.3737917E-1,1.01456165E-1,1.9319773E-2,3.8807154E-2,4.6673026E-2,2.2811502E-1,1.7973506E-1,2.8371286E-1,1.047647E-1,0E0,0E0,0E0,0E0,0E0,0E0,0E0,0E0,0E0,0E0,0E0,0E0,0E0,0E0,0E0,0E0],"parents":[2147483647,0,0,1,1,2,2,3,3,4,4,5,5,6,6,7,7,8,8,9,9,10,10,11,11,12,12,13,13,14,14],"right_children":[2,4,6,8,10,12,14,16,18,20,22,24,26,28,30,-1,-1,-1,-1,-1,-1,-1,-1,-1,-1,-1,-1,-1,-1,-1,-1],"split_conditions":[2.3821647E-1,1.04531534E-1,4.501305E-1,1.4674032E-1,1.8630953E-1,4.0644705E-1,6.403625E-1,5.665033E-2,4.8446473E-2,9.331944E-2,3.3024314E-1,3.2558823E-1,3.466951E-1,5.5126053E-1,6.5084714E-1,-2.2543492E-3,-1.6228961E-3,-2.777839E-3,-2.2662487E-3,2.408603E-4,-1.1252481E-3,-2.1475443E-4,1.1403261E-3,3.552874E-4,1.2202729E-3,5.117512E-4,2.7387615E-3,2.539006E-3,4.2182435E-3,4.480277E-3,6.605681E-3],"split_indices":[6,6,6,0,6,2,6,2,6,3,4,6,3,3,4,0,0,0,0,0,0,0,0,0,0,0,0,0,0,0,0],"split_type":[0,0,0,0,0,0,0,0,0,0,0,0,0,0,0,0,0,0,0,0,0,0,0,0,0,0,0,0,0,0,0],"sum_hessian":[4.217E3,2.222E3,1.995E3,1.324E3,8.98E2,1.373E3,6.22E2,9.53E2,3.71E2,6.05E2,2.93E2,1.118E3,2.55E2,5.13E2,1.09E2,4.91E2,4.62E2,1.5E2,2.21E2,1.9E1,5.86E2,2.69E2,2.4E1,6.33E2,4.85E2,3.9E1,2.16E2,3.91E2,1.22E2,6E1,4.9E1],"tree_param":{"num_deleted":"0","num_feature":"7","num_nodes":"31","size_leaf_vector":"1"}},{"base_weights":[-1.0333977E-3,-4.8404768E-2,5.967536E-2,-6.709947E-2,-1.9701129E-2,4.4391535E-2,1.2400969E-1,-7.406336E-2,-5.561689E-2,-3.273E-2,-3.296931E-3,3.288042E-2,8.123175E-2,9.994849E-2,1.6783331E-1,-2.1208571E-3,-2.5055374E-3,-2.3322082E-3,-1.5753484E-3,4.9279735E-4,-1.0356521E-3,-3.6459675E-4,4.2558505E-4,1.8285898E-3,7.5142237E-4,2.5328568E-3,-4.7829337E-3,5.083327E-3,2.5874865E-3,5.263279E-3,2.2114578E-3],"categories":[],"categories_nodes":[],"categories_segments":[],"categories_sizes":[],"default_left":[0,0,0,0,0,0,0,0,0,0,0,0,0,0,0,0,0,0,0,0,0,0,0,0,0,0,0,0,0,0,0],"id":31,"left_children":[1,3,5,7,9,11,13,15,17,19,21,23,25,27,29,-1,-1,-1,-1,-1,-1,-1,-1,-1,-1,-1,-1,-1,-1,-1,-1],"loss_changes":[1.2118874E1,1.2688241E0,1.8106036E0,1.10468864E-1,1.9972792E-1,6.308923E-1,3.5650015E-1,2.2405148E-2,3.3358812E-2,4.645455E-2,6.442913E-2,2.4915099E-1,2.8658152E-1,2.0530176E-1,7.5873375E-2,0E0,0E0,0E0,0E0,0E0,0E0,0E0,0E0,0E0,0E0,0E0,0E0,0E0,0E0,0E0,0E0],"parents":[2147483647,0,0,1,1,2,2,3,3,4,4,5,5,6,6,7,7,8,8,9,9,10,10,11,11,12,12,13,13,14,14],"right_children":[2,4,6,8,10,12,14,16,18,20,22,24,26,28,30,-1,-1,-1,-1,-1,-1,-1,-1,-1,-1,-1,-1,-1,-1,-1,-1],"split_conditions":[2.5522384E-1,1.1632856E-1,5.269095E-1,6.564557E-2,1.8630953E-1,4.291465E-1,5.957157E-1,1.8603428E-1,6.880619E-2,9.6942104E-2,2.6530048E-1,1.9481322E-1,7.693139E-1,1.5517521E-1,8.0888313E-1,-2.1208571E-3,-2.5055374E-3,-2.3322082E-3,-1.5753484E-3,4.9279735E-4,-1.0356521E-3,-3.6459675E-4,4.2558505E-4,1.8285898E-3,7.5142237E-4,2.5328568E-3,-4.7829337E-3,5.083327E-3,2.5874865E-3,5.263279E-3,2.2114578E-3],"split_indices":[6,6,6,6,6,3,3,0,0,4,2,2,2,3,6,0,0,0,0,0,0,0,0,0,0,0,0,0,0,0,0],"split_type":[0,0,0,0,0,0,0,0,0,0,0,0,0,0,0,0,0,0,0,0,0,0,0,0,0,0,0,0,0,0,0],"sum_hessian":[4.212E3,2.366E3,1.846E3,1.432E3,9.34E2,1.493E3,3.53E2,8.88E2,5.44E2,5.2E2,4.14E2,1.139E3,3.54E2,2.3E2,1.23E2,6.61E2,2.27E2,6.4E1,4.8E2,1.8E1,5.02E2,2.75E2,1.39E2,2.47E2,8.92E2,3.5E2,4E0,3.6E1,1.94E2,1.13E2,1E1],"tree_param":{"num_deleted":"0","num_feature":"7","num_nodes":"31","size_leaf_vector":"1"}},{"base_weights":[1.485965E-3,-5.2387528E-2,5.35063E-2,-6.550587E-2,-2.8167767E-2,2.6526986E-2,9.558677E-2,-7.654657E-2,-5.9008356E-2,-4.5810062E-2,-2.0242967E-2,1.4202584E-2,5.0279275E-2,8.2028136E-2,1.6347395E-1,-2.1481868E-3,-2.5961278E-3,6.0229353E-3,-1.7866984E-3,-1.4459061E-3,7.308002E-4,-5.5601116E-4,-1.7504359E-3,3.169673E-4,2.0053885E-3,1.4219616E-3,8.7768035E-3,2.1053308E-3,3.4401135E-3,3.792423E-3,5.6965705E-3],"categories":[],"categories_nodes":[],"categories_segments":[],"categories_sizes":[],"default_left":[0,0,0,0,0,0,0,0,0,0,0,0,0,0,0,0,0,0,0,0,0,0,0,0,0,0,0,0,0,0,0],"id":32,"left_children":[1,3,5,7,9,11,13,15,17,19,21,23,25,27,29,-1,-1,-1,-1,-1,-1,-1,-1,-1,-1,-1,-1,-1,-1,-1,-1],"loss_changes":[1.1694904E1,6.49487E-1,2.4077106E0,9.082222E-2,1.0001665E-1,3.7837476E-1,7.496495E-1,1.7940044E-2,1.3173413E-1,3.852269E-2,3.148423E-2,1.6280526E-1,2.9460645E-1,2.600236E-1,1.10093355E-1,0E0,0E0,0E0,0E0,0E0,0E0,0E0,0E0,0E0,0E0,0E0,0E0,0E0,0E0,0E0,0E0],"parents":[2147483647,0,0,1,1,2,2,3,3,4,4,5,5,6,6,7,7,8,8,9,9,10,10,11,11,12,12,13,13,14,14],"right_children":[2,4,6,8,10,12,14,16,18,20,22,24,26,28,30,-1,-1,-1,-1,-1,-1,-1,-1,-1,-1,-1,-1,-1,-1,-1,-1],"split_conditions":[2.1722758E-1,1.0837048E-1,3.9592803E-1,4.6657257E-2,1.3241185E-1,3.4466502E-1,6.1997825E-1,5.5342823E-2,2.6130425E-2,1.8147767E-1,4.260498E-1,4.0020445E-1,7.053592E-1,5.269095E-1,5.957157E-1,-2.1481868E-3,-2.5961278E-3,6.0229353E-3,-1.7866984E-3,-1.4459061E-3,7.308002E-4,-5.5601116E-4,-1.7504359E-3,3.169673E-4,2.0053885E-3,1.4219616E-3,8.7768035E-3,2.1053308E-3,3.4401135E-3,3.792423E-3,5.6965705E-3],"split_indices":[6,6,5,6,5,6,6,0,5,6,3,2,6,3,3,0,0,0,0,0,0,0,0,0,0,0,0,0,0,0,0],"split_type":[0,0,0,0,0,0,0,0,0,0,0,0,0,0,0,0,0,0,0,0,0,0,0,0,0,0,0,0,0,0,0],"sum_hessian":[4.171E3,2.049E3,2.122E3,1.328E3,7.21E2,1.294E3,8.28E2,4.88E2,8.4E2,2.22E2,4.99E2,8.53E2,4.41E2,6.92E2,1.36E2,3.32E2,1.56E2,1E0,8.39E2,2.15E2,7E0,4.79E2,2E1,7.99E2,5.4E1,4.37E2,4E0,5.1E2,1.82E2,5.9E1,7.7E1],"tree_param":{"num_deleted":"0","num_feature":"7","num_nodes":"31","size_leaf_vector":"1"}},{"base_weights":[1.4097814E-4,-4.6231963E-2,5.7820674E-2,-6.145465E-2,-1.4049017E-2,2.9479329E-2,9.942907E-2,-7.600933E-2,-5.4694597E-2,-2.5458906E-2,1.4417728E-4,1.9841826E-2,5.6628548E-2,8.4594615E-2,1.4558683E-1,-8.598309E-4,-2.3018043E-3,5.932591E-3,-1.6533899E-3,-8.063625E-4,2.7588604E-4,-4.0905748E-4,5.175568E-4,1.3058732E-3,3.976104E-4,1.4050762E-3,2.6941712E-3,2.158929E-3,3.59197E-3,3.760938E-3,5.8939876E-3],"categories":[],"categories_nodes":[],"categories_segments":[],"categories_sizes":[],"default_left":[0,0,0,0,0,0,0,0,0,0,0,0,0,0,0,0,0,0,0,0,0,0,0,0,0,0,0,0,0,0,0],"id":33,"left_children":[1,3,5,7,9,11,13,15,17,19,21,23,25,27,29,-1,-1,-1,-1,-1,-1,-1,-1,-1,-1,-1,-1,-1,-1,-1,-1],"loss_changes":[1.1175217E1,1.1337705E0,2.1928105E0,1.505127E-1,1.2065104E-1,2.89047E-1,5.039673E-1,1.4650583E-2,1.2465644E-1,2.0568788E-2,7.873484E-2,1.2738833E-1,9.001273E-2,2.4568081E-1,1.6262913E-1,0E0,0E0,0E0,0E0,0E0,0E0,0E0,0E0,0E0,0E0,0E0,0E0,0E0,0E0,0E0,0E0],"parents":[2147483647,0,0,1,1,2,2,3,3,4,4,5,5,6,6,7,7,8,8,9,9,10,10,11,11,12,12,13,13,14,14],"right_children":[2,4,6,8,10,12,14,16,18,20,22,24,26,28,30,-1,-1,-1,-1,-1,-1,-1,-1,-1,-1,-1,-1,-1,-1,-1,-1],"split_conditions":[2.576914E-1,1.3471226E-1,4.1740355E-1,4.6657257E-2,2.0741639E-1,3.8087207E-1,5.957157E-1,2.138212E-2,2.6130425E-2,2.3301594E-1,2.6530048E-1,1.9481322E-1,4.9835575E-1,5.269095E-1,7.3409975E-1,-8.598309E-4,-2.3018043E-3,5.932591E-3,-1.6533899E-3,-8.063625E-4,2.7588604E-4,-4.0905748E-4,5.175568E-4,1.3058732E-3,3.976104E-4,1.4050762E-3,2.6941712E-3,2.158929E-3,3.59197E-3,3.760938E-3,5.8939876E-3],"split_indices":[6,6,6,6,5,5,6,3,5,6,2,2,5,3,6,0,0,0,0,0,0,0,0,0,0,0,0,0,0,0,0],"split_type":[0,0,0,0,0,0,0,0,0,0,0,0,0,0,0,0,0,0,0,0,0,0,0,0,0,0,0,0,0,0,0],"sum_hessian":[4.176E3,2.315E3,1.861E3,1.571E3,7.44E2,1.108E3,7.53E2,4.95E2,1.076E3,4.12E2,3.32E2,8.19E2,2.89E2,5.72E2,1.81E2,8E0,4.87E2,1E0,1.075E3,3.96E2,1.6E1,1.84E2,1.48E2,1.77E2,6.42E2,2.25E2,6.4E1,4.23E2,1.49E2,1.32E2,4.9E1],"tree_param":{"num_deleted":"0","num_feature":"7","num_nodes":"31","size_leaf_vector":"1"}},{"base_weights":[-8.663301E-4,-4.8145946E-2,4.825004E-2,-6.2080994E-2,-2.5197443E-2,2.4237365E-2,9.0385795E-2,-5.753907E-2,-7.368812E-2,-3.2131594E-2,-6.7704394E-3,1.0057414E-2,4.1804112E-2,7.377112E-2,1.309911E-1,-2.00147E-3,-1.3849378E-3,-2.157242E-3,-3.3164208E-3,-1.2198003E-3,-6.6266244E-4,-5.855746E-4,2.0626736E-4,1.9873204E-4,1.0993583E-3,1.0642877E-3,2.2347232E-3,1.0917772E-3,2.6170148E-3,3.4213555E-3,5.5186157E-3],"categories":[],"categories_nodes":[],"categories_segments":[],"categories_sizes":[],"default_left":[0,0,0,0,0,0,0,0,0,0,0,0,0,0,0,0,0,0,0,0,0,0,0,0,0,0,0,0,0,0,0],"id":34,"left_children":[1,3,5,7,9,11,13,15,17,19,21,23,25,27,29,-1,-1,-1,-1,-1,-1,-1,-1,-1,-1,-1,-1,-1,-1,-1,-1],"loss_changes":[9.630176E0,6.7414856E-1,2.0557947E0,6.503296E-2,1.0200298E-1,3.2265657E-1,4.8822403E-1,9.597564E-2,1.6064525E-2,4.8864305E-2,3.840743E-2,6.5385036E-2,1.1711562E-1,2.6151705E-1,1.7018914E-1,0E0,0E0,0E0,0E0,0E0,0E0,0E0,0E0,0E0,0E0,0E0,0E0,0E0,0E0,0E0,0E0],"parents":[2147483647,0,0,1,1,2,2,3,3,4,4,5,5,6,6,7,7,8,8,9,9,10,10,11,11,12,12,13,13,14,14],"right_children":[2,4,6,8,10,12,14,16,18,20,22,24,26,28,30,-1,-1,-1,-1,-1,-1,-1,-1,-1,-1,-1,-1,-1,-1,-1,-1],"split_conditions":[2.2508736E-1,1.04531534E-1,4.1740355E-1,1.4674032E-1,1.834586E-1,3.20196E-1,5.8168703E-1,5.9383307E-2,4.501305E-1,1.4523128E-1,2.1364425E-1,3.6375165E-1,4.5352703E-1,3.8087207E-1,7.3409975E-1,-2.00147E-3,-1.3849378E-3,-2.157242E-3,-3.3164208E-3,-1.2198003E-3,-6.6266244E-4,-5.855746E-4,2.0626736E-4,1.9873204E-4,1.0993583E-3,1.0642877E-3,2.2347232E-3,1.0917772E-3,2.6170148E-3,3.4213555E-3,5.5186157E-3],"split_indices":[6,6,6,0,6,5,6,0,5,5,2,6,2,5,6,0,0,0,0,0,0,0,0,0,0,0,0,0,0,0,0],"split_type":[0,0,0,0,0,0,0,0,0,0,0,0,0,0,0,0,0,0,0,0,0,0,0,0,0,0,0,0,0,0,0],"sum_hessian":[4.145E3,2.112E3,2.033E3,1.313E3,7.99E2,1.296E3,7.37E2,9.48E2,3.65E2,5.8E2,2.19E2,7.18E2,5.78E2,5.25E2,2.12E2,5.22E2,4.26E2,3.51E2,1.4E1,3.12E2,2.68E2,1.13E2,1.06E2,6.37E2,8.1E1,4.86E2,9.2E1,1.4E2,3.85E2,1.63E2,4.9E1],"tree_param":{"num_deleted":"0","num_feature":"7","num_nodes":"31","size_leaf_vector":"1"}},{"base_weights":[1.440226E-3,-2.4113493E-2,5.9833426E-2,-4.2451553E-2,2.499389E-4,4.787069E-2,1.1638933E-1,-5.4964088E-2,-3.101529E-2,-3.6901312E-3,2.1481277E-2,1.052731E-1,4.315996E-2,9.641964E-2,1.5556546E-1,-1.489615E-3,-2.0302006E-3,-7.9159066E-4,-1.5640326E-3,-3.6276798E-4,5.6725945E-5,3.343466E-4,1.3036134E-3,3.3037697E-3,-1.679536E-3,9.2618284E-4,2.0795604E-3,3.0489552E-3,-3.6161048E-3,5.1498786E-3,1.7427466E-3],"categories":[],"categories_nodes":[],"categories_segments":[],"categories_sizes":[],"default_left":[0,0,0,0,0,0,0,0,0,0,0,0,0,0,0,0,0,0,0,0,0,0,0,0,0,0,0,0,0,0,0],"id":35,"left_children":[1,3,5,7,9,11,13,15,17,19,21,23,25,27,29,-1,-1,-1,-1,-1,-1,-1,-1,-1,-1,-1,-1,-1,-1,-1,-1],"loss_changes":[6.308818E0,1.3139849E0,8.651657E-1,2.3841143E-1,1.0581662E-1,2.8316927E-1,1.6024351E-1,5.0631523E-2,8.455455E-2,5.0056934E-2,4.4484757E-2,6.8766415E-2,3.144561E-1,1.830045E-1,1.0613787E-1,0E0,0E0,0E0,0E0,0E0,0E0,0E0,0E0,0E0,0E0,0E0,0E0,0E0,0E0,0E0,0E0],"parents":[2147483647,0,0,1,1,2,2,3,3,4,4,5,5,6,6,7,7,8,8,9,9,10,10,11,11,12,12,13,13,14,14],"right_children":[2,4,6,8,10,12,14,16,18,20,22,24,26,28,30,-1,-1,-1,-1,-1,-1,-1,-1,-1,-1,-1,-1,-1,-1,-1,-1],"split_conditions":[3.3178657E-1,1.4939465E-1,5.8168703E-1,6.2774956E-2,3.422417E-1,1.9030087E-1,6.5084714E-1,5.665033E-2,2.0685603E-1,2.2508736E-1,3.7211278E-1,4.5352703E-1,4.7383758E-1,8.0888313E-1,8.0888313E-1,-1.489615E-3,-2.0302006E-3,-7.9159066E-4,-1.5640326E-3,-3.6276798E-4,5.6725945E-5,3.343466E-4,1.3036134E-3,3.3037697E-3,-1.679536E-3,9.2618284E-4,2.0795604E-3,3.0489552E-3,-3.6161048E-3,5.1498786E-3,1.7427466E-3],"split_indices":[4,4,4,4,2,2,3,1,0,4,3,0,2,1,1,0,0,0,0,0,0,0,0,0,0,0,0,0,0,0,0],"split_type":[0,0,0,0,0,0,0,0,0,0,0,0,0,0,0,0,0,0,0,0,0,0,0,0,0,0,0,0,0,0,0],"sum_hessian":[4.226E3,2.94E3,1.286E3,1.677E3,1.263E3,1.063E3,2.23E2,7.99E2,8.78E2,1.066E3,1.97E2,7.9E1,9.84E2,1.5E2,7.3E1,5.67E2,2.32E2,7.22E2,1.56E2,4.25E2,6.41E2,1.35E2,6.2E1,7.7E1,2E0,6.71E2,3.13E2,1.47E2,3E0,6.2E1,1.1E1],"tree_param":{"num_deleted":"0","num_feature":"7","num_nodes":"31","size_leaf_vector":"1"}},{"base_weights":[2.761288E-4,-4.763322E-2,4.5149464E-2,-5.7081763E-2,-2.4883134E-2,2.166821E-2,8.8879876E-2,-6.424869E-2,-4.925893E-2,-3.4679145E-2,-1.226273E-2,8.380228E-3,3.5801195E-2,6.611079E-2,1.22627445E-1,-2.250248E-3,-1.8461057E-3,-1.3555938E-3,-2.5541468E-3,-1.123354E-3,8.1710146E-5,-1.3142523E-4,-7.038346E-4,8.65623E-4,1.0083535E-4,8.0689957E-4,1.803493E-3,2.0587004E-3,-6.992387E-3,3.337575E-3,5.561144E-3],"categories":[],"categories_nodes":[],"categories_segments":[],"categories_sizes":[],"default_left":[0,0,0,0,0,0,0,0,0,0,0,0,0,0,0,0,0,0,0,0,0,0,0,0,0,0,0,0,0,0,0],"id":36,"left_children":[1,3,5,7,9,11,13,15,17,19,21,23,25,27,29,-1,-1,-1,-1,-1,-1,-1,-1,-1,-1,-1,-1,-1,-1,-1,-1],"loss_changes":[9.001431E0,4.3386412E-1,2.218113E0,7.70092E-2,7.325798E-2,2.6412076E-1,5.720353E-1,1.7063618E-2,9.6681595E-2,3.475967E-2,2.3022585E-2,7.46091E-2,1.46047E-1,3.565297E-1,1.9563103E-1,0E0,0E0,0E0,0E0,0E0,0E0,0E0,0E0,0E0,0E0,0E0,0E0,0E0,0E0,0E0,0E0],"parents":[2147483647,0,0,1,1,2,2,3,3,4,4,5,5,6,6,7,7,8,8,9,9,10,10,11,11,12,12,13,13,14,14],"right_children":[2,4,6,8,10,12,14,16,18,20,22,24,26,28,30,-1,-1,-1,-1,-1,-1,-1,-1,-1,-1,-1,-1,-1,-1,-1,-1],"split_conditions":[2.1019852E-1,1.1632856E-1,4.1332373E-1,6.00813E-2,1.6455875E-1,3.071652E-1,5.402008E-1,3.4811072E-2,1.8147767E-1,1.7585441E-1,2.0704773E-1,1.6162917E-1,3.8722774E-1,7.3409975E-1,6.754832E-1,-2.250248E-3,-1.8461057E-3,-1.3555938E-3,-2.5541468E-3,-1.123354E-3,8.1710146E-5,-1.3142523E-4,-7.038346E-4,8.65623E-4,1.0083535E-4,8.0689957E-4,1.803493E-3,2.0587004E-3,-6.992387E-3,3.337575E-3,5.561144E-3],"split_indices":[6,6,6,5,5,5,6,0,5,6,1,2,2,2,0,0,0,0,0,0,0,0,0,0,0,0,0,0,0,0,0],"split_type":[0,0,0,0,0,0,0,0,0,0,0,0,0,0,0,0,0,0,0,0,0,0,0,0,0,0,0,0,0,0,0],"sum_hessian":[4.185E3,2.024E3,2.161E3,1.429E3,5.95E2,1.407E3,7.54E2,7.42E2,6.87E2,3.34E2,2.61E2,7.26E2,6.81E2,4.52E2,3.02E2,1.44E2,5.98E2,6.19E2,6.8E1,3.11E2,2.3E1,1.54E2,1.07E2,1.42E2,5.84E2,5E2,1.81E2,4.49E2,3E0,2.58E2,4.4E1],"tree_param":{"num_deleted":"0","num_feature":"7","num_nodes":"31","size_leaf_vector":"1"}},{"base_weights":[9.0164965E-4,-4.0940758E-2,5.3164613E-2,-5.4421064E-2,-1.02613885E-2,3.93699E-2,1.2295889E-1,-6.1089907E-2,-3.9928313E-2,-1.5827442E-2,7.143647E-3,2.8753066E-2,7.3427424E-2,1.0374909E-1,1.6188283E-1,-1.7181719E-3,-2.2026664E-3,-1.1005222E-3,-1.6158313E-3,6.4037915E-4,-5.4220756E-4,4.5292216E-4,-1.6217935E-3,1.6126367E-3,6.298953E-4,2.2960885E-3,-6.835059E-3,5.574115E-3,2.6801033E-3,5.2158087E-3,2.3023165E-3],"categories":[],"categories_nodes":[],"categories_segments":[],"categories_sizes":[],"default_left":[0,0,0,0,0,0,0,0,0,0,0,0,0,0,0,0,0,0,0,0,0,0,0,0,0,0,0,0,0,0,0],"id":37,"left_children":[1,3,5,7,9,11,13,15,17,19,21,23,25,27,29,-1,-1,-1,-1,-1,-1,-1,-1,-1,-1,-1,-1,-1,-1,-1,-1],"loss_changes":[9.103672E0,9.556091E-1,1.777287E0,1.5278053E-1,6.860536E-2,5.5725765E-1,2.1125937E-1,4.748726E-2,2.1031559E-2,4.5140088E-2,8.45453E-2,2.2789735E-1,3.6116338E-1,2.28199E-1,8.761239E-2,0E0,0E0,0E0,0E0,0E0,0E0,0E0,0E0,0E0,0E0,0E0,0E0,0E0,0E0,0E0,0E0],"parents":[2147483647,0,0,1,1,2,2,3,3,4,4,5,5,6,6,7,7,8,8,9,9,10,10,11,11,12,12,13,13,14,14],"right_children":[2,4,6,8,10,12,14,16,18,20,22,24,26,28,30,-1,-1,-1,-1,-1,-1,-1,-1,-1,-1,-1,-1,-1,-1,-1,-1],"split_conditions":[2.5522384E-1,1.3977516E-1,5.402008E-1,8.256447E-2,2.6530048E-1,4.291465E-1,6.296322E-1,1.3414699E-1,2.686577E-1,8.453556E-2,4.291465E-1,2.0734265E-1,7.693139E-1,2.6318192E-1,8.0888313E-1,-1.7181719E-3,-2.2026664E-3,-1.1005222E-3,-1.6158313E-3,6.4037915E-4,-5.4220756E-4,4.5292216E-4,-1.6217935E-3,1.6126367E-3,6.298953E-4,2.2960885E-3,-6.835059E-3,5.574115E-3,2.6801033E-3,5.2158087E-3,2.3023165E-3],"split_indices":[6,6,6,6,2,3,3,1,1,4,3,2,2,4,2,0,0,0,0,0,0,0,0,0,0,0,0,0,0,0,0],"split_type":[0,0,0,0,0,0,0,0,0,0,0,0,0,0,0,0,0,0,0,0,0,0,0,0,0,0,0,0,0,0,0],"sum_hessian":[4.161E3,2.311E3,1.85E3,1.605E3,7.06E2,1.546E3,3.04E2,1.097E3,5.08E2,5.35E2,1.71E2,1.18E3,3.66E2,2.06E2,9.8E1,8.42E2,2.55E2,4.15E2,9.3E1,3E1,5.05E2,1.52E2,1.9E1,2.78E2,9.02E2,3.63E2,3E0,2.9E1,1.77E2,8.5E1,1.3E1],"tree_param":{"num_deleted":"0","num_feature":"7","num_nodes":"31","size_leaf_vector":"1"}},{"base_weights":[-4.6600857E-5,-3.9750602E-2,4.9513936E-2,-5.5927377E-2,-1.6808944E-2,3.0318024E-2,8.851491E-2,-7.151493E-2,-5.224476E-2,-2.982648E-2,-5.6437347E-3,2.915317E-2,7.98586E-3,8.040335E-2,1.4383024E-1,-2.6490502E-3,-1.995214E-3,-1.4071346E-3,-2.0222312E-3,3.779262E-4,-9.848592E-4,-1.1318735E-4,-1.7220427E-3,3.767609E-4,1.220252E-3,2.4737744E-3,-6.4089703E-3,3.769516E-3,5.7813893E-3],"categories":[],"categories_nodes":[],"categories_segments":[],"categories_sizes":[],"default_left":[0,0,0,0,0,0,0,0,0,0,0,0,0,0,0,0,0,0,0,0,0,0,0,0,0,0,0,0,0],"id":38,"left_children":[1,3,5,7,9,11,13,15,17,19,21,23,-1,25,27,-1,-1,-1,-1,-1,-1,-1,-1,-1,-1,-1,-1,-1,-1],"loss_changes":[8.2153635E0,8.5932064E-1,1.3875766E0,7.427406E-2,1.3936144E-1,3.3459342E-1,2.6303577E-1,1.573193E-2,8.615279E-2,5.683565E-2,4.9941093E-2,2.3676813E-1,0E0,3.4161592E-1,4.4213295E-2,0E0,0E0,0E0,0E0,0E0,0E0,0E0,0E0,0E0,0E0,0E0,0E0,0E0,0E0],"parents":[2147483647,0,0,1,1,2,2,3,3,4,4,5,5,6,6,7,7,8,8,9,9,10,10,11,11,13,13,14,14],"right_children":[2,4,6,8,10,12,14,16,18,20,22,24,-1,26,28,-1,-1,-1,-1,-1,-1,-1,-1,-1,-1,-1,-1,-1,-1],"split_conditions":[2.576914E-1,1.0837048E-1,4.4553456E-1,3.811916E-2,1.696708E-1,7.3409975E-1,6.754832E-1,2.6130425E-2,1.6942503E-1,9.331944E-2,4.414105E-1,3.2251608E-1,7.98586E-3,8.0888313E-1,7.693139E-1,-2.6490502E-3,-1.995214E-3,-1.4071346E-3,-2.0222312E-3,3.779262E-4,-9.848592E-4,-1.1318735E-4,-1.7220427E-3,3.767609E-4,1.220252E-3,2.4737744E-3,-6.4089703E-3,3.769516E-3,5.7813893E-3],"split_indices":[6,6,5,3,5,6,5,3,1,3,3,6,0,1,3,0,0,0,0,0,0,0,0,0,0,0,0,0,0],"split_type":[0,0,0,0,0,0,0,0,0,0,0,0,0,0,0,0,0,0,0,0,0,0,0,0,0,0,0,0,0],"sum_hessian":[4.173E3,2.317E3,1.856E3,1.358E3,9.59E2,1.245E3,6.11E2,2.56E2,1.102E3,4.42E2,5.17E2,1.24E3,5E0,5.35E2,7.6E1,5.5E1,2.01E2,8.18E2,2.84E2,2.9E1,4.13E2,5E2,1.7E1,5.09E2,7.31E2,5.32E2,3E0,5.8E1,1.8E1],"tree_param":{"num_deleted":"0","num_feature":"7","num_nodes":"29","size_leaf_vector":"1"}},{"base_weights":[1.0606814E-3,-3.7657253E-2,4.947353E-2,-5.3622786E-2,-1.3481608E-2,2.9086042E-2,8.875233E-2,-5.6865837E-2,-3.9752737E-2,-2.4553481E-2,1.2775906E-3,2.2636883E-2,7.3525034E-2,8.035725E-2,1.5450498E-1,-1.5770864E-3,-2.026658E-3,4.9744215E-4,-1.275693E-3,-9.314239E-4,-5.4565107E-4,-1.245958E-4,5.5646786E-4,7.2883203E-4,-2.1985073E-3,5.127154E-3,1.7718229E-3,3.7182535E-3,2.2032522E-3,2.2037453E-3,5.5825845E-3],"categories":[],"categories_nodes":[],"categories_segments":[],"categories_sizes":[],"default_left":[0,0,0,0,0,0,0,0,0,0,0,0,0,0,0,0,0,0,0,0,0,0,0,0,0,0,0,0,0,0,0],"id":39,"left_children":[1,3,5,7,9,11,13,15,17,19,21,23,25,27,29,-1,-1,-1,-1,-1,-1,-1,-1,-1,-1,-1,-1,-1,-1,-1,-1],"loss_changes":[7.647727E0,8.742869E-1,1.4492612E0,5.9138775E-2,1.4759241E-1,3.4081566E-1,3.292718E-1,4.714966E-2,4.1594386E-2,2.0764083E-2,3.6470238E-2,1.6792506E-1,2.0259446E-1,1.5697384E-1,1.6293967E-1,0E0,0E0,0E0,0E0,0E0,0E0,0E0,0E0,0E0,0E0,0E0,0E0,0E0,0E0,0E0,0E0],"parents":[2147483647,0,0,1,1,2,2,3,3,4,4,5,5,6,6,7,7,8,8,9,9,10,10,11,11,12,12,13,13,14,14],"right_children":[2,4,6,8,10,12,14,16,18,20,22,24,26,28,30,-1,-1,-1,-1,-1,-1,-1,-1,-1,-1,-1,-1,-1,-1,-1,-1],"split_conditions":[2.576914E-1,1.1449019E-1,4.414105E-1,8.477642E-2,1.9035494E-1,4.681996E-1,6.5084714E-1,1.1819151E-1,8.600036E-2,1.4939465E-1,2.9370186E-1,5.402008E-1,1.4222305E-1,2.6530048E-1,5.8168703E-1,-1.5770864E-3,-2.026658E-3,4.9744215E-4,-1.275693E-3,-9.314239E-4,-5.4565107E-4,-1.245958E-4,5.5646786E-4,7.2883203E-4,-2.1985073E-3,5.127154E-3,1.7718229E-3,3.7182535E-3,2.2032522E-3,2.2037453E-3,5.5825845E-3],"split_indices":[6,6,5,6,6,6,0,0,6,5,5,0,5,2,6,0,0,0,0,0,0,0,0,0,0,0,0,0,0,0,0],"split_type":[0,0,0,0,0,0,0,0,0,0,0,0,0,0,0,0,0,0,0,0,0,0,0,0,0,0,0,0,0,0,0],"sum_hessian":[4.078E3,2.266E3,1.812E3,1.364E3,9.02E2,1.194E3,6.18E2,1.103E3,2.61E2,5.15E2,3.87E2,1.044E3,1.5E2,5.5E2,6.8E1,7.91E2,3.12E2,1.2E1,2.49E2,2.53E2,2.62E2,2.95E2,9.2E1,1.027E3,1.7E1,1.8E1,1.32E2,7.3E1,4.77E2,2E1,4.8E1],"tree_param":{"num_deleted":"0","num_feature":"7","num_nodes":"31","size_leaf_vector":"1"}},{"base_weights":[-1.3193414E-4,-3.0639105E-2,4.2430565E-2,-4.489138E-2,-1.04308585E-2,3.213363E-2,9.773415E-2,-6.3716546E-2,-4.1293573E-2,-1.6992254E-2,4.6296182E-4,1.9876353E-2,5.1964078E-2,8.511972E-2,1.4486985E-1,-1.1124966E-3,-1.9511016E-3,-1.1196476E-3,-1.6315171E-3,-4.0220498E-4,-1.2946314E-3,6.4022366E-5,-2.0486987E-3,1.4948464E-3,4.330974E-4,2.9148199E-3,1.3460332E-3,5.1066545E-3,2.2393656E-3,5.0727967E-3,2.3805574E-3],"categories":[],"categories_nodes":[],"categories_segments":[],"categories_sizes":[],"default_left":[0,0,0,0,0,0,0,0,0,0,0,0,0,0,0,0,0,0,0,0,0,0,0,0,0,0,0,0,0,0,0],"id":40,"left_children":[1,3,5,7,9,11,13,15,17,19,21,23,25,27,29,-1,-1,-1,-1,-1,-1,-1,-1,-1,-1,-1,-1,-1,-1,-1,-1],"loss_changes":[5.399004E0,6.971004E-1,9.8543715E-1,9.354448E-2,7.170097E-2,3.5506082E-1,1.4939713E-1,5.5345297E-3,6.0103893E-2,5.8141634E-2,4.3575734E-2,1.4705935E-1,1.7492795E-1,1.8072224E-1,7.545781E-2,0E0,0E0,0E0,0E0,0E0,0E0,0E0,0E0,0E0,0E0,0E0,0E0,0E0,0E0,0E0,0E0],"parents":[2147483647,0,0,1,1,2,2,3,3,4,4,5,5,6,6,7,7,8,8,9,9,10,10,11,11,12,12,13,13,14,14],"right_children":[2,4,6,8,10,12,14,16,18,20,22,24,26,28,30,-1,-1,-1,-1,-1,-1,-1,-1,-1,-1,-1,-1,-1,-1,-1,-1],"split_conditions":[2.6889366E-1,1.16215505E-1,5.402008E-1,3.6113665E-2,2.1019852E-1,4.0020445E-1,6.754832E-1,2.138212E-2,1.2721623E-1,2.9162264E-1,4.501305E-1,2.0734265E-1,2.3286848E-1,2.4301885E-1,8.0888313E-1,-1.1124966E-3,-1.9511016E-3,-1.1196476E-3,-1.6315171E-3,-4.0220498E-4,-1.2946314E-3,6.4022366E-5,-2.0486987E-3,1.4948464E-3,4.330974E-4,2.9148199E-3,1.3460332E-3,5.1066545E-3,2.2393656E-3,5.0727967E-3,2.3805574E-3],"split_indices":[5,5,4,3,5,5,2,1,1,1,2,2,2,2,2,0,0,0,0,0,0,0,0,0,0,0,0,0,0,0,0],"split_type":[0,0,0,0,0,0,0,0,0,0,0,0,0,0,0,0,0,0,0,0,0,0,0,0,0,0,0,0,0,0,0],"sum_hessian":[4.156E3,2.421E3,1.735E3,1.419E3,1.002E3,1.464E3,2.71E2,2.25E2,1.194E3,6.25E2,3.77E2,9.06E2,5.58E2,2.16E2,5.5E1,1.2E1,2.13E2,9.19E2,2.75E2,5.51E2,7.4E1,3.69E2,8E0,1.38E2,7.68E2,7.4E1,4.84E2,2.2E1,1.94E2,3.9E1,1.6E1],"tree_param":{"num_deleted":"0","num_feature":"7","num_nodes":"31","size_leaf_vector":"1"}},{"base_weights":[5.621125E-5,-4.041647E-2,4.024115E-2,-5.1954597E-2,-2.057594E-2,2.4884723E-2,8.585868E-2,-6.805182E-2,-4.8144206E-2,-2.8655889E-2,-9.492658E-3,1.2422254E-2,4.8071306E-2,7.606567E-2,1.4092676E-1,-2.4831782E-3,-1.960917E-3,-1.3028781E-3,-1.838865E-3,2.973612E-4,-9.3201076E-4,-2.0050841E-4,-1.6403093E-3,-5.6812936E-5,6.5492996E-4,1.3743674E-3,6.5223183E-3,2.1642365E-3,4.0593855E-3,3.4204812E-3,4.9294294E-3],"categories":[],"categories_nodes":[],"categories_segments":[],"categories_sizes":[],"default_left":[0,0,0,0,0,0,0,0,0,0,0,0,0,0,0,0,0,0,0,0,0,0,0,0,0,0,0,0,0,0,0],"id":41,"left_children":[1,3,5,7,9,11,13,15,17,19,21,23,25,27,29,-1,-1,-1,-1,-1,-1,-1,-1,-1,-1,-1,-1,-1,-1,-1,-1],"loss_changes":[6.8389797E0,4.785235E-1,1.4759655E0,7.793355E-2,6.886241E-2,4.5596296E-1,2.7563977E-1,4.5212507E-3,6.3934326E-2,4.1782647E-2,4.1138962E-2,1.3864325E-1,2.012062E-1,9.556651E-2,3.0986309E-2,0E0,0E0,0E0,0E0,0E0,0E0,0E0,0E0,0E0,0E0,0E0,0E0,0E0,0E0,0E0,0E0],"parents":[2147483647,0,0,1,1,2,2,3,3,4,4,5,5,6,6,7,7,8,8,9,9,10,10,11,11,12,12,13,13,14,14],"right_children":[2,4,6,8,10,12,14,16,18,20,22,24,26,28,30,-1,-1,-1,-1,-1,-1,-1,-1,-1,-1,-1,-1,-1,-1,-1,-1],"split_conditions":[2.1722758E-1,1.04531534E-1,4.6551085E-1,3.811916E-2,1.6455875E-1,3.6375165E-1,6.754832E-1,2.4105268E-2,1.6942503E-1,9.331944E-2,4.5352703E-1,2.7331755E-1,7.3409975E-1,7.053592E-1,7.053592E-1,-2.4831782E-3,-1.960917E-3,-1.3028781E-3,-1.838865E-3,2.973612E-4,-9.3201076E-4,-2.0050841E-4,-1.6403093E-3,-5.6812936E-5,6.5492996E-4,1.3743674E-3,6.5223183E-3,2.1642365E-3,4.0593855E-3,3.4204812E-3,4.9294294E-3],"split_indices":[6,6,5,3,5,6,5,1,1,3,3,5,6,3,4,0,0,0,0,0,0,0,0,0,0,0,0,0,0,0,0],"split_type":[0,0,0,0,0,0,0,0,0,0,0,0,0,0,0,0,0,0,0,0,0,0,0,0,0,0,0,0,0,0,0],"sum_hessian":[4.203E3,2.094E3,2.109E3,1.323E3,7.71E2,1.579E3,5.3E2,2.5E2,1.073E3,4.45E2,3.26E2,1.028E3,5.51E2,4.52E2,7.8E1,3.4E1,2.16E2,7.93E2,2.8E2,2.6E1,4.19E2,3.08E2,1.8E1,4.08E2,6.2E2,5.45E2,6E0,4.26E2,2.6E1,3.9E1,3.9E1],"tree_param":{"num_deleted":"0","num_feature":"7","num_nodes":"31","size_leaf_vector":"1"}},{"base_weights":[1.3487011E-3,-3.1004196E-2,5.416974E-2,-4.7478568E-2,-4.400138E-3,4.194704E-2,1.09995425E-1,-5.4743275E-2,-3.8604166E-2,-1.2622432E-2,1.3512703E-2,2.5725769E-2,6.0061168E-2,9.195981E-2,1.344354E-1,-1.5215845E-3,-1.9543406E-3,-1.5067343E-3,-1.0116256E-3,-2.740452E-4,-8.929832E-4,2.07729E-4,9.200786E-4,5.9914414E-4,2.090591E-3,1.7179736E-3,5.533757E-3,4.1507324E-3,2.4943065E-3,4.271384E-3,1.3265306E-3],"categories":[],"categories_nodes":[],"categories_segments":[],"categories_sizes":[],"default_left":[0,0,0,0,0,0,0,0,0,0,0,0,0,0,0,0,0,0,0,0,0,0,0,0,0,0,0,0,0,0,0],"id":42,"left_children":[1,3,5,7,9,11,13,15,17,19,21,23,25,27,29,-1,-1,-1,-1,-1,-1,-1,-1,-1,-1,-1,-1,-1,-1,-1,-1],"loss_changes":[7.1039248E0,1.1296899E0,1.0728016E0,1.0052276E-1,1.455405E-1,3.7955785E-1,1.1238074E-1,3.3233643E-2,3.916323E-2,4.0206015E-2,3.4941364E-2,1.7214051E-1,2.0225239E-1,5.6399703E-2,7.827449E-2,0E0,0E0,0E0,0E0,0E0,0E0,0E0,0E0,0E0,0E0,0E0,0E0,0E0,0E0,0E0,0E0],"parents":[2147483647,0,0,1,1,2,2,3,3,4,4,5,5,6,6,7,7,8,8,9,9,10,10,11,11,12,12,13,13,14,14],"right_children":[2,4,6,8,10,12,14,16,18,20,22,24,26,28,30,-1,-1,-1,-1,-1,-1,-1,-1,-1,-1,-1,-1,-1,-1,-1,-1],"split_conditions":[2.917799E-1,1.3977516E-1,5.402008E-1,6.564557E-2,2.7151358E-1,3.9255112E-1,5.957157E-1,6.6736795E-2,8.917081E-2,2.885308E-1,3.2249153E-1,4.3438634E-1,7.3409975E-1,3.008243E-1,8.0888313E-1,-1.5215845E-3,-1.9543406E-3,-1.5067343E-3,-1.0116256E-3,-2.740452E-4,-8.929832E-4,2.07729E-4,9.200786E-4,5.9914414E-4,2.090591E-3,1.7179736E-3,5.533757E-3,4.1507324E-3,2.4943065E-3,4.271384E-3,1.3265306E-3],"split_indices":[6,6,4,6,5,6,5,1,0,1,1,4,6,1,1,0,0,0,0,0,0,0,0,0,0,0,0,0,0,0,0],"split_type":[0,0,0,0,0,0,0,0,0,0,0,0,0,0,0,0,0,0,0,0,0,0,0,0,0,0,0,0,0,0,0],"sum_hessian":[4.155E3,2.577E3,1.578E3,1.591E3,9.86E2,1.296E3,2.82E2,8.72E2,7.19E2,6.76E2,3.1E2,6.85E2,6.11E2,1.65E2,1.17E2,6.33E2,2.39E2,2.1E2,5.09E2,5.63E2,1.13E2,2.25E2,8.5E1,6.07E2,7.8E1,5.99E2,1.2E1,2.4E1,1.41E2,1.07E2,1E1],"tree_param":{"num_deleted":"0","num_feature":"7","num_nodes":"31","size_leaf_vector":"1"}},{"base_weights":[4.337958E-6,-3.099688E-2,3.9978236E-2,-4.3680325E-2,-1.4024905E-2,1.8003395E-2,6.56511E-2,-5.8970213E-2,-4.0354192E-2,4.628511E-2,-1.5305565E-2,4.8366528E-2,1.2293021E-2,5.6899946E-2,1.3224171E-1,-1.4537558E-3,-1.9467896E-3,1.6610888E-3,-1.243887E-3,2.8829605E-4,3.5478824E-3,-7.81883E-4,-2.9586424E-4,8.4727904E-4,2.3575267E-3,4.488491E-5,8.9810806E-4,2.975438E-3,1.554736E-3,2.2500153E-3,4.606604E-3],"categories":[],"categories_nodes":[],"categories_segments":[],"categories_sizes":[],"default_left":[0,0,0,0,0,0,0,0,0,0,0,0,0,0,0,0,0,0,0,0,0,0,0,0,0,0,0,0,0,0,0],"id":43,"left_children":[1,3,5,7,9,11,13,15,17,19,21,23,25,27,29,-1,-1,-1,-1,-1,-1,-1,-1,-1,-1,-1,-1,-1,-1,-1,-1],"loss_changes":[5.126734E0,5.009506E-1,1.0182495E0,6.5411806E-2,7.779056E-2,1.6845563E-1,4.779017E-1,1.154834E-2,1.1882615E-1,5.429925E-2,5.7010755E-2,9.1427624E-2,1.5654525E-1,1.532309E-1,1.0559487E-1,0E0,0E0,0E0,0E0,0E0,0E0,0E0,0E0,0E0,0E0,0E0,0E0,0E0,0E0,0E0,0E0],"parents":[2147483647,0,0,1,1,2,2,3,3,4,4,5,5,6,6,7,7,8,8,9,9,10,10,11,11,12,12,13,13,14,14],"right_children":[2,4,6,8,10,12,14,16,18,20,22,24,26,28,30,-1,-1,-1,-1,-1,-1,-1,-1,-1,-1,-1,-1,-1,-1,-1,-1],"split_conditions":[2.5929877E-1,1.0822793E-1,3.9592803E-1,3.7421167E-2,8.252024E-2,2.0734265E-1,6.5084714E-1,2.9954629E-2,3.811916E-2,6.34926E-2,1.4939465E-1,3.071652E-1,3.466951E-1,2.5522384E-1,6.1997825E-1,-1.4537558E-3,-1.9467896E-3,1.6610888E-3,-1.243887E-3,2.8829605E-4,3.5478824E-3,-7.81883E-4,-2.9586424E-4,8.4727904E-4,2.3575267E-3,4.488491E-5,8.9810806E-4,2.975438E-3,1.554736E-3,2.2500153E-3,4.606604E-3],"split_indices":[5,5,5,2,4,2,4,5,2,4,5,4,2,3,5,0,0,0,0,0,0,0,0,0,0,0,0,0,0,0,0],"split_type":[0,0,0,0,0,0,0,0,0,0,0,0,0,0,0,0,0,0,0,0,0,0,0,0,0,0,0,0,0,0,0],"sum_hessian":[4.135E3,2.329E3,1.806E3,1.332E3,9.97E2,9.74E2,8.32E2,2.35E2,1.097E3,2E1,9.77E2,1.53E2,8.21E2,7.37E2,9.5E1,8.8E1,1.47E2,1.2E1,1.085E3,1.4E1,6E0,3.27E2,6.5E2,9.3E1,6E1,5.1E2,3.11E2,7.7E1,6.6E2,2.7E1,6.8E1],"tree_param":{"num_deleted":"0","num_feature":"7","num_nodes":"31","size_leaf_vector":"1"}},{"base_weights":[2.4087312E-4,-3.071926E-2,4.5357767E-2,-4.6699554E-2,-9.900824E-3,2.4853714E-2,7.068049E-2,-6.186474E-2,-4.235343E-2,-1.6903967E-2,1.0652457E-2,2.0836562E-2,6.018812E-2,6.356732E-2,1.2330693E-1,-1.5082242E-3,-1.9990494E-3,3.0285018E-3,-1.2814385E-3,3.9924766E-4,-5.533888E-4,4.2997338E-4,-1.2499093E-3,1.3420734E-3,4.295985E-4,-4.1479287E-3,1.9142617E-3,1.6857471E-3,3.049665E-3,4.0081493E-3,8.886517E-4],"categories":[],"categories_nodes":[],"categories_segments":[],"categories_sizes":[],"default_left":[0,0,0,0,0,0,0,0,0,0,0,0,0,0,0,0,0,0,0,0,0,0,0,0,0,0,0,0,0,0,0],"id":44,"left_children":[1,3,5,7,9,11,13,15,17,19,21,23,25,27,29,-1,-1,-1,-1,-1,-1,-1,-1,-1,-1,-1,-1,-1,-1,-1,-1],"loss_changes":[5.742345E0,8.1062293E-1,8.668957E-1,8.826923E-2,1.5275384E-1,1.3018566E-1,2.7216864E-1,1.3513446E-2,5.9953928E-2,3.7103847E-2,5.2578267E-2,1.2909245E-1,7.6363236E-2,1.7998171E-1,8.094263E-2,0E0,0E0,0E0,0E0,0E0,0E0,0E0,0E0,0E0,0E0,0E0,0E0,0E0,0E0,0E0,0E0],"parents":[2147483647,0,0,1,1,2,2,3,3,4,4,5,5,6,6,7,7,8,8,9,9,10,10,11,11,12,12,13,13,14,14],"right_children":[2,4,6,8,10,12,14,16,18,20,22,24,26,28,30,-1,-1,-1,-1,-1,-1,-1,-1,-1,-1,-1,-1,-1,-1,-1,-1],"split_conditions":[2.7946675E-1,1.1449019E-1,4.1740355E-1,3.8664773E-2,2.6318192E-1,4.6551085E-1,6.754832E-1,2.9035443E-2,2.6130425E-2,9.6942104E-2,4.291465E-1,1.862948E-1,5.2093726E-2,5.8892745E-1,8.0888313E-1,-1.5082242E-3,-1.9990494E-3,3.0285018E-3,-1.2814385E-3,3.9924766E-4,-5.533888E-4,4.2997338E-4,-1.2499093E-3,1.3420734E-3,4.295985E-4,-4.1479287E-3,1.9142617E-3,1.6857471E-3,3.049665E-3,4.0081493E-3,8.886517E-4],"split_indices":[6,6,6,6,5,3,6,6,5,4,3,2,2,2,2,0,0,0,0,0,0,0,0,0,0,0,0,0,0,0,0],"split_type":[0,0,0,0,0,0,0,0,0,0,0,0,0,0,0,0,0,0,0,0,0,0,0,0,0,0,0,0,0,0,0],"sum_hessian":[4.109E3,2.437E3,1.672E3,1.378E3,1.059E3,9.25E2,7.47E2,3.04E2,1.074E3,7.9E2,2.69E2,8.32E2,9.3E1,6.6E2,8.7E1,9.2E1,2.12E2,2E0,1.072E3,3.8E1,7.52E2,2.52E2,1.7E1,1.77E2,6.55E2,1E0,9.2E1,5.55E2,1.05E2,7.8E1,9E0],"tree_param":{"num_deleted":"0","num_feature":"7","num_nodes":"31","size_leaf_vector":"1"}},{"base_weights":[-8.1038265E-4,-3.3641532E-2,4.1832406E-2,-4.381096E-2,-8.068873E-3,3.340023E-2,1.05115056E-1,-5.099855E-2,-3.5754573E-2,-1.2639187E-2,5.1075164E-3,2.051617E-2,5.5934176E-2,8.877563E-2,1.4798938E-1,-1.4183745E-3,-1.8222404E-3,-1.0350316E-3,-1.8838946E-3,3.2167038E-4,-5.144019E-4,1.5727187E-3,1.8347355E-5,3.980099E-4,1.0966626E-3,1.503761E-3,2.796871E-3,4.3155453E-3,2.2996168E-3,4.998058E-3,9.0633024E-4],"categories":[],"categories_nodes":[],"categories_segments":[],"categories_sizes":[],"default_left":[0,0,0,0,0,0,0,0,0,0,0,0,0,0,0,0,0,0,0,0,0,0,0,0,0,0,0,0,0,0,0],"id":45,"left_children":[1,3,5,7,9,11,13,15,17,19,21,23,25,27,29,-1,-1,-1,-1,-1,-1,-1,-1,-1,-1,-1,-1,-1,-1,-1,-1],"loss_changes":[5.8156557E0,6.1000586E-1,9.607234E-1,9.540057E-2,4.0351897E-2,4.622171E-1,1.3537693E-1,2.9198408E-2,2.4782062E-2,5.2519485E-2,3.6770537E-2,1.1776292E-1,1.2097728E-1,9.312129E-2,1.1991978E-1,0E0,0E0,0E0,0E0,0E0,0E0,0E0,0E0,0E0,0E0,0E0,0E0,0E0,0E0,0E0,0E0],"parents":[2147483647,0,0,1,1,2,2,3,3,4,4,5,5,6,6,7,7,8,8,9,9,10,10,11,11,12,12,13,13,14,14],"right_children":[2,4,6,8,10,12,14,16,18,20,22,24,26,28,30,-1,-1,-1,-1,-1,-1,-1,-1,-1,-1,-1,-1,-1,-1,-1,-1],"split_conditions":[2.576914E-1,1.4939465E-1,5.8168703E-1,6.61666E-2,2.6530048E-1,4.0020445E-1,7.3409975E-1,1.8603428E-1,3.7882724E-1,1.3936226E-1,2.7128747E-1,3.700483E-1,5.8168703E-1,1.6162917E-1,8.0888313E-1,-1.4183745E-3,-1.8222404E-3,-1.0350316E-3,-1.8838946E-3,3.2167038E-4,-5.144019E-4,1.5727187E-3,1.8347355E-5,3.980099E-4,1.0966626E-3,1.503761E-3,2.796871E-3,4.3155453E-3,2.2996168E-3,4.998058E-3,9.0633024E-4],"split_indices":[6,6,6,6,2,4,6,0,4,2,2,6,2,2,2,0,0,0,0,0,0,0,0,0,0,0,0,0,0,0,0],"split_type":[0,0,0,0,0,0,0,0,0,0,0,0,0,0,0,0,0,0,0,0,0,0,0,0,0,0,0,0,0,0,0],"sum_hessian":[4.152E3,2.346E3,1.806E3,1.678E3,6.68E2,1.595E3,2.11E2,8.84E2,7.94E2,4.96E2,1.72E2,1.016E3,5.79E2,1.55E2,5.6E1,6.44E2,2.4E2,7.61E2,3.3E1,8E1,4.16E2,1.4E1,1.58E2,7.01E2,3.15E2,5.03E2,7.6E1,2.6E1,1.29E2,4.8E1,8E0],"tree_param":{"num_deleted":"0","num_feature":"7","num_nodes":"31","size_leaf_vector":"1"}},{"base_weights":[3.8346226E-4,-2.5430985E-2,3.726745E-2,-3.808982E-2,-1.0557876E-2,2.0209448E-2,6.472631E-2,-4.371428E-2,-3.0738456E-2,-7.0264116E-3,-3.0639376E-2,5.074217E-2,1.478307E-2,5.746837E-2,1.150966E-1,-1.3267341E-3,1.2344618E-3,5.628877E-4,-1.0393504E-3,-4.0402167E-4,1.6860745E-4,-8.72071E-4,-3.23526E-3,8.472651E-4,2.0119688E-3,1.6499643E-4,1.1713769E-3,1.466688E-3,2.5496967E-3,2.7707461E-3,4.4321744E-3],"categories":[],"categories_nodes":[],"categories_segments":[],"categories_sizes":[],"default_left":[0,0,0,0,0,0,0,0,0,0,0,0,0,0,0,0,0,0,0,0,0,0,0,0,0,0,0,0,0,0,0],"id":46,"left_children":[1,3,5,7,9,11,13,15,17,19,21,23,25,27,29,-1,-1,-1,-1,-1,-1,-1,-1,-1,-1,-1,-1,-1,-1,-1,-1],"loss_changes":[3.9799397E0,4.6256912E-1,8.0479693E-1,5.356586E-2,8.0062866E-2,1.7536986E-1,2.3430586E-1,3.4291863E-2,1.12617016E-1,7.86001E-2,1.7353788E-2,5.687037E-2,2.0339896E-1,1.3231099E-1,4.721868E-2,0E0,0E0,0E0,0E0,0E0,0E0,0E0,0E0,0E0,0E0,0E0,0E0,0E0,0E0,0E0,0E0],"parents":[2147483647,0,0,1,1,2,2,3,3,4,4,5,5,6,6,7,7,8,8,9,9,10,10,11,11,12,12,13,13,14,14],"right_children":[2,4,6,8,10,12,14,16,18,20,22,24,26,28,30,-1,-1,-1,-1,-1,-1,-1,-1,-1,-1,-1,-1,-1,-1,-1,-1],"split_conditions":[2.749888E-1,1.0822793E-1,4.414105E-1,6.00813E-2,3.151233E-1,2.0057903E-1,6.754832E-1,5.6608546E-1,