{"learner":{"attributes":{"scikit_learn":"{\"_estimator_type\": \"regressor\"}"},"feature_names":[],"feature_types":[],"gradient_booster":{"model":{"gbtree_model_param":{"num_parallel_tree":"1","num_trees":"600"},"iteration_indptr":[0,1,2,3,4,5,6,7,8,9,10,11,12,13,14,15,16,17,18,19,20,21,22,23,24,25,26,27,28,29,30,31,32,33,34,35,36,37,38,39,40,41,42,43,44,45,46,47,48,49,50,51,52,53,54,55,56,57,58,59,60,61,62,63,64,65,66,67,68,69,70,71,72,73,74,75,76,77,78,79,80,81,82,83,84,85,86,87,88,89,90,91,92,93,94,95,96,97,98,99,100,101,102,103,104,105,106,107,108,109,110,111,112,113,114,115,116,117,118,119,120,121,122,123,124,125,126,127,128,129,130,131,132,133,134,135,136,137,138,139,140,141,142,143,144,145,146,147,148,149,150,151,152,153,154,155,156,157,158,159,160,161,162,163,164,165,166,167,168,169,170,171,172,173,174,175,176,177,178,179,180,181,182,183,184,185,186,187,188,189,190,191,192,193,194,195,196,197,198,199,200,201,202,203,204,205,206,207,208,209,210,211,212,213,214,215,216,217,218,219,220,221,222,223,224,225,226,227,228,229,230,231,232,233,234,235,236,237,238,239,240,241,242,243,244,245,246,247,248,249,250,251,252,253,254,255,256,257,258,259,260,261,262,263,264,265,266,267,268,269,270,271,272,273,274,275,276,277,278,279,280,281,282,283,284,285,286,287,288,289,290,291,292,293,294,295,296,297,298,299,300,301,302,303,304,305,306,307,308,309,310,311,312,313,314,315,316,317,318,319,320,321,322,323,324,325,326,327,328,329,330,331,332,333,334,335,336,337,338,339,340,341,342,343,344,345,346,347,348,349,350,351,352,353,354,355,356,357,358,359,360,361,362,363,364,365,366,367,368,369,370,371,372,373,374,375,376,377,378,379,380,381,382,383,384,385,386,387,388,389,390,391,392,393,394,395,396,397,398,399,400,401,402,403,404,405,406,407,408,409,410,411,412,413,414,415,416,417,418,419,420,421,422,423,424,425,426,427,428,429,430,431,432,433,434,435,436,437,438,439,440,441,442,443,444,445,446,447,448,449,450,451,452,453,454,455,456,457,458,459,460,461,462,463,464,465,466,467,468,469,470,471,472,473,474,475,476,477,478,479,480,481,482,483,484,485,486,487,488,489,490,491,492,493,494,495,496,497,498,499,500,501,502,503,504,505,506,507,508,509,510,511,512,513,514,515,516,517,518,519,520,521,522,523,524,525,526,527,528,529,530,531,532,533,534,535,536,537,538,539,540,541,542,543,544,545,546,547,548,549,550,551,552,553,554,555,556,557,558,559,560,561,562,563,564,565,566,567,568,569,570,571,572,573,574,575,576,577,578,579,580,581,582,583,584,585,586,587,588,589,590,591,592,593,594,595,596,597,598,599,600],"tree_info":[0,0,0,0,0,0,0,0,0,0,0,0,0,0,0,0,0,0,0,0,0,0,0,0,0,0,0,0,0,0,0,0,0,0,0,0,0,0,0,0,0,0,0,0,0,0,0,0,0,0,0,0,0,0,0,0,0,0,0,0,0,0,0,0,0,0,0,0,0,0,0,0,0,0,0,0,0,0,0,0,0,0,0,0,0,0,0,0,0,0,0,0,0,0,0,0,0,0,0,0,0,0,0,0,0,0,0,0,0,0,0,0,0,0,0,0,0,0,0,0,0,0,0,0,0,0,0,0,0,0,0,0,0,0,0,0,0,0,0,0,0,0,0,0,0,0,0,0,0,0,0,0,0,0,0,0,0,0,0,0,0,0,0,0,0,0,0,0,0,0,0,0,0,0,0,0,0,0,0,0,0,0,0,0,0,0,0,0,0,0,0,0,0,0,0,0,0,0,0,0,0,0,0,0,0,0,0,0,0,0,0,0,0,0,0,0,0,0,0,0,0,0,0,0,0,0,0,0,0,0,0,0,0,0,0,0,0,0,0,0,0,0,0,0,0,0,0,0,0,0,0,0,0,0,0,0,0,0,0,0,0,0,0,0,0,0,0,0,0,0,0,0,0,0,0,0,0,0,0,0,0,0,0,0,0,0,0,0,0,0,0,0,0,0,0,0,0,0,0,0,0,0,0,0,0,0,0,0,0,0,0,0,0,0,0,0,0,0,0,0,0,0,0,0,0,0,0,0,0,0,0,0,0,0,0,0,0,0,0,0,0,0,0,0,0,0,0,0,0,0,0,0,0,0,0,0,0,0,0,0,0,0,0,0,0,0,0,0,0,0,0,0,0,0,0,0,0,0,0,0,0,0,0,0,0,0,0,0,0,0,0,0,0,0,0,0,0,0,0,0,0,0,0,0,0,0,0,0,0,0,0,0,0,0,0,0,0,0,0,0,0,0,0,0,0,0,0,0,0,0,0,0,0,0,0,0,0,0,0,0,0,0,0,0,0,0,0,0,0,0,0,0,0,0,0,0,0,0,0,0,0,0,0,0,0,0,0,0,0,0,0,0,0,0,0,0,0,0,0,0,0,0,0,0,0,0,0,0,0,0,0,0,0,0,0,0,0,0,0,0,0,0,0,0,0,0,0,0,0,0,0,0,0,0,0,0,0,0,0,0,0,0,0,0,0,0,0,0,0,0,0,0,0,0,0,0,0,0,0,0,0,0,0,0,0,0,0,0,0,0,0,0,0,0,0,0,0,0,0,0,0,0,0,0,0,0,0,0,0,0,0,0,0,0,0,0,0,0,0,0,0,0,0,0,0,0,0,0,0,0,0,0,0,0,0,0,0,0,0,0],"trees":[{"base_weights":[2.6239755E-3,-1.21953286E-1,1.2353595E-1,-1.5532003E-1,-6.081217E-2,6.1119385E-2,2.2717117E-1,-1.706229E-1,-1.3480482E-1,-8.903588E-2,-3.7728373E-2,3.6248695E-2,1.01166256E-1,1.9221449E-1,3.3177525E-1,-4.929504E-3,-5.872752E-3,-3.895038E-3,-4.6191057E-3,-1.0483437E-3,-2.838615E-3,-1.5368799E-3,-7.9008366E-4,6.420794E-4,1.890005E-3,2.5863624E-3,4.3463684E-3,4.2348593E-3,6.4295065E-3,8.747562E-3,1.2322162E-2],"categories":[],"categories_nodes":[],"categories_segments":[],"categories_sizes":[],"default_left":[0,0,0,0,0,0,0,0,0,0,0,0,0,0,0,0,0,0,0,0,0,0,0,0,0,0,0,0,0,0,0],"id":0,"left_children":[1,3,5,7,9,11,13,15,17,19,21,23,25,27,29,-1,-1,-1,-1,-1,-1,-1,-1,-1,-1,-1,-1,-1,-1,-1,-1],"loss_changes":[6.257122E1,4.164562E0,1.3621826E1,3.9234543E-1,4.6833467E-1,1.3080559E0,2.8322601E0,8.734703E-2,3.430462E-2,9.486866E-2,6.0173333E-2,3.2193458E-1,3.1696844E-1,6.422653E-1,5.054226E-1,0E0,0E0,0E0,0E0,0E0,0E0,0E0,0E0,0E0,0E0,0E0,0E0,0E0,0E0,0E0,0E0],"parents":[2147483647,0,0,1,1,2,2,3,3,4,4,5,5,6,6,7,7,8,8,9,9,10,10,11,11,12,12,13,13,14,14],"right_children":[2,4,6,8,10,12,14,16,18,20,22,24,26,28,30,-1,-1,-1,-1,-1,-1,-1,-1,-1,-1,-1,-1,-1,-1,-1,-1],"split_conditions":[2.1722758E-1,1.10484116E-1,4.103794E-1,6.1845936E-2,1.4939465E-1,3.3178657E-1,5.8892745E-1,1.2301354E-1,1.8626037E-1,1.02393314E-1,1.7585441E-1,3.071652E-1,4.291465E-1,3.9255112E-1,6.754832E-1,-4.929504E-3,-5.872752E-3,-3.895038E-3,-4.6191057E-3,-1.0483437E-3,-2.838615E-3,-1.5368799E-3,-7.9008366E-4,6.420794E-4,1.890005E-3,2.5863624E-3,4.3463684E-3,4.2348593E-3,6.4295065E-3,8.747562E-3,1.2322162E-2],"split_indices":[5,5,5,5,5,4,5,1,1,3,5,5,3,4,4,0,0,0,0,0,0,0,0,0,0,0,0,0,0,0,0],"split_type":[0,0,0,0,0,0,0,0,0,0,0,0,0,0,0,0,0,0,0,0,0,0,0,0,0,0,0,0,0,0,0],"sum_hessian":[4.152E3,2.045E3,2.107E3,1.322E3,7.23E2,1.316E3,7.91E2,7.53E2,5.69E2,3.24E2,3.99E2,8.13E2,5.03E2,5.95E2,1.96E2,6.08E2,1.45E2,4.58E2,1.11E2,3.1E1,2.93E2,1.81E2,2.18E2,5.24E2,2.89E2,3.77E2,1.26E2,1.82E2,4.13E2,1.33E2,6.3E1],"tree_param":{"num_deleted":"0","num_feature":"7","num_nodes":"31","size_leaf_vector":"1"}},{"base_weights":[-1.4065955E-3,-1.22990385E-1,1.1970979E-1,-1.5485933E-1,-6.263676E-2,5.75045E-2,2.2443613E-1,-1.7152433E-1,-1.3239191E-1,-8.66198E-2,-4.2977225E-2,4.121929E-2,1.1263674E-1,1.940552E-1,3.1744564E-1,-4.9620136E-3,-5.695888E-3,-3.7681253E-3,-4.6293447E-3,-4.0728273E-4,-2.7118414E-3,-1.5261801E-3,-7.574376E-4,6.311533E-4,1.8842191E-3,6.910647E-4,3.602218E-3,5.144085E-3,6.9418494E-3,8.002255E-3,1.2236924E-2],"categories":[],"categories_nodes":[],"categories_segments":[],"categories_sizes":[],"default_left":[0,0,0,0,0,0,0,0,0,0,0,0,0,0,0,0,0,0,0,0,0,0,0,0,0,0,0,0,0,0,0],"id":1,"left_children":[1,3,5,7,9,11,13,15,17,19,21,23,25,27,29,-1,-1,-1,-1,-1,-1,-1,-1,-1,-1,-1,-1,-1,-1,-1,-1],"loss_changes":[6.108257E1,3.9717522E0,1.352429E1,4.8425674E-1,3.3433962E-1,1.1670389E0,2.1255035E0,5.552101E-2,6.7061424E-2,8.755922E-2,5.414796E-2,4.38264E-1,1.9514966E-1,4.545231E-1,7.579975E-1,0E0,0E0,0E0,0E0,0E0,0E0,0E0,0E0,0E0,0E0,0E0,0E0,0E0,0E0,0E0,0E0],"parents":[2147483647,0,0,1,1,2,2,3,3,4,4,5,5,6,6,7,7,8,8,9,9,10,10,11,11,12,12,13,13,14,14],"right_children":[2,4,6,8,10,12,14,16,18,20,22,24,26,28,30,-1,-1,-1,-1,-1,-1,-1,-1,-1,-1,-1,-1,-1,-1,-1,-1],"split_conditions":[2.1722758E-1,1.0822793E-1,4.103794E-1,6.00813E-2,1.4939465E-1,3.7882724E-1,5.8892745E-1,1.1819151E-1,1.5467383E-1,9.3235865E-2,1.9035494E-1,2.954419E-1,2.749888E-1,4.8104855E-1,6.5084714E-1,-4.9620136E-3,-5.695888E-3,-3.7681253E-3,-4.6293447E-3,-4.0728273E-4,-2.7118414E-3,-1.5261801E-3,-7.574376E-4,6.311533E-4,1.8842191E-3,6.910647E-4,3.602218E-3,5.144085E-3,6.9418494E-3,8.002255E-3,1.2236924E-2],"split_indices":[5,5,5,5,5,4,5,0,0,2,5,5,5,2,4,0,0,0,0,0,0,0,0,0,0,0,0,0,0,0,0],"split_type":[0,0,0,0,0,0,0,0,0,0,0,0,0,0,0,0,0,0,0,0,0,0,0,0,0,0,0,0,0,0,0],"sum_hessian":[4.146E3,2.069E3,2.077E3,1.353E3,7.16E2,1.304E3,7.73E2,7.73E2,5.8E2,3.21E2,3.95E2,1.008E3,2.96E2,5.85E2,1.88E2,5.87E2,1.86E2,4.48E2,1.32E2,1.6E1,3.05E2,2.72E2,1.23E2,5.22E2,4.86E2,2.3E1,2.73E2,3.68E2,2.17E2,1.23E2,6.5E1],"tree_param":{"num_deleted":"0","num_feature":"7","num_nodes":"31","size_leaf_vector":"1"}},{"base_weights":[1.5982547E-3,-1.171235E-1,1.14280686E-1,-1.467757E-1,-5.9783828E-2,5.107646E-2,2.1226166E-1,-1.6495362E-1,-1.3298053E-1,-8.306918E-2,-3.945956E-2,3.7619468E-2,1.0522681E-1,1.8071407E-1,3.3110988E-1,-4.9637896E-3,1.8751743E-3,6.2062186E-3,-4.0108277E-3,2.0731355E-3,-2.555818E-3,-1.3629176E-3,-6.811304E-4,5.992978E-4,1.7419303E-3,2.3961563E-3,3.9530494E-3,3.8174721E-3,6.1164205E-3,8.29038E-3,1.2793926E-2],"categories":[],"categories_nodes":[],"categories_segments":[],"categories_sizes":[],"default_left":[0,0,0,0,0,0,0,0,0,0,0,0,0,0,0,0,0,0,0,0,0,0,0,0,0,0,0,0,0,0,0],"id":2,"left_children":[1,3,5,7,9,11,13,15,17,19,21,23,25,27,29,-1,-1,-1,-1,-1,-1,-1,-1,-1,-1,-1,-1,-1,-1,-1,-1],"loss_changes":[5.587931E1,3.4495277E0,1.3260353E1,3.1409264E-1,3.2563615E-1,9.462676E-1,3.0896416E0,7.6413155E-2,2.1370888E-1,1.10323906E-1,3.628564E-2,3.7613893E-1,1.6377139E-1,7.9896545E-1,7.959919E-1,0E0,0E0,0E0,0E0,0E0,0E0,0E0,0E0,0E0,0E0,0E0,0E0,0E0,0E0,0E0,0E0],"parents":[2147483647,0,0,1,1,2,2,3,3,4,4,5,5,6,6,7,7,8,8,9,9,10,10,11,11,12,12,13,13,14,14],"right_children":[2,4,6,8,10,12,14,16,18,20,22,24,26,28,30,-1,-1,-1,-1,-1,-1,-1,-1,-1,-1,-1,-1,-1,-1,-1,-1],"split_conditions":[2.1019852E-1,1.0822793E-1,3.9592803E-1,5.1282678E-2,1.4939465E-1,3.7882724E-1,5.957157E-1,5.6608546E-1,2.6130425E-2,6.999081E-2,1.9035494E-1,2.954419E-1,3.7882724E-1,3.9255112E-1,6.5084714E-1,-4.9637896E-3,1.8751743E-3,6.2062186E-3,-4.0108277E-3,2.0731355E-3,-2.555818E-3,-1.3629176E-3,-6.811304E-4,5.992978E-4,1.7419303E-3,2.3961563E-3,3.9530494E-3,3.8174721E-3,6.1164205E-3,8.29038E-3,1.2793926E-2],"split_indices":[5,5,5,5,5,4,5,3,4,4,5,5,3,4,3,0,0,0,0,0,0,0,0,0,0,0,0,0,0,0,0],"split_type":[0,0,0,0,0,0,0,0,0,0,0,0,0,0,0,0,0,0,0,0,0,0,0,0,0,0,0,0,0,0,0],"sum_hessian":[4.175E3,2.033E3,2.142E3,1.339E3,6.94E2,1.303E3,8.39E2,5.73E2,7.66E2,3.22E2,3.72E2,1.045E3,2.58E2,6.65E2,1.74E2,5.72E2,1E0,1E0,7.65E2,4E0,3.18E2,2.73E2,9.9E1,5.62E2,4.83E2,1.34E2,1.24E2,2.03E2,4.62E2,1.13E2,6.1E1],"tree_param":{"num_deleted":"0","num_feature":"7","num_nodes":"31","size_leaf_vector":"1"}},{"base_weights":[-6.8722747E-4,-1.1099215E-1,1.1067408E-1,-1.4013766E-1,-4.832245E-2,5.8088843E-2,2.0526373E-1,-1.5605263E-1,-1.2189306E-1,-7.58429E-2,-3.3020582E-2,4.386727E-2,1.0962563E-1,1.7778072E-1,2.9733694E-1,-4.479081E-3,-5.475319E-3,-3.4866E-3,-4.3434678E-3,5.015038E-5,-2.3984383E-3,-1.3564855E-3,-4.5885998E-4,8.622164E-4,1.9533092E-3,2.7407298E-3,4.8514134E-3,3.909042E-3,5.894377E-3,7.290743E-3,1.1143618E-2],"categories":[],"categories_nodes":[],"categories_segments":[],"categories_sizes":[],"default_left":[0,0,0,0,0,0,0,0,0,0,0,0,0,0,0,0,0,0,0,0,0,0,0,0,0,0,0,0,0,0,0],"id":3,"left_children":[1,3,5,7,9,11,13,15,17,19,21,23,25,27,29,-1,-1,-1,-1,-1,-1,-1,-1,-1,-1,-1,-1,-1,-1,-1,-1],"loss_changes":[5.1566975E1,3.8454018E0,1.0378803E1,3.9880943E-1,2.8006327E-1,9.802542E-1,1.8348522E0,1.09371185E-1,7.082367E-2,7.618368E-2,9.290999E-2,3.371396E-1,2.6117396E-1,4.866562E-1,5.940552E-1,0E0,0E0,0E0,0E0,0E0,0E0,0E0,0E0,0E0,0E0,0E0,0E0,0E0,0E0,0E0,0E0],"parents":[2147483647,0,0,1,1,2,2,3,3,4,4,5,5,6,6,7,7,8,8,9,9,10,10,11,11,12,12,13,13,14,14],"right_children":[2,4,6,8,10,12,14,16,18,20,22,24,26,28,30,-1,-1,-1,-1,-1,-1,-1,-1,-1,-1,-1,-1,-1,-1,-1,-1],"split_conditions":[2.2508736E-1,1.1850118E-1,4.1740355E-1,6.00813E-2,1.4939465E-1,3.8420966E-1,5.957157E-1,8.089814E-2,1.6153085E-1,9.559036E-2,1.9035494E-1,3.1056178E-1,4.6161783E-1,3.9255112E-1,6.296322E-1,-4.479081E-3,-5.475319E-3,-3.4866E-3,-4.3434678E-3,5.015038E-5,-2.3984383E-3,-1.3564855E-3,-4.5885998E-4,8.622164E-4,1.9533092E-3,2.7407298E-3,4.8514134E-3,3.909042E-3,5.894377E-3,7.290743E-3,1.1143618E-2],"split_indices":[5,5,5,5,5,4,5,1,1,3,5,5,3,4,3,0,0,0,0,0,0,0,0,0,0,0,0,0,0,0,0],"split_type":[0,0,0,0,0,0,0,0,0,0,0,0,0,0,0,0,0,0,0,0,0,0,0,0,0,0,0,0,0,0,0],"sum_hessian":[4.196E3,2.108E3,2.088E3,1.438E3,6.7E2,1.343E3,7.45E2,7.64E2,6.74E2,2.38E2,4.32E2,1.054E3,2.89E2,5.76E2,1.69E2,6.14E2,1.5E2,5.45E2,1.29E2,1.2E1,2.26E2,2.55E2,1.77E2,6.17E2,4.37E2,2.16E2,7.3E1,1.65E2,4.11E2,1E2,6.9E1],"tree_param":{"num_deleted":"0","num_feature":"7","num_nodes":"31","size_leaf_vector":"1"}},{"base_weights":[-1.2451604E-3,-1.1286602E-1,1.0485256E-1,-1.3820626E-1,-5.8864336E-2,4.7154106E-2,2.0274974E-1,-1.5212773E-1,-1.2000647E-1,-7.748206E-2,-3.3696264E-2,2.39587E-2,7.9102695E-2,1.8257973E-1,3.4923673E-1,-4.3625147E-3,-5.138486E-3,-3.312676E-3,-4.334447E-3,7.611892E-4,-2.3939873E-3,1.2338416E-3,-1.090282E-3,6.0731627E-4,2.3064117E-3,2.0929424E-3,4.542091E-3,4.9283714E-3,7.4080173E-3,7.540886E-3,1.1474214E-2],"categories":[],"categories_nodes":[],"categories_segments":[],"categories_sizes":[],"default_left":[0,0,0,0,0,0,0,0,0,0,0,0,0,0,0,0,0,0,0,0,0,0,0,0,0,0,0,0,0,0,0],"id":4,"left_children":[1,3,5,7,9,11,13,15,17,19,21,23,25,27,29,-1,-1,-1,-1,-1,-1,-1,-1,-1,-1,-1,-1,-1,-1,-1,-1],"loss_changes":[4.947887E1,2.777958E0,1.2089561E1,3.3265686E-1,3.0289817E-1,9.977956E-1,2.2822266E0,7.548523E-2,1.259594E-1,9.117484E-2,5.67424E-2,1.5237734E-1,3.7224007E-1,7.838421E-1,2.1289825E-1,0E0,0E0,0E0,0E0,0E0,0E0,0E0,0E0,0E0,0E0,0E0,0E0,0E0,0E0,0E0,0E0],"parents":[2147483647,0,0,1,1,2,2,3,3,4,4,5,5,6,6,7,7,8,8,9,9,10,10,11,11,12,12,13,13,14,14],"right_children":[2,4,6,8,10,12,14,16,18,20,22,24,26,28,30,-1,-1,-1,-1,-1,-1,-1,-1,-1,-1,-1,-1,-1,-1,-1,-1],"split_conditions":[2.1019852E-1,1.10484116E-1,4.0644705E-1,6.2774956E-2,1.593484E-1,3.153248E-1,6.5084714E-1,6.335989E-2,1.717451E-1,8.252024E-2,1.16161436E-1,3.9592803E-1,4.6551085E-1,5.6608546E-1,6.1997825E-1,-4.3625147E-3,-5.138486E-3,-3.312676E-3,-4.334447E-3,7.611892E-4,-2.3939873E-3,1.2338416E-3,-1.090282E-3,6.0731627E-4,2.3064117E-3,2.0929424E-3,4.542091E-3,4.9283714E-3,7.4080173E-3,7.540886E-3,1.1474214E-2],"split_indices":[5,5,5,4,5,5,4,0,0,4,3,2,3,3,5,0,0,0,0,0,0,0,0,0,0,0,0,0,0,0,0],"split_type":[0,0,0,0,0,0,0,0,0,0,0,0,0,0,0,0,0,0,0,0,0,0,0,0,0,0,0,0,0,0,0],"sum_hessian":[4.176E3,2.035E3,2.141E3,1.384E3,6.51E2,1.348E3,7.93E2,7.8E2,6.04E2,3.73E2,2.78E2,7.82E2,5.66E2,6.99E2,9.4E1,5.84E2,1.96E2,4.38E2,1.66E2,8E0,3.65E2,9E0,2.69E2,7.32E2,5E1,5.03E2,6.3E1,5.47E2,1.52E2,2.6E1,6.8E1],"tree_param":{"num_deleted":"0","num_feature":"7","num_nodes":"31","size_leaf_vector":"1"}},{"base_weights":[4.3315886E-4,-1.2057913E-1,1.1700965E-1,-1.4690799E-1,-6.0036298E-2,5.8402758E-2,2.1720155E-1,-1.6013774E-1,-1.2617654E-1,-8.0994025E-2,-3.8750753E-2,3.4814905E-2,9.583081E-2,1.8270896E-1,3.3129445E-1,-4.569208E-3,-5.389559E-3,-4.135985E-3,-3.590136E-3,-1.6492141E-4,-2.55128E-3,-1.3434306E-3,-5.433492E-4,9.251468E-4,4.411467E-3,2.546058E-3,3.9242185E-3,4.892695E-3,7.2497046E-3,9.147687E-3,1.2675312E-2],"categories":[],"categories_nodes":[],"categories_segments":[],"categories_sizes":[],"default_left":[0,0,0,0,0,0,0,0,0,0,0,0,0,0,0,0,0,0,0,0,0,0,0,0,0,0,0,0,0,0,0],"id":5,"left_children":[1,3,5,7,9,11,13,15,17,19,21,23,25,27,29,-1,-1,-1,-1,-1,-1,-1,-1,-1,-1,-1,-1,-1,-1,-1,-1],"loss_changes":[5.893983E1,3.2589283E0,1.2482796E1,3.7145615E-1,2.7477956E-1,1.1832108E0,3.0287209E0,1.0527992E-1,2.6162148E-2,9.520388E-2,3.78958E-2,3.6412442E-1,1.8789339E-1,6.602764E-1,3.0656242E-1,0E0,0E0,0E0,0E0,0E0,0E0,0E0,0E0,0E0,0E0,0E0,0E0,0E0,0E0,0E0,0E0],"parents":[2147483647,0,0,1,1,2,2,3,3,4,4,5,5,6,6,7,7,8,8,9,9,10,10,11,11,12,12,13,13,14,14],"right_children":[2,4,6,8,10,12,14,16,18,20,22,24,26,28,30,-1,-1,-1,-1,-1,-1,-1,-1,-1,-1,-1,-1,-1,-1,-1,-1],"split_conditions":[2.1019852E-1,1.1632856E-1,4.103794E-1,6.564557E-2,1.5740189E-1,3.2558823E-1,5.957157E-1,1.8603428E-1,8.2426846E-2,9.6942104E-2,2.308679E-1,4.4553456E-1,4.0644705E-1,5.269095E-1,7.053592E-1,-4.569208E-3,-5.389559E-3,-4.135985E-3,-3.590136E-3,-1.6492141E-4,-2.55128E-3,-1.3434306E-3,-5.433492E-4,9.251468E-4,4.411467E-3,2.546058E-3,3.9242185E-3,4.892695E-3,7.2497046E-3,9.147687E-3,1.2675312E-2],"split_indices":[6,6,6,6,6,6,6,0,3,4,4,4,2,3,0,0,0,0,0,0,0,0,0,0,0,0,0,0,0,0,0],"split_type":[0,0,0,0,0,0,0,0,0,0,0,0,0,0,0,0,0,0,0,0,0,0,0,0,0,0,0,0,0,0,0],"sum_hessian":[4.176E3,2.049E3,2.127E3,1.427E3,6.22E2,1.343E3,7.84E2,8.67E2,5.6E2,3.12E2,3.1E2,8.25E2,5.18E2,6.04E2,1.8E2,6.25E2,2.42E2,1.93E2,3.67E2,1.6E1,2.96E2,2.39E2,7.1E1,7.98E2,2.7E1,3.97E2,1.21E2,4.56E2,1.48E2,1.43E2,3.7E1],"tree_param":{"num_deleted":"0","num_feature":"7","num_nodes":"31","size_leaf_vector":"1"}},{"base_weights":[-2.0457532E-3,-1.1618752E-1,1.1264868E-1,-1.44813E-1,-5.9344243E-2,5.929535E-2,2.0778626E-1,-1.6365846E-1,-1.3027239E-1,-8.024753E-2,-3.6454268E-2,4.2710993E-2,1.1520185E-1,1.7405269E-1,3.108109E-1,-4.741355E-3,-5.344883E-3,6.18839E-3,-3.928943E-3,-2.6851664E-3,-1.9106687E-3,-1.3816754E-3,-4.4054515E-4,9.297208E-4,2.1866069E-3,3.1213893E-3,5.16894E-3,3.7621015E-3,5.9106937E-3,8.293165E-3,1.1677661E-2],"categories":[],"categories_nodes":[],"categories_segments":[],"categories_sizes":[],"default_left":[0,0,0,0,0,0,0,0,0,0,0,0,0,0,0,0,0,0,0,0,0,0,0,0,0,0,0,0,0,0,0],"id":6,"left_children":[1,3,5,7,9,11,13,15,17,19,21,23,25,27,29,-1,-1,-1,-1,-1,-1,-1,-1,-1,-1,-1,-1,-1,-1,-1,-1],"loss_changes":[5.430323E1,3.3742847E0,1.0489729E1,3.5738182E-1,3.3105063E-1,1.2254386E0,2.5281181E0,2.0528793E-2,2.0993996E-1,5.0100565E-2,6.934574E-2,3.602537E-1,1.7506504E-1,6.03323E-1,3.831215E-1,0E0,0E0,0E0,0E0,0E0,0E0,0E0,0E0,0E0,0E0,0E0,0E0,0E0,0E0,0E0,0E0],"parents":[2147483647,0,0,1,1,2,2,3,3,4,4,5,5,6,6,7,7,8,8,9,9,10,10,11,11,12,12,13,13,14,14],"right_children":[2,4,6,8,10,12,14,16,18,20,22,24,26,28,30,-1,-1,-1,-1,-1,-1,-1,-1,-1,-1,-1,-1,-1,-1,-1,-1],"split_conditions":[2.2065364E-1,1.1055785E-1,4.1740355E-1,5.1282678E-2,1.593484E-1,3.8087207E-1,5.957157E-1,1.8976508E-1,2.6130425E-2,1.4523128E-1,2.1376713E-1,3.3178657E-1,4.9451187E-1,4.0644705E-1,7.3409975E-1,-4.741355E-3,-5.344883E-3,6.18839E-3,-3.928943E-3,-2.6851664E-3,-1.9106687E-3,-1.3816754E-3,-4.4054515E-4,9.297208E-4,2.1866069E-3,3.1213893E-3,5.16894E-3,3.7621015E-3,5.9106937E-3,8.293165E-3,1.1677661E-2],"split_indices":[6,6,6,6,6,5,6,0,5,5,5,6,3,5,6,0,0,0,0,0,0,0,0,0,0,0,0,0,0,0,0],"split_type":[0,0,0,0,0,0,0,0,0,0,0,0,0,0,0,0,0,0,0,0,0,0,0,0,0,0,0,0,0,0,0],"sum_hessian":[4.146E3,2.078E3,2.068E3,1.381E3,6.97E2,1.326E3,7.42E2,5.97E2,7.84E2,3.63E2,3.34E2,1.024E3,3.02E2,5.61E2,1.81E2,4.39E2,1.58E2,1E0,7.83E2,2.3E2,1.33E2,2.31E2,1.03E2,7.39E2,2.85E2,2.55E2,4.7E1,1.82E2,3.79E2,1.29E2,5.2E1],"tree_param":{"num_deleted":"0","num_feature":"7","num_nodes":"31","size_leaf_vector":"1"}},{"base_weights":[-5.040837E-4,-1.1055068E-1,1.11598216E-1,-1.3888803E-1,-5.533001E-2,5.7005793E-2,2.0790908E-1,-1.5193988E-1,-1.18624955E-1,-6.991832E-2,-2.844463E-2,4.0599428E-2,1.14401765E-1,1.7576787E-1,3.066964E-1,-4.4800467E-3,-5.828423E-3,1.0518742E-3,-3.5689697E-3,4.7572737E-4,-2.1721171E-3,6.985892E-4,-1.0022321E-3,8.0179924E-4,2.1018381E-3,3.0324275E-3,5.4846974E-3,4.3192967E-3,6.1601796E-3,8.1870025E-3,1.1754371E-2],"categories":[],"categories_nodes":[],"categories_segments":[],"categories_sizes":[],"default_left":[0,0,0,0,0,0,0,0,0,0,0,0,0,0,0,0,0,0,0,0,0,0,0,0,0,0,0,0,0,0,0],"id":7,"left_children":[1,3,5,7,9,11,13,15,17,19,21,23,25,27,29,-1,-1,-1,-1,-1,-1,-1,-1,-1,-1,-1,-1,-1,-1,-1,-1],"loss_changes":[5.199825E1,3.3206615E0,1.0966526E1,3.5355568E-1,2.8158045E-1,1.2515292E0,2.3433266E0,6.485176E-2,3.3232212E-2,1.0092759E-1,6.650494E-2,4.227854E-1,2.5130415E-1,5.0818443E-1,4.22369E-1,0E0,0E0,0E0,0E0,0E0,0E0,0E0,0E0,0E0,0E0,0E0,0E0,0E0,0E0,0E0,0E0],"parents":[2147483647,0,0,1,1,2,2,3,3,4,4,5,5,6,6,7,7,8,8,9,9,10,10,11,11,12,12,13,13,14,14],"right_children":[2,4,6,8,10,12,14,16,18,20,22,24,26,28,30,-1,-1,-1,-1,-1,-1,-1,-1,-1,-1,-1,-1,-1,-1,-1,-1],"split_conditions":[2.2203979E-1,1.1449019E-1,4.1740355E-1,6.46379E-2,1.7585441E-1,3.8087207E-1,5.957157E-1,1.4939465E-1,4.15403E-2,9.331944E-2,1.3627046E-1,3.2251608E-1,4.9451187E-1,4.5747414E-1,7.3409975E-1,-4.4800467E-3,-5.828423E-3,1.0518742E-3,-3.5689697E-3,4.7572737E-4,-2.1721171E-3,6.985892E-4,-1.0022321E-3,8.0179924E-4,2.1018381E-3,3.0324275E-3,5.4846974E-3,4.3192967E-3,6.1601796E-3,8.1870025E-3,1.1754371E-2],"split_indices":[6,6,6,6,6,5,6,5,0,3,3,6,3,5,6,0,0,0,0,0,0,0,0,0,0,0,0,0,0,0,0],"split_type":[0,0,0,0,0,0,0,0,0,0,0,0,0,0,0,0,0,0,0,0,0,0,0,0,0,0,0,0,0,0,0],"sum_hessian":[4.213E3,2.126E3,2.087E3,1.404E3,7.22E2,1.333E3,7.54E2,8.5E2,5.54E2,4.67E2,2.55E2,1.038E3,2.95E2,5.71E2,1.83E2,8.05E2,4.5E1,1E0,5.53E2,1.3E1,4.54E2,2.2E1,2.33E2,7.07E2,3.31E2,2.49E2,4.6E1,2.78E2,2.93E2,1.34E2,4.9E1],"tree_param":{"num_deleted":"0","num_feature":"7","num_nodes":"31","size_leaf_vector":"1"}},{"base_weights":[1.4384625E-3,-9.602964E-2,9.701464E-2,-1.2210979E-1,-4.812047E-2,4.4726513E-2,1.7419907E-1,-1.3673128E-1,-1.04626976E-1,-6.3015535E-2,-3.150345E-2,3.2806456E-2,8.961851E-2,1.4559945E-1,2.558262E-1,-3.901817E-3,-4.658965E-3,-2.9194676E-3,-3.8234107E-3,7.424904E-4,-1.9698914E-3,4.0513187E-4,-1.02867E-3,5.39118E-4,1.491149E-3,2.1348645E-3,3.7353036E-3,3.7028827E-3,5.228324E-3,6.4266673E-3,1.0429047E-2],"categories":[],"categories_nodes":[],"categories_segments":[],"categories_sizes":[],"default_left":[0,0,0,0,0,0,0,0,0,0,0,0,0,0,0,0,0,0,0,0,0,0,0,0,0,0,0,0,0,0,0],"id":8,"left_children":[1,3,5,7,9,11,13,15,17,19,21,23,25,27,29,-1,-1,-1,-1,-1,-1,-1,-1,-1,-1,-1,-1,-1,-1,-1,-1],"loss_changes":[3.8985912E1,2.583044E0,8.519917E0,3.284874E-1,1.7919338E-1,6.718402E-1,1.9540844E0,6.984711E-2,9.020758E-2,9.108329E-2,4.4092417E-2,2.4930906E-1,1.6114831E-1,3.8158226E-1,7.658415E-1,0E0,0E0,0E0,0E0,0E0,0E0,0E0,0E0,0E0,0E0,0E0,0E0,0E0,0E0,0E0,0E0],"parents":[2147483647,0,0,1,1,2,2,3,3,4,4,5,5,6,6,7,7,8,8,9,9,10,10,11,11,12,12,13,13,14,14],"right_children":[2,4,6,8,10,12,14,16,18,20,22,24,26,28,30,-1,-1,-1,-1,-1,-1,-1,-1,-1,-1,-1,-1,-1,-1,-1,-1],"split_conditions":[2.1722758E-1,1.10484116E-1,4.0020445E-1,6.00813E-2,1.593484E-1,3.7882724E-1,5.8168703E-1,7.205528E-2,1.809812E-1,9.3235865E-2,1.2203046E-1,2.954419E-1,4.0644705E-1,4.6161783E-1,6.5084714E-1,-3.901817E-3,-4.658965E-3,-2.9194676E-3,-3.8234107E-3,7.424904E-4,-1.9698914E-3,4.0513187E-4,-1.02867E-3,5.39118E-4,1.491149E-3,2.1348645E-3,3.7353036E-3,3.7028827E-3,5.228324E-3,6.4266673E-3,1.0429047E-2],"split_indices":[5,5,5,5,5,4,5,0,0,2,2,5,2,2,3,0,0,0,0,0,0,0,0,0,0,0,0,0,0,0,0],"split_type":[0,0,0,0,0,0,0,0,0,0,0,0,0,0,0,0,0,0,0,0,0,0,0,0,0,0,0,0,0,0,0],"sum_hessian":[4.183E3,2.071E3,2.112E3,1.34E3,7.31E2,1.26E3,8.52E2,7.26E2,6.14E2,3.84E2,3.47E2,9.97E2,2.63E2,6.33E2,2.19E2,5.4E2,1.86E2,4.69E2,1.45E2,1.1E1,3.73E2,2E1,3.27E2,5.32E2,4.65E2,1.74E2,8.9E1,3.6E2,2.73E2,1.53E2,6.6E1],"tree_param":{"num_deleted":"0","num_feature":"7","num_nodes":"31","size_leaf_vector":"1"}},{"base_weights":[2.089678E-3,-1.02763705E-1,1.0916867E-1,-1.3307852E-1,-5.045742E-2,5.6044478E-2,1.9818567E-1,-1.5053374E-1,-1.1925305E-1,-6.4334616E-2,-1.2119268E-2,3.3819072E-2,8.65375E-2,1.627272E-1,2.8561962E-1,-4.4384245E-3,-5.858522E-3,6.232649E-3,-3.5989534E-3,-2.3488214E-3,-1.5015447E-3,-7.0757244E-4,3.101516E-4,8.3371816E-4,2.7953032E-3,2.030462E-3,3.3611425E-3,4.413295E-3,6.372364E-3,7.850685E-3,1.0709627E-2],"categories":[],"categories_nodes":[],"categories_segments":[],"categories_sizes":[],"default_left":[0,0,0,0,0,0,0,0,0,0,0,0,0,0,0,0,0,0,0,0,0,0,0,0,0,0,0,0,0,0,0],"id":9,"left_children":[1,3,5,7,9,11,13,15,17,19,21,23,25,27,29,-1,-1,-1,-1,-1,-1,-1,-1,-1,-1,-1,-1,-1,-1,-1,-1],"loss_changes":[4.7021156E1,3.3485317E0,9.787291E0,3.051834E-1,4.1313636E-1,8.7743187E-1,2.3531342E0,3.916073E-2,2.0002842E-1,1.099298E-1,5.3805977E-2,2.6686102E-1,2.5542736E-1,3.9785194E-1,2.8572083E-1,0E0,0E0,0E0,0E0,0E0,0E0,0E0,0E0,0E0,0E0,0E0,0E0,0E0,0E0,0E0,0E0],"parents":[2147483647,0,0,1,1,2,2,3,3,4,4,5,5,6,6,7,7,8,8,9,9,10,10,11,11,12,12,13,13,14,14],"right_children":[2,4,6,8,10,12,14,16,18,20,22,24,26,28,30,-1,-1,-1,-1,-1,-1,-1,-1,-1,-1,-1,-1,-1,-1,-1,-1],"split_conditions":[2.2804645E-1,1.0837048E-1,4.1332373E-1,5.1282678E-2,1.8630953E-1,3.2558823E-1,5.8168703E-1,6.798531E-2,2.6130425E-2,1.4939465E-1,2.4065945E-1,3.9255112E-1,3.7882724E-1,5.269095E-1,7.3409975E-1,-4.4384245E-3,-5.858522E-3,6.232649E-3,-3.5989534E-3,-2.3488214E-3,-1.5015447E-3,-7.0757244E-4,3.101516E-4,8.3371816E-4,2.7953032E-3,2.030462E-3,3.3611425E-3,4.413295E-3,6.372364E-3,7.850685E-3,1.0709627E-2],"split_indices":[6,6,6,6,6,6,6,5,5,5,5,2,5,3,6,0,0,0,0,0,0,0,0,0,0,0,0,0,0,0,0],"split_type":[0,0,0,0,0,0,0,0,0,0,0,0,0,0,0,0,0,0,0,0,0,0,0,0,0,0,0,0,0,0,0],"sum_hessian":[4.186E3,2.115E3,2.071E3,1.338E3,7.77E2,1.298E3,7.73E2,5.87E2,7.51E2,5.7E2,2.07E2,7.52E2,5.46E2,5.52E2,2.21E2,5.59E2,2.8E1,1E0,7.5E2,2.86E2,2.84E2,1.37E2,7E1,6.84E2,6.8E1,3.16E2,2.3E2,4.23E2,1.29E2,1.69E2,5.2E1],"tree_param":{"num_deleted":"0","num_feature":"7","num_nodes":"31","size_leaf_vector":"1"}},{"base_weights":[1.0256876E-3,-1.0369769E-1,1.0469177E-1,-1.284199E-1,-5.08269E-2,5.203627E-2,1.9245173E-1,-1.4593332E-1,-1.1560541E-1,-6.8867184E-2,-3.0228427E-2,3.9365448E-2,1.01237796E-1,1.6086908E-1,2.9035905E-1,-4.292732E-3,-5.7280427E-3,6.1391597E-3,-3.4875066E-3,1.7578111E-4,-2.2024147E-3,-1.2872893E-3,-4.0697696E-4,8.2816544E-4,2.1459393E-3,2.6180805E-3,4.2188168E-3,4.2434176E-3,6.0271244E-3,7.806353E-3,1.0719367E-2],"categories":[],"categories_nodes":[],"categories_segments":[],"categories_sizes":[],"default_left":[0,0,0,0,0,0,0,0,0,0,0,0,0,0,0,0,0,0,0,0,0,0,0,0,0,0,0,0,0,0,0],"id":10,"left_children":[1,3,5,7,9,11,13,15,17,19,21,23,25,27,29,-1,-1,-1,-1,-1,-1,-1,-1,-1,-1,-1,-1,-1,-1,-1,-1],"loss_changes":[4.495578E1,2.6860657E0,9.60638E0,2.9799652E-1,2.4243248E-1,8.077128E-1,2.3651867E0,4.8015594E-2,1.9208622E-1,1.1934447E-1,6.470993E-2,3.9028978E-1,1.3408327E-1,4.3189335E-1,2.8851223E-1,0E0,0E0,0E0,0E0,0E0,0E0,0E0,0E0,0E0,0E0,0E0,0E0,0E0,0E0,0E0,0E0],"parents":[2147483647,0,0,1,1,2,2,3,3,4,4,5,5,6,6,7,7,8,8,9,9,10,10,11,11,12,12,13,13,14,14],"right_children":[2,4,6,8,10,12,14,16,18,20,22,24,26,28,30,-1,-1,-1,-1,-1,-1,-1,-1,-1,-1,-1,-1,-1,-1,-1,-1],"split_conditions":[2.1722758E-1,1.1632856E-1,4.103794E-1,5.1282678E-2,1.6190442E-1,3.8420966E-1,5.957157E-1,7.599255E-2,2.6130425E-2,1.0242773E-1,1.9035494E-1,3.3178657E-1,4.501305E-1,5.0477535E-1,7.3409975E-1,-4.292732E-3,-5.7280427E-3,6.1391597E-3,-3.4875066E-3,1.7578111E-4,-2.2024147E-3,-1.2872893E-3,-4.0697696E-4,8.2816544E-4,2.1459393E-3,2.6180805E-3,4.2188168E-3,4.2434176E-3,6.0271244E-3,7.806353E-3,1.0719367E-2],"split_indices":[6,6,6,6,6,5,6,5,5,4,6,6,2,3,6,0,0,0,0,0,0,0,0,0,0,0,0,0,0,0,0],"split_type":[0,0,0,0,0,0,0,0,0,0,0,0,0,0,0,0,0,0,0,0,0,0,0,0,0,0,0,0,0,0,0],"sum_hessian":[4.139E3,2.059E3,2.08E3,1.402E3,6.57E2,1.301E3,7.79E2,5.88E2,8.14E2,3.49E2,3.08E2,1.036E3,2.65E2,5.91E2,1.88E2,5.57E2,3.1E1,1E0,8.13E2,2E1,3.29E2,1.74E2,1.34E2,7.6E2,2.76E2,1.98E2,6.7E1,4.01E2,1.9E2,1.33E2,5.5E1],"tree_param":{"num_deleted":"0","num_feature":"7","num_nodes":"31","size_leaf_vector":"1"}},{"base_weights":[-1.4754046E-3,-9.947687E-2,9.838666E-2,-1.2500724E-1,-4.779455E-2,5.2001104E-2,1.8888374E-1,-1.3962877E-1,-1.0991062E-1,-5.7655834E-2,-1.4522183E-2,3.723688E-2,9.890489E-2,1.5908703E-1,2.6250118E-1,-4.1002734E-3,-5.463559E-3,-3.5589384E-3,-2.9439116E-3,-2.0758759E-3,-1.3471077E-3,-1.2687669E-3,-8.837219E-5,8.2344614E-4,2.0419545E-3,2.5643515E-3,4.941094E-3,4.031323E-3,5.5719563E-3,6.8216356E-3,9.599785E-3],"categories":[],"categories_nodes":[],"categories_segments":[],"categories_sizes":[],"default_left":[0,0,0,0,0,0,0,0,0,0,0,0,0,0,0,0,0,0,0,0,0,0,0,0,0,0,0,0,0,0,0],"id":11,"left_children":[1,3,5,7,9,11,13,15,17,19,21,23,25,27,29,-1,-1,-1,-1,-1,-1,-1,-1,-1,-1,-1,-1,-1,-1,-1,-1],"loss_changes":[4.060472E1,2.7569923E0,8.616568E0,2.9390144E-1,2.2686982E-1,9.381144E-1,1.4849548E0,6.394482E-2,5.965519E-2,7.562423E-2,5.1311966E-2,3.1076324E-1,2.7303958E-1,3.0291653E-1,3.2896423E-1,0E0,0E0,0E0,0E0,0E0,0E0,0E0,0E0,0E0,0E0,0E0,0E0,0E0,0E0,0E0,0E0],"parents":[2147483647,0,0,1,1,2,2,3,3,4,4,5,5,6,6,7,7,8,8,9,9,10,10,11,11,12,12,13,13,14,14],"right_children":[2,4,6,8,10,12,14,16,18,20,22,24,26,28,30,-1,-1,-1,-1,-1,-1,-1,-1,-1,-1,-1,-1,-1,-1,-1,-1],"split_conditions":[2.2065364E-1,1.1449019E-1,4.260498E-1,5.745646E-2,1.8630953E-1,3.7882724E-1,5.8168703E-1,1.4939465E-1,8.256447E-2,1.4939465E-1,1.78494E-1,3.4466502E-1,4.9451187E-1,4.6161783E-1,6.754832E-1,-4.1002734E-3,-5.463559E-3,-3.5589384E-3,-2.9439116E-3,-2.0758759E-3,-1.3471077E-3,-1.2687669E-3,-8.837219E-5,8.2344614E-4,2.0419545E-3,2.5643515E-3,4.941094E-3,4.031323E-3,5.5719563E-3,6.8216356E-3,9.599785E-3],"split_indices":[6,6,6,6,6,5,6,5,6,6,5,6,3,3,6,0,0,0,0,0,0,0,0,0,0,0,0,0,0,0,0],"split_type":[0,0,0,0,0,0,0,0,0,0,0,0,0,0,0,0,0,0,0,0,0,0,0,0,0,0,0,0,0,0,0],"sum_hessian":[4.147E3,2.093E3,2.054E3,1.4E3,6.93E2,1.359E3,6.95E2,7.07E2,6.93E2,5.34E2,1.59E2,1.035E3,3.24E2,4.97E2,1.98E2,6.65E2,4.2E1,3.93E2,3E2,2.78E2,2.56E2,4.6E1,1.13E2,7.87E2,2.48E2,2.71E2,5.3E1,2.61E2,2.36E2,1.26E2,7.2E1],"tree_param":{"num_deleted":"0","num_feature":"7","num_nodes":"31","size_leaf_vector":"1"}},{"base_weights":[7.5104507E-4,-9.736038E-2,9.797147E-2,-1.22086786E-1,-4.6713393E-2,4.9554355E-2,1.7792884E-1,-1.3381568E-1,-1.02618404E-1,-6.671645E-2,-3.328035E-2,2.4365159E-2,7.155989E-2,1.5203841E-1,2.6594573E-1,-4.374619E-3,-3.7722122E-3,-3.4302194E-3,-2.9285997E-3,4.2452535E-4,-2.114661E-3,-1.2937023E-3,-4.8334902E-4,4.0111959E-4,1.713527E-3,1.7846836E-3,3.3585583E-3,4.1188593E-3,5.944643E-3,7.099503E-3,1.00277215E-2],"categories":[],"categories_nodes":[],"categories_segments":[],"categories_sizes":[],"default_left":[0,0,0,0,0,0,0,0,0,0,0,0,0,0,0,0,0,0,0,0,0,0,0,0,0,0,0,0,0,0,0],"id":12,"left_children":[1,3,5,7,9,11,13,15,17,19,21,23,25,27,29,-1,-1,-1,-1,-1,-1,-1,-1,-1,-1,-1,-1,-1,-1,-1,-1],"loss_changes":[3.9746655E1,2.5916042E0,8.093824E0,3.04348E-1,1.8103445E-1,7.216203E-1,1.7575359E0,6.561756E-2,1.9774914E-2,8.427656E-2,6.859225E-2,2.1889526E-1,3.3267474E-1,3.8889122E-1,2.7711773E-1,0E0,0E0,0E0,0E0,0E0,0E0,0E0,0E0,0E0,0E0,0E0,0E0,0E0,0E0,0E0,0E0],"parents":[2147483647,0,0,1,1,2,2,3,3,4,4,5,5,6,6,7,7,8,8,9,9,10,10,11,11,12,12,13,13,14,14],"right_children":[2,4,6,8,10,12,14,16,18,20,22,24,26,28,30,-1,-1,-1,-1,-1,-1,-1,-1,-1,-1,-1,-1,-1,-1,-1,-1],"split_conditions":[2.2065364E-1,1.1449019E-1,4.103794E-1,6.564557E-2,1.4939465E-1,3.0345896E-1,5.957157E-1,3.920055E-2,7.8292966E-2,9.331944E-2,1.9035494E-1,3.1256726E-1,3.902458E-1,5.269095E-1,7.3409975E-1,-4.374619E-3,-3.7722122E-3,-3.4302194E-3,-2.9285997E-3,4.2452535E-4,-2.114661E-3,-1.2937023E-3,-4.8334902E-4,4.0111959E-4,1.713527E-3,1.7846836E-3,3.3585583E-3,4.1188593E-3,5.944643E-3,7.099503E-3,1.00277215E-2],"split_indices":[6,6,6,6,6,6,6,6,2,3,6,2,2,3,6,0,0,0,0,0,0,0,0,0,0,0,0,0,0,0,0],"split_type":[0,0,0,0,0,0,0,0,0,0,0,0,0,0,0,0,0,0,0,0,0,0,0,0,0,0,0,0,0,0,0],"sum_hessian":[4.165E3,2.073E3,2.092E3,1.392E3,6.81E2,1.304E3,7.88E2,8.65E2,5.27E2,2.72E2,4.09E2,6.09E2,6.95E2,6.11E2,1.77E2,3.41E2,5.24E2,1.51E2,3.76E2,1.2E1,2.6E2,2.59E2,1.5E2,4.57E2,1.52E2,5.37E2,1.58E2,4.66E2,1.45E2,1.27E2,5E1],"tree_param":{"num_deleted":"0","num_feature":"7","num_nodes":"31","size_leaf_vector":"1"}},{"base_weights":[-5.542825E-4,-9.411576E-2,9.372889E-2,-1.1668474E-1,-4.478742E-2,4.619297E-2,1.7324303E-1,-1.3271603E-1,-1.0505863E-1,-5.3392384E-2,-1.6036449E-2,3.5835184E-2,9.858888E-2,1.4280362E-1,2.514989E-1,-3.7552458E-3,-4.5257695E-3,1.0168669E-3,-3.1679927E-3,4.3344081E-4,-1.6563176E-3,3.8662017E-4,-6.958742E-4,6.061488E-4,1.7818888E-3,3.1261349E-3,-1.2270247E-3,3.7571806E-3,5.4441714E-3,6.182019E-3,9.064167E-3],"categories":[],"categories_nodes":[],"categories_segments":[],"categories_sizes":[],"default_left":[0,0,0,0,0,0,0,0,0,0,0,0,0,0,0,0,0,0,0,0,0,0,0,0,0,0,0,0,0,0,0],"id":13,"left_children":[1,3,5,7,9,11,13,15,17,19,21,23,25,27,29,-1,-1,-1,-1,-1,-1,-1,-1,-1,-1,-1,-1,-1,-1,-1,-1],"loss_changes":[3.6749424E1,2.3226662E0,7.835039E0,2.5332642E-1,1.6193366E-1,7.019844E-1,1.8125648E0,6.307125E-2,6.644058E-2,6.321156E-2,3.1981528E-2,3.9910436E-1,1.7189288E-1,3.5829735E-1,4.3467999E-1,0E0,0E0,0E0,0E0,0E0,0E0,0E0,0E0,0E0,0E0,0E0,0E0,0E0,0E0,0E0,0E0],"parents":[2147483647,0,0,1,1,2,2,3,3,4,4,5,5,6,6,7,7,8,8,9,9,10,10,11,11,12,12,13,13,14,14],"right_children":[2,4,6,8,10,12,14,16,18,20,22,24,26,28,30,-1,-1,-1,-1,-1,-1,-1,-1,-1,-1,-1,-1,-1,-1,-1,-1],"split_conditions":[2.1722758E-1,1.1632856E-1,4.103794E-1,5.1282678E-2,1.8630953E-1,3.8722774E-1,5.8168703E-1,1.8976508E-1,3.8664773E-2,9.331944E-2,1.7386858E-1,3.1256726E-1,6.047306E-1,4.9835575E-1,5.957157E-1,-3.7552458E-3,-4.5257695E-3,1.0168669E-3,-3.1679927E-3,4.3344081E-4,-1.6563176E-3,3.8662017E-4,-6.958742E-4,6.061488E-4,1.7818888E-3,3.1261349E-3,-1.2270247E-3,3.7571806E-3,5.4441714E-3,6.182019E-3,9.064167E-3],"split_indices":[6,6,6,6,6,2,6,0,3,3,1,6,1,3,3,0,0,0,0,0,0,0,0,0,0,0,0,0,0,0,0],"split_type":[0,0,0,0,0,0,0,0,0,0,0,0,0,0,0,0,0,0,0,0,0,0,0,0,0,0,0,0,0,0,0],"sum_hessian":[4.164E3,2.09E3,2.074E3,1.433E3,6.57E2,1.299E3,7.75E2,5.98E2,8.35E2,5.05E2,1.52E2,1.086E3,2.13E2,5.6E2,2.15E2,4.28E2,1.7E2,3E0,8.32E2,1.3E1,4.92E2,3E1,1.22E2,6.54E2,4.32E2,2.05E2,8E0,3.88E2,1.72E2,1.16E2,9.9E1],"tree_param":{"num_deleted":"0","num_feature":"7","num_nodes":"31","size_leaf_vector":"1"}},{"base_weights":[4.3741333E-5,-9.0217106E-2,9.108231E-2,-1.1390212E-1,-4.8689317E-2,4.6908308E-2,1.6890907E-1,-1.2853146E-1,-1.01918966E-1,-6.854344E-2,-2.9719437E-2,2.1962138E-2,6.960717E-2,1.3943276E-1,2.424312E-1,-3.674589E-3,-4.3156743E-3,-2.9040598E-3,-3.6110643E-3,2.5337056E-4,-2.1074803E-3,-1.2177004E-3,-2.4973086E-4,4.070139E-4,1.4198086E-3,1.7073975E-3,3.5672786E-3,3.7000636E-3,4.9347146E-3,6.61618E-3,9.606986E-3],"categories":[],"categories_nodes":[],"categories_segments":[],"categories_sizes":[],"default_left":[0,0,0,0,0,0,0,0,0,0,0,0,0,0,0,0,0,0,0,0,0,0,0,0,0,0,0,0,0,0,0],"id":14,"left_children":[1,3,5,7,9,11,13,15,17,19,21,23,25,27,29,-1,-1,-1,-1,-1,-1,-1,-1,-1,-1,-1,-1,-1,-1,-1,-1],"loss_changes":[3.4479446E1,2.0668716E0,7.173891E0,2.2198677E-1,2.8683865E-1,7.538481E-1,1.6045723E0,3.796196E-2,5.8397293E-2,4.9712777E-2,9.129736E-2,1.3499933E-1,4.300666E-1,1.983347E-1,2.9556847E-1,0E0,0E0,0E0,0E0,0E0,0E0,0E0,0E0,0E0,0E0,0E0,0E0,0E0,0E0,0E0,0E0],"parents":[2147483647,0,0,1,1,2,2,3,3,4,4,5,5,6,6,7,7,8,8,9,9,10,10,11,11,12,12,13,13,14,14],"right_children":[2,4,6,8,10,12,14,16,18,20,22,24,26,28,30,-1,-1,-1,-1,-1,-1,-1,-1,-1,-1,-1,-1,-1,-1,-1,-1],"split_conditions":[2.1722758E-1,1.04531534E-1,4.1332373E-1,5.1282678E-2,1.4939465E-1,3.0345896E-1,5.8168703E-1,1.8976508E-1,1.6942503E-1,6.614202E-2,1.9035494E-1,3.1256726E-1,4.0644705E-1,4.760348E-1,6.754832E-1,-3.674589E-3,-4.3156743E-3,-2.9040598E-3,-3.6110643E-3,2.5337056E-4,-2.1074803E-3,-1.2177004E-3,-2.4973086E-4,4.070139E-4,1.4198086E-3,1.7073975E-3,3.5672786E-3,3.7000636E-3,4.9347146E-3,6.61618E-3,9.606986E-3],"split_indices":[6,6,6,6,6,6,6,0,1,4,6,2,2,2,0,0,0,0,0,0,0,0,0,0,0,0,0,0,0,0,0],"split_type":[0,0,0,0,0,0,0,0,0,0,0,0,0,0,0,0,0,0,0,0,0,0,0,0,0,0,0,0,0,0,0],"sum_hessian":[4.194E3,2.106E3,2.088E3,1.34E3,7.66E2,1.333E3,7.55E2,5.99E2,7.41E2,3.73E2,3.93E2,6.36E2,6.97E2,5.41E2,2.14E2,4.36E2,1.63E2,5.85E2,1.56E2,8E0,3.65E2,2.6E2,1.33E2,4.79E2,1.57E2,5.56E2,1.41E2,3.33E2,2.08E2,1.7E2,4.4E1],"tree_param":{"num_deleted":"0","num_feature":"7","num_nodes":"31","size_leaf_vector":"1"}},{"base_weights":[1.8074572E-3,-6.8521634E-2,8.959449E-2,-9.800028E-2,-2.3293378E-2,5.3322498E-2,1.7218743E-1,-1.0927581E-1,-8.238068E-2,-4.2513523E-2,-5.6730933E-3,3.8469683E-2,9.184065E-2,1.53464E-1,2.4654682E-1,-3.7807953E-3,-3.1255756E-3,-2.3491557E-3,-3.014958E-3,5.1095913E-4,-1.3713358E-3,-5.5721763E-4,6.545046E-5,8.666498E-4,2.0276415E-3,2.0125182E-3,3.3657206E-3,4.434116E-3,8.708043E-3,5.580351E-3,8.671252E-3],"categories":[],"categories_nodes":[],"categories_segments":[],"categories_sizes":[],"default_left":[0,0,0,0,0,0,0,0,0,0,0,0,0,0,0,0,0,0,0,0,0,0,0,0,0,0,0,0,0,0,0],"id":15,"left_children":[1,3,5,7,9,11,13,15,17,19,21,23,25,27,29,-1,-1,-1,-1,-1,-1,-1,-1,-1,-1,-1,-1,-1,-1,-1,-1],"loss_changes":[2.5720776E1,3.0815659E0,5.542057E0,2.3756409E-1,3.092981E-1,7.339072E-1,7.4879265E-1,5.593109E-2,3.5769463E-2,8.398634E-2,4.847775E-2,2.5806952E-1,1.728344E-1,3.0864143E-1,2.3434734E-1,0E0,0E0,0E0,0E0,0E0,0E0,0E0,0E0,0E0,0E0,0E0,0E0,0E0,0E0,0E0,0E0],"parents":[2147483647,0,0,1,1,2,2,3,3,4,4,5,5,6,6,7,7,8,8,9,9,10,10,11,11,12,12,13,13,14,14],"right_children":[2,4,6,8,10,12,14,16,18,20,22,24,26,28,30,-1,-1,-1,-1,-1,-1,-1,-1,-1,-1,-1,-1,-1,-1,-1,-1],"split_conditions":[2.5929877E-1,1.16215505E-1,4.6551085E-1,6.2774956E-2,1.7585441E-1,3.8420966E-1,6.296322E-1,3.4811072E-2,1.8626037E-1,1.02393314E-1,2.1019852E-1,3.700483E-1,3.9592803E-1,7.3409975E-1,6.1997825E-1,-3.7807953E-3,-3.1255756E-3,-2.3491557E-3,-3.014958E-3,5.1095913E-4,-1.3713358E-3,-5.5721763E-4,6.545046E-5,8.666498E-4,2.0276415E-3,2.0125182E-3,3.3657206E-3,4.434116E-3,8.708043E-3,5.580351E-3,8.671252E-3],"split_indices":[5,5,5,5,5,5,3,3,1,3,5,2,4,5,5,0,0,0,0,0,0,0,0,0,0,0,0,0,0,0,0],"split_type":[0,0,0,0,0,0,0,0,0,0,0,0,0,0,0,0,0,0,0,0,0,0,0,0,0,0,0,0,0,0,0],"sum_hessian":[4.164E3,2.312E3,1.852E3,1.399E3,9.13E2,1.288E3,5.64E2,8.09E2,5.9E2,4.36E2,4.77E2,9.31E2,3.57E2,4.53E2,1.11E2,1.83E2,6.26E2,4.86E2,1.04E2,2.2E1,4.14E2,1.8E2,2.97E2,7.02E2,2.29E2,1.63E2,1.94E2,4.37E2,1.6E1,4.8E1,6.3E1],"tree_param":{"num_deleted":"0","num_feature":"7","num_nodes":"31","size_leaf_vector":"1"}},{"base_weights":[-4.470374E-4,-8.5325494E-2,8.74645E-2,-1.0916791E-1,-4.175496E-2,4.434435E-2,1.567966E-1,-1.173283E-1,-9.19396E-2,-5.2044824E-2,-1.1996156E-2,3.158725E-2,8.546348E-2,1.3110898E-1,2.3627897E-1,-3.447753E-3,-4.8515047E-3,-2.6922056E-3,-3.8488982E-3,-2.0001598E-3,-1.2103514E-3,-4.9716287E-4,1.1984076E-3,5.9426395E-4,1.4443604E-3,2.2791966E-3,4.1139456E-3,3.482101E-3,5.3063217E-3,6.2054656E-3,9.090218E-3],"categories":[],"categories_nodes":[],"categories_segments":[],"categories_sizes":[],"default_left":[0,0,0,0,0,0,0,0,0,0,0,0,0,0,0,0,0,0,0,0,0,0,0,0,0,0,0,0,0,0,0],"id":16,"left_children":[1,3,5,7,9,11,13,15,17,19,21,23,25,27,29,-1,-1,-1,-1,-1,-1,-1,-1,-1,-1,-1,-1,-1,-1,-1,-1],"loss_changes":[3.1033607E1,2.1936007E0,6.1008224E0,1.8139648E-1,2.2903621E-1,6.5877175E-1,1.5676823E0,7.9981804E-2,2.399087E-2,9.2632055E-2,4.6773545E-2,1.8705404E-1,1.357038E-1,3.883257E-1,3.104496E-1,0E0,0E0,0E0,0E0,0E0,0E0,0E0,0E0,0E0,0E0,0E0,0E0,0E0,0E0,0E0,0E0],"parents":[2147483647,0,0,1,1,2,2,3,3,4,4,5,5,6,6,7,7,8,8,9,9,10,10,11,11,12,12,13,13,14,14],"right_children":[2,4,6,8,10,12,14,16,18,20,22,24,26,28,30,-1,-1,-1,-1,-1,-1,-1,-1,-1,-1,-1,-1,-1,-1,-1,-1],"split_conditions":[2.2508736E-1,1.1055785E-1,4.103794E-1,6.9086365E-2,1.8630953E-1,3.7639412E-1,5.957157E-1,1.4939465E-1,1.4939465E-1,1.3977516E-1,3.3178657E-1,3.0516955E-1,4.905304E-1,5.269095E-1,7.3409975E-1,-3.447753E-3,-4.8515047E-3,-2.6922056E-3,-3.8488982E-3,-2.0001598E-3,-1.2103514E-3,-4.9716287E-4,1.1984076E-3,5.9426395E-4,1.4443604E-3,2.2791966E-3,4.1139456E-3,3.482101E-3,5.3063217E-3,6.2054656E-3,9.090218E-3],"split_indices":[6,6,6,6,6,5,6,5,5,6,5,6,3,3,6,0,0,0,0,0,0,0,0,0,0,0,0,0,0,0,0],"split_type":[0,0,0,0,0,0,0,0,0,0,0,0,0,0,0,0,0,0,0,0,0,0,0,0,0,0,0,0,0,0,0],"sum_hessian":[4.157E3,2.115E3,2.042E3,1.366E3,7.49E2,1.26E3,7.82E2,9.23E2,4.43E2,5.56E2,1.93E2,9.63E2,2.97E2,5.93E2,1.89E2,8.79E2,4.4E1,4.21E2,2.2E1,2.45E2,3.11E2,1.78E2,1.5E1,5.64E2,3.99E2,2.53E2,4.4E1,4.49E2,1.44E2,1.34E2,5.5E1],"tree_param":{"num_deleted":"0","num_feature":"7","num_nodes":"31","size_leaf_vector":"1"}},{"base_weights":[-5.297753E-4,-8.441652E-2,8.287373E-2,-1.0621197E-1,-4.2517915E-2,4.3752674E-2,1.5435904E-1,-1.1414015E-1,-9.165685E-2,-6.0206555E-2,-2.8178275E-2,1.919172E-2,6.530666E-2,1.2963851E-1,2.3055847E-1,-3.2624153E-3,-3.8213942E-3,-3.5299747E-3,-2.688652E-3,-1.5713557E-4,-1.9226599E-3,-1.0735152E-3,-4.5884438E-4,3.282184E-4,1.3085027E-3,1.6224155E-3,3.169848E-3,3.2262462E-3,4.6099327E-3,6.271516E-3,9.002169E-3],"categories":[],"categories_nodes":[],"categories_segments":[],"categories_sizes":[],"default_left":[0,0,0,0,0,0,0,0,0,0,0,0,0,0,0,0,0,0,0,0,0,0,0,0,0,0,0,0,0,0,0],"id":17,"left_children":[1,3,5,7,9,11,13,15,17,19,21,23,25,27,29,-1,-1,-1,-1,-1,-1,-1,-1,-1,-1,-1,-1,-1,-1,-1,-1],"loss_changes":[2.9049253E1,1.885807E0,5.815728E0,1.4659119E-1,1.783942E-1,7.1183014E-1,1.3565063E0,4.876709E-2,1.5126228E-2,6.731033E-2,3.8059145E-2,1.266905E-1,3.191085E-1,2.797165E-1,2.0489216E-1,0E0,0E0,0E0,0E0,0E0,0E0,0E0,0E0,0E0,0E0,0E0,0E0,0E0,0E0,0E0,0E0],"parents":[2147483647,0,0,1,1,2,2,3,3,4,4,5,5,6,6,7,7,8,8,9,9,10,10,11,11,12,12,13,13,14,14],"right_children":[2,4,6,8,10,12,14,16,18,20,22,24,26,28,30,-1,-1,-1,-1,-1,-1,-1,-1,-1,-1,-1,-1,-1,-1,-1,-1],"split_conditions":[2.1722758E-1,1.0837048E-1,4.1740355E-1,6.564557E-2,1.4939465E-1,3.0345896E-1,5.957157E-1,1.1819151E-1,6.0823526E-2,9.9011496E-2,1.8630953E-1,3.1056178E-1,4.0644705E-1,4.6161783E-1,6.754832E-1,-3.2624153E-3,-3.8213942E-3,-3.5299747E-3,-2.688652E-3,-1.5713557E-4,-1.9226599E-3,-1.0735152E-3,-4.5884438E-4,3.282184E-4,1.3085027E-3,1.6224155E-3,3.169848E-3,3.2262462E-3,4.6099327E-3,6.271516E-3,9.002169E-3],"split_indices":[6,6,6,6,6,6,6,0,2,3,6,2,2,3,0,0,0,0,0,0,0,0,0,0,0,0,0,0,0,0,0],"split_type":[0,0,0,0,0,0,0,0,0,0,0,0,0,0,0,0,0,0,0,0,0,0,0,0,0,0,0,0,0,0,0],"sum_hessian":[4.15E3,2.069E3,2.081E3,1.36E3,7.09E2,1.346E3,7.35E2,8.76E2,4.84E2,3.16E2,3.93E2,6.3E2,7.16E2,5.57E2,1.78E2,6.29E2,2.47E2,3.1E1,4.53E2,2.1E1,2.95E2,2.46E2,1.47E2,4.72E2,1.58E2,5.62E2,1.54E2,2.93E2,2.64E2,1.39E2,3.9E1],"tree_param":{"num_deleted":"0","num_feature":"7","num_nodes":"31","size_leaf_vector":"1"}},{"base_weights":[-1.0370669E-3,-8.3321415E-2,8.1600256E-2,-1.0440441E-1,-4.550147E-2,4.2401936E-2,1.4944129E-1,-1.0202158E-1,-1.5323997E-1,-6.1576925E-2,-2.5814658E-2,3.0126175E-2,8.530679E-2,1.217727E-1,2.1881568E-1,-3.20444E-3,-2.415807E-3,1.7246888E-3,-4.7313087E-3,1.4950354E-4,-1.8918306E-3,-9.1719505E-4,7.7594996E-5,6.2700326E-4,1.725366E-3,2.2583709E-3,3.9273733E-3,2.363983E-3,4.1416106E-3,5.9369756E-3,8.405973E-3],"categories":[],"categories_nodes":[],"categories_segments":[],"categories_sizes":[],"default_left":[0,0,0,0,0,0,0,0,0,0,0,0,0,0,0,0,0,0,0,0,0,0,0,0,0,0,0,0,0,0,0],"id":18,"left_children":[1,3,5,7,9,11,13,15,17,19,21,23,25,27,29,-1,-1,-1,-1,-1,-1,-1,-1,-1,-1,-1,-1,-1,-1,-1,-1],"loss_changes":[2.863378E1,1.6776733E0,5.580757E0,1.4192581E-1,2.3798168E-1,6.995077E-1,1.4494419E0,1.24715805E-1,6.6530466E-2,4.1407585E-2,4.6299413E-2,2.6106447E-1,1.255126E-1,3.753271E-1,2.2444534E-1,0E0,0E0,0E0,0E0,0E0,0E0,0E0,0E0,0E0,0E0,0E0,0E0,0E0,0E0,0E0,0E0],"parents":[2147483647,0,0,1,1,2,2,3,3,4,4,5,5,6,6,7,7,8,8,9,9,10,10,11,11,12,12,13,13,14,14],"right_children":[2,4,6,8,10,12,14,16,18,20,22,24,26,28,30,-1,-1,-1,-1,-1,-1,-1,-1,-1,-1,-1,-1,-1,-1,-1,-1],"split_conditions":[2.1722758E-1,1.04531534E-1,4.1740355E-1,2.1722758E-1,1.5740189E-1,3.7882724E-1,5.8168703E-1,7.939402E-2,9.0935454E-2,6.614202E-2,2.6318192E-1,3.36761E-1,5.101577E-1,3.8420966E-1,7.3409975E-1,-3.20444E-3,-2.415807E-3,1.7246888E-3,-4.7313087E-3,1.4950354E-4,-1.8918306E-3,-9.1719505E-4,7.7594996E-5,6.2700326E-4,1.725366E-3,2.2583709E-3,3.9273733E-3,2.363983E-3,4.1416106E-3,5.9369756E-3,8.405973E-3],"split_indices":[6,6,6,5,6,5,6,6,0,4,5,6,5,5,6,0,0,0,0,0,0,0,0,0,0,0,0,0,0,0,0],"split_type":[0,0,0,0,0,0,0,0,0,0,0,0,0,0,0,0,0,0,0,0,0,0,0,0,0,0,0,0,0,0,0],"sum_hessian":[4.209E3,2.109E3,2.1E3,1.353E3,7.56E2,1.332E3,7.68E2,1.293E3,6E1,4.15E2,3.41E2,1.037E3,2.95E2,5.51E2,2.17E2,1.054E3,2.39E2,1E0,5.9E1,9E0,4.06E2,2.92E2,4.9E1,7.77E2,2.6E2,2.44E2,5.1E1,1.53E2,3.98E2,1.65E2,5.2E1],"tree_param":{"num_deleted":"0","num_feature":"7","num_nodes":"31","size_leaf_vector":"1"}},{"base_weights":[9.4256154E-4,-5.9782244E-2,8.1738345E-2,-8.3280995E-2,-1.577759E-2,5.177456E-2,1.4702158E-1,-9.697102E-2,-6.847152E-2,-2.9089935E-2,4.298922E-3,4.0350042E-2,8.580504E-2,1.2739673E-1,2.2369887E-1,-2.7487539E-3,-3.3909644E-3,-1.908501E-3,-2.5642556E-3,1.1580024E-3,-9.0400747E-4,-4.3958024E-4,4.5439575E-4,1.0419947E-3,2.4662132E-3,2.6379123E-3,-4.7662654E-3,5.851993E-3,3.43788E-3,1.0498132E-3,6.8558175E-3],"categories":[],"categories_nodes":[],"categories_segments":[],"categories_sizes":[],"default_left":[0,0,0,0,0,0,0,0,0,0,0,0,0,0,0,0,0,0,0,0,0,0,0,0,0,0,0,0,0,0,0],"id":19,"left_children":[1,3,5,7,9,11,13,15,17,19,21,23,25,27,29,-1,-1,-1,-1,-1,-1,-1,-1,-1,-1,-1,-1,-1,-1,-1,-1],"loss_changes":[2.0410221E1,2.454565E0,3.484086E0,3.072052E-1,2.2142087E-1,4.727955E-1,8.156824E-1,5.850458E-2,5.622697E-2,3.634411E-2,6.8268724E-2,2.1320736E-1,1.7362118E-1,3.6657906E-1,9.496164E-2,0E0,0E0,0E0,0E0,0E0,0E0,0E0,0E0,0E0,0E0,0E0,0E0,0E0,0E0,0E0,0E0],"parents":[2147483647,0,0,1,1,2,2,3,3,4,4,5,5,6,6,7,7,8,8,9,9,10,10,11,11,12,12,13,13,14,14],"right_children":[2,4,6,8,10,12,14,16,18,20,22,24,26,28,30,-1,-1,-1,-1,-1,-1,-1,-1,-1,-1,-1,-1,-1,-1,-1,-1],"split_conditions":[2.6889366E-1,1.3241185E-1,4.6551085E-1,6.2774956E-2,2.1722758E-1,3.9255112E-1,6.1997825E-1,1.1819151E-1,2.1675079E-1,8.123731E-2,2.3821647E-1,4.414105E-1,7.3409975E-1,2.6639664E-1,4.7383758E-1,-2.7487539E-3,-3.3909644E-3,-1.908501E-3,-2.5642556E-3,1.1580024E-3,-9.0400747E-4,-4.3958024E-4,4.5439575E-4,1.0419947E-3,2.4662132E-3,2.6379123E-3,-4.7662654E-3,5.851993E-3,3.43788E-3,1.0498132E-3,6.8558175E-3],"split_indices":[5,5,5,5,5,5,2,0,0,4,4,4,1,2,5,0,0,0,0,0,0,0,0,0,0,0,0,0,0,0,0],"split_type":[0,0,0,0,0,0,0,0,0,0,0,0,0,0,0,0,0,0,0,0,0,0,0,0,0,0,0,0,0,0,0],"sum_hessian":[4.158E3,2.374E3,1.784E3,1.547E3,8.27E2,1.224E3,5.6E2,8.01E2,7.46E2,4.97E2,3.3E2,9.18E2,3.06E2,4.48E2,1.12E2,6.06E2,1.95E2,5.84E2,1.62E2,7E0,4.9E2,1.2E2,2.1E2,8.11E2,1.07E2,3.04E2,2E0,6.9E1,3.79E2,3E0,1.09E2],"tree_param":{"num_deleted":"0","num_feature":"7","num_nodes":"31","size_leaf_vector":"1"}},{"base_weights":[-8.0487475E-4,-7.213278E-2,8.1037626E-2,-9.644816E-2,-2.9183632E-2,4.147541E-2,1.4094073E-1,-1.1031407E-1,-8.64448E-2,-4.388013E-2,-3.4281043E-3,2.6572207E-2,6.777454E-2,1.183847E-1,2.131387E-1,-3.212234E-3,-4.815688E-3,6.448319E-3,-2.6119617E-3,-1.7651469E-3,-1.1200837E-3,-2.786337E-4,1.301271E-3,6.416716E-4,2.8328937E-3,1.8127405E-3,2.9445617E-3,2.505517E-3,4.047368E-3,5.5741635E-3,8.352728E-3],"categories":[],"categories_nodes":[],"categories_segments":[],"categories_sizes":[],"default_left":[0,0,0,0,0,0,0,0,0,0,0,0,0,0,0,0,0,0,0,0,0,0,0,0,0,0,0,0,0,0,0],"id":20,"left_children":[1,3,5,7,9,11,13,15,17,19,21,23,25,27,29,-1,-1,-1,-1,-1,-1,-1,-1,-1,-1,-1,-1,-1,-1,-1,-1],"loss_changes":[2.4407238E1,2.3302069E0,4.608348E0,1.8825912E-1,3.0606902E-1,4.5833826E-1,1.2352238E0,7.94301E-2,1.7451763E-1,4.8214436E-2,8.1308275E-2,2.6211917E-1,8.873594E-2,3.2988834E-1,2.7482414E-1,0E0,0E0,0E0,0E0,0E0,0E0,0E0,0E0,0E0,0E0,0E0,0E0,0E0,0E0,0E0,0E0],"parents":[2147483647,0,0,1,1,2,2,3,3,4,4,5,5,6,6,7,7,8,8,9,9,10,10,11,11,12,12,13,13,14,14],"right_children":[2,4,6,8,10,12,14,16,18,20,22,24,26,28,30,-1,-1,-1,-1,-1,-1,-1,-1,-1,-1,-1,-1,-1,-1,-1,-1],"split_conditions":[2.4065945E-1,1.1449019E-1,4.103794E-1,5.1282678E-2,1.8630953E-1,3.3952346E-1,5.957157E-1,7.599255E-2,2.6130425E-2,1.3241185E-1,3.173549E-1,4.1740355E-1,4.6551085E-1,4.0644705E-1,7.3409975E-1,-3.212234E-3,-4.815688E-3,6.448319E-3,-2.6119617E-3,-1.7651469E-3,-1.1200837E-3,-2.786337E-4,1.301271E-3,6.416716E-4,2.8328937E-3,1.8127405E-3,2.9445617E-3,2.505517E-3,4.047368E-3,5.5741635E-3,8.352728E-3],"split_indices":[6,6,6,6,6,6,6,5,5,5,5,4,5,5,6,0,0,0,0,0,0,0,0,0,0,0,0,0,0,0,0],"split_type":[0,0,0,0,0,0,0,0,0,0,0,0,0,0,0,0,0,0,0,0,0,0,0,0,0,0,0,0,0,0,0],"sum_hessian":[4.179E3,2.233E3,1.946E3,1.425E3,8.08E2,1.173E3,7.73E2,5.93E2,8.32E2,5.14E2,2.94E2,7.5E2,4.23E2,5.91E2,1.82E2,5.6E2,3.3E1,1E0,8.31E2,1.54E2,3.6E2,2.62E2,3.2E1,6.98E2,5.2E1,3.43E2,8E1,1.92E2,3.99E2,1.31E2,5.1E1],"tree_param":{"num_deleted":"0","num_feature":"7","num_nodes":"31","size_leaf_vector":"1"}},{"base_weights":[-1.3673783E-3,-7.486652E-2,7.3460944E-2,-9.409951E-2,-3.898888E-2,3.923442E-2,1.3898152E-1,-1.0576132E-1,-8.532592E-2,-5.552303E-2,-2.4474524E-2,2.7877508E-2,9.0412445E-2,1.15785986E-1,2.1033268E-1,-3.0590917E-3,-3.7880118E-3,6.3515943E-3,-2.5793957E-3,6.8275677E-4,-1.7761815E-3,-1.0362577E-3,-4.2375858E-4,1.7536875E-3,5.4845057E-4,2.8395508E-3,-3.934622E-3,3.5352048E-3,-2.518116E-3,5.317223E-3,7.2748926E-3],"categories":[],"categories_nodes":[],"categories_segments":[],"categories_sizes":[],"default_left":[0,0,0,0,0,0,0,0,0,0,0,0,0,0,0,0,0,0,0,0,0,0,0,0,0,0,0,0,0,0,0],"id":21,"left_children":[1,3,5,7,9,11,13,15,17,19,21,23,25,27,29,-1,-1,-1,-1,-1,-1,-1,-1,-1,-1,-1,-1,-1,-1,-1,-1],"loss_changes":[2.2719748E1,1.4343624E0,4.5850306E0,1.2971687E-1,1.7358828E-1,7.798073E-1,1.137476E0,3.206396E-2,1.695242E-1,9.937382E-2,4.0146142E-2,3.2258266E-1,2.415973E-1,2.2815323E-1,1.3902569E-1,0E0,0E0,0E0,0E0,0E0,0E0,0E0,0E0,0E0,0E0,0E0,0E0,0E0,0E0,0E0,0E0],"parents":[2147483647,0,0,1,1,2,2,3,3,4,4,5,5,6,6,7,7,8,8,9,9,10,10,11,11,12,12,13,13,14,14],"right_children":[2,4,6,8,10,12,14,16,18,20,22,24,26,28,30,-1,-1,-1,-1,-1,-1,-1,-1,-1,-1,-1,-1,-1,-1,-1,-1],"split_conditions":[2.1722758E-1,1.0837048E-1,4.260498E-1,5.1282678E-2,1.4939465E-1,3.8722774E-1,5.957157E-1,2.4789004E-1,2.6130425E-2,9.331944E-2,1.8147767E-1,1.9481322E-1,6.403625E-1,7.693139E-1,5.957157E-1,-3.0590917E-3,-3.7880118E-3,6.3515943E-3,-2.5793957E-3,6.8275677E-4,-1.7761815E-3,-1.0362577E-3,-4.2375858E-4,1.7536875E-3,5.4845057E-4,2.8395508E-3,-3.934622E-3,3.5352048E-3,-2.518116E-3,5.317223E-3,7.2748926E-3],"split_indices":[6,6,6,6,6,2,6,2,5,3,5,2,1,2,3,0,0,0,0,0,0,0,0,0,0,0,0,0,0,0,0],"split_type":[0,0,0,0,0,0,0,0,0,0,0,0,0,0,0,0,0,0,0,0,0,0,0,0,0,0,0,0,0,0,0],"sum_hessian":[4.129E3,2.083E3,2.046E3,1.355E3,7.28E2,1.345E3,7.01E2,5.77E2,7.78E2,3.39E2,3.89E2,1.102E3,2.43E2,5.31E2,1.7E2,4.92E2,8.5E1,1E0,7.77E2,1.5E1,3.24E2,1.96E2,1.93E2,2.62E2,8.4E2,2.39E2,4E0,5.26E2,5E0,8.7E1,8.3E1],"tree_param":{"num_deleted":"0","num_feature":"7","num_nodes":"31","size_leaf_vector":"1"}},{"base_weights":[7.932126E-4,-6.7238696E-2,7.606216E-2,-9.000622E-2,-2.8278496E-2,4.019241E-2,1.3505392E-1,-1.0390411E-1,-8.122425E-2,-4.0064983E-2,-4.6880944E-3,2.758169E-2,6.9852166E-2,1.0968027E-1,2.0148058E-1,-3.0395205E-3,-4.563121E-3,3.0451284E-3,-2.4532669E-3,-1.5107425E-3,-9.011374E-4,-3.097368E-4,1.0035521E-3,1.7813189E-3,5.929398E-4,1.7046308E-3,2.863461E-3,1.9188806E-3,3.7451098E-3,5.3811884E-3,8.348932E-3],"categories":[],"categories_nodes":[],"categories_segments":[],"categories_sizes":[],"default_left":[0,0,0,0,0,0,0,0,0,0,0,0,0,0,0,0,0,0,0,0,0,0,0,0,0,0,0,0,0,0,0],"id":22,"left_children":[1,3,5,7,9,11,13,15,17,19,21,23,25,27,29,-1,-1,-1,-1,-1,-1,-1,-1,-1,-1,-1,-1,-1,-1,-1,-1],"loss_changes":[2.1291822E1,1.934722E0,4.1715946E0,1.5974712E-1,2.2419691E-1,4.5775747E-1,1.2352743E0,5.0670624E-2,9.382963E-2,5.4014087E-2,5.838831E-2,2.1357119E-1,1.1665666E-1,3.6758232E-1,2.9822063E-1,0E0,0E0,0E0,0E0,0E0,0E0,0E0,0E0,0E0,0E0,0E0,0E0,0E0,0E0,0E0,0E0],"parents":[2147483647,0,0,1,1,2,2,3,3,4,4,5,5,6,6,7,7,8,8,9,9,10,10,11,11,12,12,13,13,14,14],"right_children":[2,4,6,8,10,12,14,16,18,20,22,24,26,28,30,-1,-1,-1,-1,-1,-1,-1,-1,-1,-1,-1,-1,-1,-1,-1,-1],"split_conditions":[2.3821647E-1,1.1449019E-1,4.1740355E-1,4.9601603E-2,1.9035494E-1,3.6198208E-1,5.8168703E-1,1.9035494E-1,2.6130425E-2,1.4939465E-1,3.0516955E-1,1.7392264E-1,4.0287846E-1,3.8420966E-1,6.754832E-1,-3.0395205E-3,-4.563121E-3,3.0451284E-3,-2.4532669E-3,-1.5107425E-3,-9.011374E-4,-3.097368E-4,1.0035521E-3,1.7813189E-3,5.929398E-4,1.7046308E-3,2.863461E-3,1.9188806E-3,3.7451098E-3,5.3811884E-3,8.348932E-3],"split_indices":[6,6,6,6,6,5,6,5,5,5,4,2,2,5,0,0,0,0,0,0,0,0,0,0,0,0,0,0,0,0,0],"split_type":[0,0,0,0,0,0,0,0,0,0,0,0,0,0,0,0,0,0,0,0,0,0,0,0,0,0,0,0,0,0,0],"sum_hessian":[4.156E3,2.183E3,1.973E3,1.377E3,8.06E2,1.228E3,7.45E2,5.29E2,8.48E2,5.37E2,2.69E2,8.63E2,3.65E2,5.41E2,2.04E2,5.05E2,2.4E1,2E0,8.46E2,2.63E2,2.74E2,2.35E2,3.4E1,1.69E2,6.94E2,2.44E2,1.21E2,1.36E2,4.05E2,1.61E2,4.3E1],"tree_param":{"num_deleted":"0","num_feature":"7","num_nodes":"31","size_leaf_vector":"1"}},{"base_weights":[-2.8339948E-4,-6.604838E-2,7.3252134E-2,-8.555923E-2,-2.6264906E-2,3.76001E-2,1.2850334E-1,-9.974242E-2,-7.678307E-2,-3.9142534E-2,-6.724676E-3,2.6451942E-2,7.4135296E-2,1.06888555E-1,1.8594258E-1,-2.9287387E-3,-4.0993574E-3,6.210644E-3,-2.3195494E-3,-1.4201618E-3,-7.966295E-4,-4.9831456E-4,3.1014212E-4,1.6483469E-3,5.7353935E-4,1.9645938E-3,3.7317353E-3,3.2664095E-3,-4.127006E-3,4.967608E-3,7.483381E-3],"categories":[],"categories_nodes":[],"categories_segments":[],"categories_sizes":[],"default_left":[0,0,0,0,0,0,0,0,0,0,0,0,0,0,0,0,0,0,0,0,0,0,0,0,0,0,0,0,0,0,0],"id":23,"left_children":[1,3,5,7,9,11,13,15,17,19,21,23,25,27,29,-1,-1,-1,-1,-1,-1,-1,-1,-1,-1,-1,-1,-1,-1,-1,-1],"loss_changes":[2.0200237E1,1.7092934E0,3.8796482E0,1.7643929E-1,1.826731E-1,4.8679948E-1,9.398327E-1,3.0581474E-2,1.5545702E-1,4.393381E-2,4.908866E-2,1.9140744E-1,1.1355746E-1,2.8958845E-1,2.301526E-1,0E0,0E0,0E0,0E0,0E0,0E0,0E0,0E0,0E0,0E0,0E0,0E0,0E0,0E0,0E0,0E0],"parents":[2147483647,0,0,1,1,2,2,3,3,4,4,5,5,6,6,7,7,8,8,9,9,10,10,11,11,12,12,13,13,14,14],"right_children":[2,4,6,8,10,12,14,16,18,20,22,24,26,28,30,-1,-1,-1,-1,-1,-1,-1,-1,-1,-1,-1,-1,-1,-1,-1,-1],"split_conditions":[2.3821647E-1,1.23455934E-1,4.1740355E-1,4.9601603E-2,1.8630953E-1,3.8420966E-1,5.8168703E-1,6.9086365E-2,2.6130425E-2,1.6455875E-1,2.4789004E-1,1.9481322E-1,4.9451187E-1,7.693139E-1,7.3409975E-1,-2.9287387E-3,-4.0993574E-3,6.210644E-3,-2.3195494E-3,-1.4201618E-3,-7.966295E-4,-4.9831456E-4,3.1014212E-4,1.6483469E-3,5.7353935E-4,1.9645938E-3,3.7317353E-3,3.2664095E-3,-4.127006E-3,4.967608E-3,7.483381E-3],"split_indices":[6,6,6,6,6,5,6,5,5,5,2,2,3,2,6,0,0,0,0,0,0,0,0,0,0,0,0,0,0,0,0],"split_type":[0,0,0,0,0,0,0,0,0,0,0,0,0,0,0,0,0,0,0,0,0,0,0,0,0,0,0,0,0,0,0],"sum_hessian":[4.175E3,2.204E3,1.971E3,1.478E3,7.26E2,1.199E3,7.72E2,5.61E2,9.17E2,4.37E2,2.89E2,9.2E2,2.79E2,5.63E2,2.09E2,5.34E2,2.7E1,1E0,9.16E2,2.63E2,1.74E2,1.83E2,1.06E2,1.87E2,7.33E2,2.4E2,3.9E1,5.59E2,4E0,1.61E2,4.8E1],"tree_param":{"num_deleted":"0","num_feature":"7","num_nodes":"31","size_leaf_vector":"1"}},{"base_weights":[2.0776196E-4,-6.422532E-2,7.203631E-2,-8.590812E-2,-3.1971868E-2,4.3712717E-2,1.3133134E-1,-9.698745E-2,-7.691465E-2,-4.9219012E-2,-1.574922E-2,2.4039729E-2,6.3232146E-2,1.0846809E-1,1.7819059E-1,-3.6538073E-3,-2.809381E-3,2.9484958E-3,-2.3259544E-3,1.6567606E-4,-1.5532656E-3,-8.3359075E-4,-1.8314851E-4,6.1657885E-4,3.378804E-3,1.6866614E-3,3.617301E-3,3.2866027E-3,-5.3571365E-3,4.777183E-3,7.4655055E-3],"categories":[],"categories_nodes":[],"categories_segments":[],"categories_sizes":[],"default_left":[0,0,0,0,0,0,0,0,0,0,0,0,0,0,0,0,0,0,0,0,0,0,0,0,0,0,0,0,0,0,0],"id":24,"left_children":[1,3,5,7,9,11,13,15,17,19,21,23,25,27,29,-1,-1,-1,-1,-1,-1,-1,-1,-1,-1,-1,-1,-1,-1,-1,-1],"loss_changes":[1.9271553E1,1.5323162E0,3.3010921E0,1.23270035E-1,2.4656314E-1,5.1074314E-1,6.6205406E-1,3.7000656E-2,8.64439E-2,6.0183406E-2,5.288323E-2,2.0342046E-1,2.621529E-1,1.5352297E-1,2.3756313E-1,0E0,0E0,0E0,0E0,0E0,0E0,0E0,0E0,0E0,0E0,0E0,0E0,0E0,0E0,0E0,0E0],"parents":[2147483647,0,0,1,1,2,2,3,3,4,4,5,5,6,6,7,7,8,8,9,9,10,10,11,11,12,12,13,13,14,14],"right_children":[2,4,6,8,10,12,14,16,18,20,22,24,26,28,30,-1,-1,-1,-1,-1,-1,-1,-1,-1,-1,-1,-1,-1,-1,-1,-1],"split_conditions":[2.3821647E-1,1.04531534E-1,4.4553456E-1,5.1282678E-2,1.593484E-1,3.2558823E-1,5.8168703E-1,2.7836079E-2,3.8664773E-2,9.331944E-2,1.9035494E-1,4.414105E-1,4.9835575E-1,8.0888313E-1,6.754832E-1,-3.6538073E-3,-2.809381E-3,2.9484958E-3,-2.3259544E-3,1.6567606E-4,-1.5532656E-3,-8.3359075E-4,-1.8314851E-4,6.1657885E-4,3.378804E-3,1.6866614E-3,3.617301E-3,3.2866027E-3,-5.3571365E-3,4.777183E-3,7.4655055E-3],"split_indices":[6,6,6,6,6,6,6,4,3,3,6,4,3,1,0,0,0,0,0,0,0,0,0,0,0,0,0,0,0,0,0],"split_type":[0,0,0,0,0,0,0,0,0,0,0,0,0,0,0,0,0,0,0,0,0,0,0,0,0,0,0,0,0,0,0],"sum_hessian":[4.162E3,2.194E3,1.968E3,1.311E3,8.83E2,1.333E3,6.35E2,5.83E2,7.28E2,4.27E2,4.56E2,6.65E2,6.68E2,4.29E2,2.06E2,6.5E1,5.18E2,2E0,7.26E2,1.9E1,4.08E2,2.02E2,2.54E2,6.41E2,2.4E1,5.97E2,7.1E1,4.28E2,1E0,1.65E2,4.1E1],"tree_param":{"num_deleted":"0","num_feature":"7","num_nodes":"31","size_leaf_vector":"1"}},{"base_weights":[-6.0713914E-4,-6.5253586E-2,6.7127004E-2,-8.321282E-2,-3.3603106E-2,3.411697E-2,1.221566E-1,-9.397625E-2,-7.473968E-2,-5.1261675E-2,-1.8884752E-2,2.4107141E-2,6.672678E-2,1.02938056E-1,1.8018079E-1,-2.7496144E-3,-3.9330767E-3,6.073257E-3,-2.2608526E-3,1.3531053E-4,-1.607143E-3,-8.642279E-4,4.3402444E-5,1.4818913E-3,5.253438E-4,1.8367047E-3,4.229605E-3,2.6175878E-3,4.144727E-3,4.7623096E-3,7.4311593E-3],"categories":[],"categories_nodes":[],"categories_segments":[],"categories_sizes":[],"default_left":[0,0,0,0,0,0,0,0,0,0,0,0,0,0,0,0,0,0,0,0,0,0,0,0,0,0,0,0,0,0,0],"id":25,"left_children":[1,3,5,7,9,11,13,15,17,19,21,23,25,27,29,-1,-1,-1,-1,-1,-1,-1,-1,-1,-1,-1,-1,-1,-1,-1,-1],"loss_changes":[1.83996E1,1.2193041E0,3.7233505E0,1.1801052E-1,2.0175785E-1,4.175129E-1,8.38995E-1,3.9718628E-2,1.483717E-1,4.584396E-2,8.618736E-2,1.63266E-1,1.14379406E-1,3.0835056E-1,2.3571014E-1,0E0,0E0,0E0,0E0,0E0,0E0,0E0,0E0,0E0,0E0,0E0,0E0,0E0,0E0,0E0,0E0],"parents":[2147483647,0,0,1,1,2,2,3,3,4,4,5,5,6,6,7,7,8,8,9,9,10,10,11,11,12,12,13,13,14,14],"right_children":[2,4,6,8,10,12,14,16,18,20,22,24,26,28,30,-1,-1,-1,-1,-1,-1,-1,-1,-1,-1,-1,-1,-1,-1,-1,-1],"split_conditions":[2.2804645E-1,1.0837048E-1,4.1332373E-1,5.1282678E-2,1.5526368E-1,3.7882724E-1,5.957157E-1,6.9086365E-2,2.6130425E-2,9.331944E-2,2.1376713E-1,1.9481322E-1,5.5126053E-1,5.101577E-1,6.754832E-1,-2.7496144E-3,-3.9330767E-3,6.073257E-3,-2.2608526E-3,1.3531053E-4,-1.607143E-3,-8.642279E-4,4.3402444E-5,1.4818913E-3,5.253438E-4,1.8367047E-3,4.229605E-3,2.6175878E-3,4.144727E-3,4.7623096E-3,7.4311593E-3],"split_indices":[6,6,6,6,6,5,6,5,5,3,5,2,3,3,0,0,0,0,0,0,0,0,0,0,0,0,0,0,0,0,0],"split_type":[0,0,0,0,0,0,0,0,0,0,0,0,0,0,0,0,0,0,0,0,0,0,0,0,0,0,0,0,0,0,0],"sum_hessian":[4.2E3,2.149E3,2.051E3,1.37E3,7.79E2,1.283E3,7.68E2,5.99E2,7.71E2,3.53E2,4.26E2,9.83E2,3E2,5.79E2,1.89E2,5.67E2,3.2E1,1E0,7.7E2,1.4E1,3.39E2,2.86E2,1.4E2,2.02E2,7.81E2,2.81E2,1.9E1,4.03E2,1.76E2,1.46E2,4.3E1],"tree_param":{"num_deleted":"0","num_feature":"7","num_nodes":"31","size_leaf_vector":"1"}},{"base_weights":[-2.2577852E-4,-5.821232E-2,7.086466E-2,-7.588943E-2,-1.6403541E-2,3.7090518E-2,1.1812677E-1,-8.4281385E-2,-5.7706144E-2,-2.9715518E-2,-4.060546E-3,2.930104E-2,7.9572774E-2,9.8949954E-2,1.6835026E-1,-2.382133E-3,-2.9944272E-3,-1.6530703E-3,-2.5016265E-3,5.725963E-5,-9.501767E-4,-3.97423E-4,2.4285256E-4,1.7745331E-3,6.3605956E-4,4.7198692E-4,2.80011E-3,2.3580284E-3,3.579268E-3,4.4963527E-3,6.638592E-3],"categories":[],"categories_nodes":[],"categories_segments":[],"categories_sizes":[],"default_left":[0,0,0,0,0,0,0,0,0,0,0,0,0,0,0,0,0,0,0,0,0,0,0,0,0,0,0,0,0,0,0],"id":26,"left_children":[1,3,5,7,9,11,13,15,17,19,21,23,25,27,29,-1,-1,-1,-1,-1,-1,-1,-1,-1,-1,-1,-1,-1,-1,-1,-1],"loss_changes":[1.7095133E1,1.6867647E0,2.969409E0,2.4004936E-1,1.1160992E-1,3.5770357E-1,7.3072815E-1,7.509947E-2,2.950859E-2,2.0298392E-2,3.963927E-2,2.2140443E-1,1.4615428E-1,2.2427893E-1,1.751113E-1,0E0,0E0,0E0,0E0,0E0,0E0,0E0,0E0,0E0,0E0,0E0,0E0,0E0,0E0,0E0,0E0],"parents":[2147483647,0,0,1,1,2,2,3,3,4,4,5,5,6,6,7,7,8,8,9,9,10,10,11,11,12,12,13,13,14,14],"right_children":[2,4,6,8,10,12,14,16,18,20,22,24,26,28,30,-1,-1,-1,-1,-1,-1,-1,-1,-1,-1,-1,-1,-1,-1,-1,-1],"split_conditions":[2.525941E-1,1.3977516E-1,4.103794E-1,8.256447E-2,1.9035494E-1,4.0644705E-1,5.8168703E-1,1.0756926E-1,3.173549E-1,1.424295E-1,2.4789004E-1,1.9481322E-1,3.3952346E-1,4.4553456E-1,7.3409975E-1,-2.382133E-3,-2.9944272E-3,-1.6530703E-3,-2.5016265E-3,5.725963E-5,-9.501767E-4,-3.97423E-4,2.4285256E-4,1.7745331E-3,6.3605956E-4,4.7198692E-4,2.80011E-3,2.3580284E-3,3.579268E-3,4.4963527E-3,6.638592E-3],"split_indices":[6,6,6,6,6,2,6,1,3,6,2,2,3,3,6,0,0,0,0,0,0,0,0,0,0,0,0,0,0,0,0],"split_type":[0,0,0,0,0,0,0,0,0,0,0,0,0,0,0,0,0,0,0,0,0,0,0,0,0,0,0,0,0,0,0],"sum_hessian":[4.145E3,2.283E3,1.862E3,1.604E3,6.79E2,1.087E3,7.75E2,1.095E3,5.09E2,3.26E2,3.53E2,9.2E2,1.67E2,5.63E2,2.12E2,8.38E2,2.57E2,4.65E2,4.4E1,1.9E1,3.07E2,2.01E2,1.52E2,1.95E2,7.25E2,3E1,1.37E2,2.84E2,2.79E2,1.6E2,5.2E1],"tree_param":{"num_deleted":"0","num_feature":"7","num_nodes":"31","size_leaf_vector":"1"}},{"base_weights":[-9.7406555E-6,-5.562307E-2,7.00946E-2,-7.764159E-2,-2.1109186E-2,4.1006655E-2,1.18835256E-1,-9.385362E-2,-7.270931E-2,-3.4984324E-2,-2.8581016E-3,3.1638384E-2,8.3279766E-2,9.5563E-2,1.6896513E-1,-2.3794933E-3,-2.9829289E-3,-8.1377535E-4,-2.226486E-3,4.6180454E-4,-1.1296839E-3,-3.7285153E-4,2.536076E-4,1.9083743E-3,6.498982E-4,2.6156215E-3,-1.3083915E-3,4.2266436E-3,2.587772E-3,4.528928E-3,6.685093E-3],"categories":[],"categories_nodes":[],"categories_segments":[],"categories_sizes":[],"default_left":[0,0,0,0,0,0,0,0,0,0,0,0,0,0,0,0,0,0,0,0,0,0,0,0,0,0,0,0,0,0,0],"id":27,"left_children":[1,3,5,7,9,11,13,15,17,19,21,23,25,27,29,-1,-1,-1,-1,-1,-1,-1,-1,-1,-1,-1,-1,-1,-1,-1,-1],"loss_changes":[1.6472158E1,1.7887902E0,2.6449308E0,1.08161926E-1,2.326242E-1,4.6150744E-1,7.9816437E-1,1.9031763E-2,7.402611E-2,7.084072E-2,4.3190975E-2,3.0512816E-1,1.089226E-1,1.898427E-1,1.7970037E-1,0E0,0E0,0E0,0E0,0E0,0E0,0E0,0E0,0E0,0E0,0E0,0E0,0E0,0E0,0E0,0E0],"parents":[2147483647,0,0,1,1,2,2,3,3,4,4,5,5,6,6,7,7,8,8,9,9,10,10,11,11,12,12,13,13,14,14],"right_children":[2,4,6,8,10,12,14,16,18,20,22,24,26,28,30,-1,-1,-1,-1,-1,-1,-1,-1,-1,-1,-1,-1,-1,-1,-1,-1],"split_conditions":[2.576914E-1,1.1632856E-1,4.3438634E-1,3.920055E-2,1.8630953E-1,4.0644705E-1,5.8168703E-1,2.9035443E-2,4.0218048E-2,1.0242773E-1,2.4789004E-1,2.0057903E-1,6.403625E-1,2.6639664E-1,7.3409975E-1,-2.3794933E-3,-2.9829289E-3,-8.1377535E-4,-2.226486E-3,4.6180454E-4,-1.1296839E-3,-3.7285153E-4,2.536076E-4,1.9083743E-3,6.498982E-4,2.6156215E-3,-1.3083915E-3,4.2266436E-3,2.587772E-3,4.528928E-3,6.685093E-3],"split_indices":[6,6,6,6,6,2,6,6,6,4,2,2,1,2,6,0,0,0,0,0,0,0,0,0,0,0,0,0,0,0,0],"split_type":[0,0,0,0,0,0,0,0,0,0,0,0,0,0,0,0,0,0,0,0,0,0,0,0,0,0,0,0,0,0,0],"sum_hessian":[4.223E3,2.355E3,1.868E3,1.437E3,9.18E2,1.171E3,6.97E2,3.31E2,1.106E3,5.21E2,3.97E2,9.6E2,2.11E2,4.78E2,2.19E2,9.6E1,2.35E2,3.6E1,1.07E3,2.6E1,4.95E2,2.15E2,1.82E2,2.27E2,7.33E2,2.05E2,6E0,7.9E1,3.99E2,1.67E2,5.2E1],"tree_param":{"num_deleted":"0","num_feature":"7","num_nodes":"31","size_leaf_vector":"1"}},{"base_weights":[-2.8368336E-4,-5.599466E-2,6.5975234E-2,-7.476913E-2,-2.090526E-2,3.925035E-2,1.1915445E-1,-8.3355576E-2,-6.264379E-2,-3.3880882E-2,-4.8457026E-3,2.7776632E-2,6.970118E-2,1.06831245E-1,1.9930384E-1,-2.428068E-3,-3.8303388E-3,-1.8179413E-3,-2.9827834E-3,-1.2760621E-3,-6.321731E-4,-4.903652E-4,3.2624588E-4,6.9710484E-4,1.7611289E-3,1.7629453E-3,3.4407417E-3,4.5997812E-3,2.830772E-3,6.3836905E-3,3.0196875E-3],"categories":[],"categories_nodes":[],"categories_segments":[],"categories_sizes":[],"default_left":[0,0,0,0,0,0,0,0,0,0,0,0,0,0,0,0,0,0,0,0,0,0,0,0,0,0,0,0,0,0,0],"id":28,"left_children":[1,3,5,7,9,11,13,15,17,19,21,23,25,27,29,-1,-1,-1,-1,-1,-1,-1,-1,-1,-1,-1,-1,-1,-1,-1,-1],"loss_changes":[1.5451989E1,1.4965134E0,2.7126732E0,1.4897156E-1,1.6529176E-1,4.4317937E-1,6.0984707E-1,8.233833E-2,4.0477514E-2,4.776728E-2,6.4536646E-2,1.2879187E-1,1.6448593E-1,3.0795193E-1,9.033036E-2,0E0,0E0,0E0,0E0,0E0,0E0,0E0,0E0,0E0,0E0,0E0,0E0,0E0,0E0,0E0,0E0],"parents":[2147483647,0,0,1,1,2,2,3,3,4,4,5,5,6,6,7,7,8,8,9,9,10,10,11,11,12,12,13,13,14,14],"right_children":[2,4,6,8,10,12,14,16,18,20,22,24,26,28,30,-1,-1,-1,-1,-1,-1,-1,-1,-1,-1,-1,-1,-1,-1,-1,-1],"split_conditions":[2.525941E-1,1.23455934E-1,4.501305E-1,6.564557E-2,1.8630953E-1,3.8722774E-1,6.5084714E-1,1.9035494E-1,2.1019852E-1,1.6689359E-1,2.4789004E-1,3.9592803E-1,4.9835575E-1,2.8200802E-1,8.0888313E-1,-2.428068E-3,-3.8303388E-3,-1.8179413E-3,-2.9827834E-3,-1.2760621E-3,-6.321731E-4,-4.903652E-4,3.2624588E-4,6.9710484E-4,1.7611289E-3,1.7629453E-3,3.4407417E-3,4.5997812E-3,2.830772E-3,6.3836905E-3,3.0196875E-3],"split_indices":[6,6,6,6,6,5,3,5,5,5,2,2,3,2,2,0,0,0,0,0,0,0,0,0,0,0,0,0,0,0,0],"split_type":[0,0,0,0,0,0,0,0,0,0,0,0,0,0,0,0,0,0,0,0,0,0,0,0,0,0,0,0,0,0,0],"sum_hessian":[4.184E3,2.273E3,1.911E3,1.48E3,7.93E2,1.273E3,6.38E2,8.63E2,6.17E2,4.38E2,3.55E2,9.26E2,3.47E2,5.55E2,8.3E1,8.21E2,4.2E1,5.87E2,3E1,2.6E2,1.78E2,2.05E2,1.5E2,8.09E2,1.17E2,2.81E2,6.6E1,1.15E2,4.4E2,7.2E1,1.1E1],"tree_param":{"num_deleted":"0","num_feature":"7","num_nodes":"31","size_leaf_vector":"1"}},{"base_weights":[1.8746192E-4,-5.5225104E-2,6.1859813E-2,-7.238647E-2,-2.4325509E-2,3.2816935E-2,1.0870809E-1,-8.4673844E-2,-6.35923E-2,3.9427534E-2,-2.6558412E-2,2.0348752E-2,5.3956795E-2,8.598984E-2,1.5923572E-1,-2.380703E-3,-2.9536174E-3,-1.7743391E-3,-2.348795E-3,2.260072E-4,3.4270196E-3,-1.0516251E-3,-3.2220595E-4,4.2731306E-4,2.2047136E-3,1.6583238E-3,-3.2333136E-3,2.6476288E-3,-6.896593E-3,4.300855E-3,6.570165E-3],"categories":[],"categories_nodes":[],"categories_segments":[],"categories_sizes":[],"default_left":[0,0,0,0,0,0,0,0,0,0,0,0,0,0,0,0,0,0,0,0,0,0,0,0,0,0,0,0,0,0,0],"id":29,"left_children":[1,3,5,7,9,11,13,15,17,19,21,23,25,27,29,-1,-1,-1,-1,-1,-1,-1,-1,-1,-1,-1,-1,-1,-1,-1,-1],"loss_changes":[1.425407E1,1.1632633E0,2.6822743E0,1.4719248E-1,1.1293772E-1,3.2046437E-1,8.5297203E-1,3.512287E-2,4.944229E-2,6.3558E-2,1.0175824E-1,2.4843928E-1,1.0250318E-1,3.943832E-1,1.8966818E-1,0E0,0E0,0E0,0E0,0E0,0E0,0E0,0E0,0E0,0E0,0E0,0E0,0E0,0E0,0E0,0E0],"parents":[2147483647,0,0,1,1,2,2,3,3,4,4,5,5,6,6,7,7,8,8,9,9,10,10,11,11,12,12,13,13,14,14],"right_children":[2,4,6,8,10,12,14,16,18,20,22,24,26,28,30,-1,-1,-1,-1,-1,-1,-1,-1,-1,-1,-1,-1,-1,-1,-1,-1],"split_conditions":[2.3821647E-1,1.1632856E-1,4.1740355E-1,5.1282678E-2,9.6942104E-2,3.3952346E-1,5.71807E-1,1.8976508E-1,1.8626037E-1,8.734719E-2,1.8630953E-1,3.9255112E-1,6.047306E-1,7.693139E-1,6.754832E-1,-2.380703E-3,-2.9536174E-3,-1.7743391E-3,-2.348795E-3,2.260072E-4,3.4270196E-3,-1.0516251E-3,-3.2220595E-4,4.2731306E-4,2.2047136E-3,1.6583238E-3,-3.2333136E-3,2.6476288E-3,-6.896593E-3,4.300855E-3,6.570165E-3],"split_indices":[6,6,6,6,4,6,6,0,1,0,6,2,1,2,0,0,0,0,0,0,0,0,0,0,0,0,0,0,0,0,0],"split_type":[0,0,0,0,0,0,0,0,0,0,0,0,0,0,0,0,0,0,0,0,0,0,0,0,0,0,0,0,0,0,0],"sum_hessian":[4.169E3,2.196E3,1.973E3,1.411E3,7.85E2,1.219E3,7.54E2,5.85E2,8.26E2,2.6E1,7.59E2,7.68E2,4.51E2,5.22E2,2.32E2,4.27E2,1.58E2,6.38E2,1.88E2,1.9E1,7E0,4.93E2,2.66E2,6.9E2,7.8E1,4.48E2,3E0,5.19E2,3E0,1.86E2,4.6E1],"tree_param":{"num_deleted":"0","num_feature":"7","num_nodes":"31","size_leaf_vector":"1"}},{"base_weights":[6.19336E-4,-4.1489065E-2,6.043562E-2,-6.1192706E-2,-1.5240299E-2,3.7226535E-2,1.1057718E-1,-8.1923455E-2,-5.7966486E-2,-2.6127413E-2,9.101865E-4,2.9520012E-2,6.8683945E-2,9.74042E-2,1.8473238E-1,-2.1916914E-3,-2.7289789E-3,-1.5885063E-3,-2.1771255E-3,-6.678679E-4,-1.5162773E-3,-3.374039E-4,2.633539E-4,1.933389E-3,6.528166E-4,-1.2916533E-3,2.2159354E-3,2.4715813E-3,3.8484521E-3,5.7718195E-3,3.036332E-3],"categories":[],"categories_nodes":[],"categories_segments":[],"categories_sizes":[],"default_left":[0,0,0,0,0,0,0,0,0,0,0,0,0,0,0,0,0,0,0,0,0,0,0,0,0,0,0,0,0,0,0],"id":30,"left_children":[1,3,5,7,9,11,13,15,17,19,21,23,25,27,29,-1,-1,-1,-1,-1,-1,-1,-1,-1,-1,-1,-1,-1,-1,-1,-1],"loss_changes":[1.0626671E1,1.2796454E0,2.0242815E0,8.982277E-2,1.8693338E-1,2.8718817E-1,5.2024746E-1,8.428454E-3,8.6046696E-2,5.879864E-2,4.1134514E-2,2.5876623E-1,1.38636E-1,2.0738173E-1,3.2999992E-2,0E0,0E0,0E0,0E0,0E0,0E0,0E0,0E0,0E0,0E0,0E0,0E0,0E0,0E0,0E0,0E0],"parents":[2147483647,0,0,1,1,2,2,3,3,4,4,5,5,6,6,7,7,8,8,9,9,10,10,11,11,12,12,13,13,14,14],"right_children":[2,4,6,8,10,12,14,16,18,20,22,24,26,28,30,-1,-1,-1,-1,-1,-1,-1,-1,-1,-1,-1,-1,-1,-1,-1,-1],"split_conditions":[2.749888E-1,1.16215505E-1,4.6551085E-1,3.4811072E-2,2.1019852E-1,4.291465E-1,6.754832E-1,2.9954629E-2,1.4906041E-1,2.9162264E-1,2.3555231E-1,1.9743808E-1,2.9370186E-1,5.5126053E-1,8.0888313E-1,-2.1916914E-3,-2.7289789E-3,-1.5885063E-3,-2.1771255E-3,-6.678679E-4,-1.5162773E-3,-3.374039E-4,2.633539E-4,1.933389E-3,6.528166E-4,-1.2916533E-3,2.2159354E-3,2.4715813E-3,3.8484521E-3,5.7718195E-3,3.036332E-3],"split_indices":[5,5,5,3,5,2,5,5,0,1,0,2,3,3,1,0,0,0,0,0,0,0,0,0,0,0,0,0,0,0,0],"split_type":[0,0,0,0,0,0,0,0,0,0,0,0,0,0,0,0,0,0,0,0,0,0,0,0,0,0,0,0,0,0,0],"sum_hessian":[4.217E3,2.475E3,1.742E3,1.413E3,1.062E3,1.192E3,5.5E2,1.87E2,1.226E3,6.34E2,4.28E2,9.59E2,2.33E2,4.69E2,8.1E1,9.9E1,8.8E1,9.16E2,3.1E2,5.49E2,8.5E1,1.68E2,2.6E2,1.73E2,7.86E2,1E1,2.23E2,3.18E2,1.51E2,7.3E1,8E0],"tree_param":{"num_deleted":"0","num_feature":"7","num_nodes":"31","size_leaf_vector":"1"}},{"base_weights":[-1.0386214E-3,-4.342027E-2,5.4818075E-2,-5.979667E-2,-1.77671E-2,2.7438499E-2,9.0173215E-2,-6.832905E-2,-4.952445E-2,-2.4318187E-2,-8.4648916E-4,1.3682475E-2,3.9318834E-2,7.271256E-2,1.2939398E-1,-2.0660458E-3,4.2406446E-4,-1.3552723E-3,-1.8940293E-3,4.681711E-4,-7.7640393E-4,4.4525965E-5,-2.5788646E-3,1.5061733E-3,2.8720906E-4,2.9148406E-3,9.7302225E-4,4.297527E-3,1.9140315E-3,3.4534158E-3,5.130892E-3],"categories":[],"categories_nodes":[],"categories_segments":[],"categories_sizes":[],"default_left":[0,0,0,0,0,0,0,0,0,0,0,0,0,0,0,0,0,0,0,0,0,0,0,0,0,0,0,0,0,0,0],"id":31,"left_children":[1,3,5,7,9,11,13,15,17,19,21,23,25,27,29,-1,-1,-1,-1,-1,-1,-1,-1,-1,-1,-1,-1,-1,-1,-1,-1],"loss_changes":[9.97581E0,1.0055132E0,1.7573652E0,1.2475538E-1,1.03622645E-1,1.6713727E-1,5.3365374E-1,3.6363363E-2,3.662443E-2,4.24338E-2,5.2102633E-2,7.110197E-2,2.158761E-1,3.3722067E-1,1.24791145E-1,0E0,0E0,0E0,0E0,0E0,0E0,0E0,0E0,0E0,0E0,0E0,0E0,0E0,0E0,0E0,0E0],"parents":[2147483647,0,0,1,1,2,2,3,3,4,4,5,5,6,6,7,7,8,8,9,9,10,10,11,11,12,12,13,13,14,14],"right_children":[2,4,6,8,10,12,14,16,18,20,22,24,26,28,30,-1,-1,-1,-1,-1,-1,-1,-1,-1,-1,-1,-1,-1,-1,-1,-1],"split_conditions":[2.5929877E-1,1.1850118E-1,4.0644705E-1,6.00813E-2,2.2203979E-1,3.1256726E-1,5.5126053E-1,6.1997825E-1,1.4906041E-1,9.559036E-2,4.501305E-1,1.6689359E-1,1.9743808E-1,2.308679E-1,6.754832E-1,-2.0660458E-3,4.2406446E-4,-1.3552723E-3,-1.8940293E-3,4.681711E-4,-7.7640393E-4,4.4525965E-5,-2.5788646E-3,1.5061733E-3,2.8720906E-4,2.9148406E-3,9.7302225E-4,4.297527E-3,1.9140315E-3,3.4534158E-3,5.130892E-3],"split_indices":[5,5,5,5,5,4,3,3,0,3,2,4,2,3,4,0,0,0,0,0,0,0,0,0,0,0,0,0,0,0,0],"split_type":[0,0,0,0,0,0,0,0,0,0,0,0,0,0,0,0,0,0,0,0,0,0,0,0,0,0,0,0,0,0,0],"sum_hessian":[4.212E3,2.395E3,1.817E3,1.461E3,9.34E2,1.025E3,7.92E2,7.95E2,6.66E2,6.73E2,2.61E2,4.76E2,5.49E2,5.5E2,2.42E2,7.9E2,5E0,5.08E2,1.58E2,2.5E1,6.48E2,2.55E2,6E0,4.7E1,4.29E2,5.7E1,4.92E2,6E1,4.9E2,1.83E2,5.9E1],"tree_param":{"num_deleted":"0","num_feature":"7","num_nodes":"31","size_leaf_vector":"1"}},{"base_weights":[1.5117066E-3,-5.18028E-2,5.8063827E-2,-6.4487174E-2,-1.8509865E-2,3.1114679E-2,1.0024131E-1,-7.958994E-2,-5.7505224E-2,-2.554524E-2,-6.605792E-3,2.7628446E-2,9.354911E-2,8.0633745E-2,1.6163234E-1,-2.297473E-3,-3.2268658E-3,-1.6032477E-3,-2.1642677E-3,-7.167841E-4,-1.9017163E-3,6.7582034E-4,-3.3825522E-4,5.789029E-4,1.3234653E-3,-3.774598E-3,2.9682803E-3,1.9797534E-3,3.083448E-3,4.20265E-3,6.440352E-3],"categories":[],"categories_nodes":[],"categories_segments":[],"categories_sizes":[],"default_left":[0,0,0,0,0,0,0,0,0,0,0,0,0,0,0,0,0,0,0,0,0,0,0,0,0,0,0,0,0,0,0],"id":32,"left_children":[1,3,5,7,9,11,13,15,17,19,21,23,25,27,29,-1,-1,-1,-1,-1,-1,-1,-1,-1,-1,-1,-1,-1,-1,-1,-1],"loss_changes":[1.258179E1,9.0590715E-1,2.2985916E0,1.5939188E-1,4.9578518E-2,2.66662E-1,9.367089E-1,3.290081E-2,5.9609413E-2,2.1811724E-2,3.0453492E-2,1.6027784E-1,8.9355946E-2,1.8778968E-1,1.8706274E-1,0E0,0E0,0E0,0E0,0E0,0E0,0E0,0E0,0E0,0E0,0E0,0E0,0E0,0E0,0E0,0E0],"parents":[2147483647,0,0,1,1,2,2,3,3,4,4,5,5,6,6,7,7,8,8,9,9,10,10,11,11,12,12,13,13,14,14],"right_children":[2,4,6,8,10,12,14,16,18,20,22,24,26,28,30,-1,-1,-1,-1,-1,-1,-1,-1,-1,-1,-1,-1,-1,-1,-1,-1],"split_conditions":[2.3301594E-1,1.3471226E-1,4.1332373E-1,4.6657257E-2,1.9035494E-1,4.905304E-1,5.957157E-1,7.596797E-2,2.3568994E-1,4.260498E-1,1.6190442E-1,3.3952346E-1,2.6130425E-2,4.8104855E-1,7.3409975E-1,-2.297473E-3,-3.2268658E-3,-1.6032477E-3,-2.1642677E-3,-7.167841E-4,-1.9017163E-3,6.7582034E-4,-3.3825522E-4,5.789029E-4,1.3234653E-3,-3.774598E-3,2.9682803E-3,1.9797534E-3,3.083448E-3,4.20265E-3,6.440352E-3],"split_indices":[6,6,6,6,6,3,6,4,1,3,3,6,1,3,6,0,0,0,0,0,0,0,0,0,0,0,0,0,0,0,0],"split_type":[0,0,0,0,0,0,0,0,0,0,0,0,0,0,0,0,0,0,0,0,0,0,0,0,0,0,0,0,0,0,0],"sum_hessian":[4.171E3,2.147E3,2.024E3,1.554E3,5.93E2,1.236E3,7.88E2,4.88E2,1.066E3,3.72E2,2.21E2,1.172E3,6.4E1,5.99E2,1.89E2,4.44E2,4.4E1,8.38E2,2.28E2,3.58E2,1.4E1,3E1,1.91E2,7.8E2,3.92E2,1E0,6.3E1,3.63E2,2.36E2,1.37E2,5.2E1],"tree_param":{"num_deleted":"0","num_feature":"7","num_nodes":"31","size_leaf_vector":"1"}},{"base_weights":[1.307751E-4,-4.7918644E-2,5.9895717E-2,-6.345274E-2,-1.50763355E-2,3.0940734E-2,1.0240392E-1,-7.737414E-2,-5.532413E-2,-2.4473885E-2,2.547838E-3,2.205392E-2,5.5962276E-2,8.676988E-2,1.5106271E-1,-2.2644512E-3,-4.0581794E-3,6.2020193E-3,-1.6738583E-3,-1.0539875E-3,-5.556987E-4,1.147287E-4,-2.4030344E-3,5.651009E-4,2.2021541E-3,1.3836853E-3,2.679368E-3,2.2209953E-3,3.6658144E-3,7.678212E-3,4.2032995E-3],"categories":[],"categories_nodes":[],"categories_segments":[],"categories_sizes":[],"default_left":[0,0,0,0,0,0,0,0,0,0,0,0,0,0,0,0,0,0,0,0,0,0,0,0,0,0,0,0,0,0,0],"id":33,"left_children":[1,3,5,7,9,11,13,15,17,19,21,23,25,27,29,-1,-1,-1,-1,-1,-1,-1,-1,-1,-1,-1,-1,-1,-1,-1,-1],"loss_changes":[1.1997838E1,1.1806102E0,2.2886267E0,1.7360973E-1,1.2345229E-1,2.4536526E-1,5.6048584E-1,5.3010464E-2,1.3450885E-1,3.0175E-2,2.7735665E-2,1.3408804E-1,9.104264E-2,2.4948215E-1,1.7320299E-1,0E0,0E0,0E0,0E0,0E0,0E0,0E0,0E0,0E0,0E0,0E0,0E0,0E0,0E0,0E0,0E0],"parents":[2147483647,0,0,1,1,2,2,3,3,4,4,5,5,6,6,7,7,8,8,9,9,10,10,11,11,12,12,13,13,14,14],"right_children":[2,4,6,8,10,12,14,16,18,20,22,24,26,28,30,-1,-1,-1,-1,-1,-1,-1,-1,-1,-1,-1,-1,-1,-1,-1,-1],"split_conditions":[2.576914E-1,1.3471226E-1,4.1740355E-1,5.1282678E-2,2.1722758E-1,3.8087207E-1,5.957157E-1,3.36761E-1,2.6130425E-2,1.593484E-1,4.5747414E-1,4.414105E-1,4.9835575E-1,5.269095E-1,2.2203979E-1,-2.2644512E-3,-4.0581794E-3,6.2020193E-3,-1.6738583E-3,-1.0539875E-3,-5.556987E-4,1.147287E-4,-2.4030344E-3,5.651009E-4,2.2021541E-3,1.3836853E-3,2.679368E-3,2.2209953E-3,3.6658144E-3,7.678212E-3,4.2032995E-3],"split_indices":[6,6,6,6,6,5,6,5,5,5,3,4,5,3,5,0,0,0,0,0,0,0,0,0,0,0,0,0,0,0,0],"split_type":[0,0,0,0,0,0,0,0,0,0,0,0,0,0,0,0,0,0,0,0,0,0,0,0,0,0,0,0,0,0,0],"sum_hessian":[4.176E3,2.315E3,1.861E3,1.571E3,7.44E2,1.108E3,7.53E2,5.76E2,9.95E2,4.85E2,2.59E2,8.19E2,2.89E2,5.72E2,1.81E2,5.6E2,1.6E1,1E0,9.94E2,1.72E2,3.13E2,2.56E2,3E0,7.72E2,4.7E1,2.25E2,6.4E1,4.23E2,1.49E2,1.5E1,1.66E2],"tree_param":{"num_deleted":"0","num_feature":"7","num_nodes":"31","size_leaf_vector":"1"}},{"base_weights":[-8.5438456E-4,-4.797642E-2,5.2339766E-2,-6.428375E-2,-2.3737354E-2,3.0586375E-2,1.0034753E-1,-6.1932452E-2,-1.1698108E-1,-3.280714E-2,-4.984248E-3,1.9952308E-2,5.867776E-2,9.237216E-2,1.8734571E-1,-2.0828107E-3,-1.5582194E-3,-2.8966789E-3,-4.1288696E-3,5.1394315E-4,-1.0237097E-3,-2.709131E-4,7.724031E-4,5.153633E-4,1.9295815E-3,1.8494338E-3,-3.0989374E-3,2.575419E-3,4.8445854E-3,6.0098795E-3,9.1282366E-4],"categories":[],"categories_nodes":[],"categories_segments":[],"categories_sizes":[],"default_left":[0,0,0,0,0,0,0,0,0,0,0,0,0,0,0,0,0,0,0,0,0,0,0,0,0,0,0,0,0,0,0],"id":34,"left_children":[1,3,5,7,9,11,13,15,17,19,21,23,25,27,29,-1,-1,-1,-1,-1,-1,-1,-1,-1,-1,-1,-1,-1,-1,-1,-1],"loss_changes":[1.0394944E1,8.6768293E-1,2.0312886E0,1.5556908E-1,1.5053329E-1,3.99719E-1,4.0385723E-1,9.074831E-2,9.90659E-3,3.98342E-2,3.6292113E-2,1.18872255E-1,1.8340302E-1,2.3777246E-1,9.577274E-2,0E0,0E0,0E0,0E0,0E0,0E0,0E0,0E0,0E0,0E0,0E0,0E0,0E0,0E0,0E0,0E0],"parents":[2147483647,0,0,1,1,2,2,3,3,4,4,5,5,6,6,7,7,8,8,9,9,10,10,11,11,12,12,13,13,14,14],"right_children":[2,4,6,8,10,12,14,16,18,20,22,24,26,28,30,-1,-1,-1,-1,-1,-1,-1,-1,-1,-1,-1,-1,-1,-1,-1,-1],"split_conditions":[2.3821647E-1,1.04531534E-1,4.501305E-1,2.1722758E-1,1.8630953E-1,3.8087207E-1,7.3409975E-1,6.00813E-2,3.9592803E-1,8.252024E-2,3.0516955E-1,4.414105E-1,6.403625E-1,6.5084714E-1,8.0888313E-1,-2.0828107E-3,-1.5582194E-3,-2.8966789E-3,-4.1288696E-3,5.1394315E-4,-1.0237097E-3,-2.709131E-4,7.724031E-4,5.153633E-4,1.9295815E-3,1.8494338E-3,-3.0989374E-3,2.575419E-3,4.8445854E-3,6.0098795E-3,9.1282366E-4],"split_indices":[6,6,6,5,6,5,6,5,1,4,4,4,1,3,1,0,0,0,0,0,0,0,0,0,0,0,0,0,0,0,0],"split_type":[0,0,0,0,0,0,0,0,0,0,0,0,0,0,0,0,0,0,0,0,0,0,0,0,0,0,0,0,0,0,0],"sum_hessian":[4.145E3,2.198E3,1.947E3,1.313E3,8.85E2,1.341E3,6.06E2,1.259E3,5.4E1,5.96E2,2.89E2,9.74E2,3.67E2,5.57E2,4.9E1,7.16E2,5.43E2,3E1,2.4E1,1.5E1,5.81E2,2.56E2,3.3E1,9.18E2,5.6E1,3.61E2,6E0,5.11E2,4.6E1,4.5E1,4E0],"tree_param":{"num_deleted":"0","num_feature":"7","num_nodes":"31","size_leaf_vector":"1"}},{"base_weights":[1.4606108E-3,-3.9983697E-2,6.195061E-2,-5.6613132E-2,-6.2759435E-3,4.5308564E-2,1.2691532E-1,-6.504127E-2,-4.1054245E-2,-1.5358066E-2,1.3582624E-2,2.680778E-2,7.130562E-2,1.0977089E-1,1.7989925E-1,-1.8847232E-3,-3.2145951E-3,-1.1800638E-3,-2.9093046E-3,-3.445495E-4,-1.1785388E-3,5.108991E-4,-1.4536456E-3,1.741122E-3,6.8038143E-4,3.6614242E-3,1.985461E-3,2.827574E-3,4.921969E-3,8.391864E-3,4.7812755E-3],"categories":[],"categories_nodes":[],"categories_segments":[],"categories_sizes":[],"default_left":[0,0,0,0,0,0,0,0,0,0,0,0,0,0,0,0,0,0,0,0,0,0,0,0,0,0,0,0,0,0,0],"id":35,"left_children":[1,3,5,7,9,11,13,15,17,19,21,23,25,27,29,-1,-1,-1,-1,-1,-1,-1,-1,-1,-1,-1,-1,-1,-1,-1,-1],"loss_changes":[1.0599422E1,1.4060416E0,1.8527393E0,2.176323E-1,1.4990571E-1,6.570115E-1,2.9818487E-1,9.48534E-2,5.3183913E-2,5.237043E-2,5.6643873E-2,1.0208434E-1,1.3985133E-1,2.0950222E-1,1.2752056E-1,0E0,0E0,0E0,0E0,0E0,0E0,0E0,0E0,0E0,0E0,0E0,0E0,0E0,0E0,0E0,0E0],"parents":[2147483647,0,0,1,1,2,2,3,3,4,4,5,5,6,6,7,7,8,8,9,9,10,10,11,11,12,12,13,13,14,14],"right_children":[2,4,6,8,10,12,14,16,18,20,22,24,26,28,30,-1,-1,-1,-1,-1,-1,-1,-1,-1,-1,-1,-1,-1,-1,-1,-1],"split_conditions":[2.7946675E-1,1.4939465E-1,5.269095E-1,8.256447E-2,2.7151358E-1,3.8722774E-1,6.754832E-1,1.4939465E-1,3.153248E-1,2.902119E-1,4.5747414E-1,1.9035494E-1,2.308679E-1,6.296322E-1,2.431319E-1,-1.8847232E-3,-3.2145951E-3,-1.1800638E-3,-2.9093046E-3,-3.445495E-4,-1.1785388E-3,5.108991E-4,-1.4536456E-3,1.741122E-3,6.8038143E-4,3.6614242E-3,1.985461E-3,2.827574E-3,4.921969E-3,8.391864E-3,4.7812755E-3],"split_indices":[6,6,6,6,5,5,6,5,5,1,3,4,3,3,4,0,0,0,0,0,0,0,0,0,0,0,0,0,0,0,0],"split_type":[0,0,0,0,0,0,0,0,0,0,0,0,0,0,0,0,0,0,0,0,0,0,0,0,0,0,0,0,0,0,0],"sum_hessian":[4.226E3,2.508E3,1.718E3,1.679E3,8.29E2,1.369E3,3.49E2,1.087E3,5.92E2,5.69E2,2.6E2,8.01E2,5.68E2,2.66E2,8.3E1,1.035E3,5.2E1,5.76E2,1.6E1,4.91E2,7.8E1,2.47E2,1.3E1,9.2E1,7.09E2,5E1,5.18E2,2.09E2,5.7E1,1.2E1,7.1E1],"tree_param":{"num_deleted":"0","num_feature":"7","num_nodes":"31","size_leaf_vector":"1"}},{"base_weights":[2.74715E-4,-4.889427E-2,4.632787E-2,-5.8561135E-2,-2.5618244E-2,2.2334788E-2,9.101122E-2,-5.5792455E-2,-8.514148E-2,2.7412714E-2,-2.712843E-2,1.807606E-2,6.203351E-2,6.7524545E-2,1.258246E-1,-1.9227051E-3,-1.3218995E-3,-2.3206107E-3,-3.3120825E-3,-1.2890325E-4,5.3046774E-3,-1.2139579E-3,-6.203831E-4,3.3098194E-4,1.114229E-3,1.9730772E-3,-3.7652045E-3,2.1016442E-3,-7.0203315E-3,6.286371E-3,3.4961484E-3],"categories":[],"categories_nodes":[],"categories_segments":[],"categories_sizes":[],"default_left":[0,0,0,0,0,0,0,0,0,0,0,0,0,0,0,0,0,0,0,0,0,0,0,0,0,0,0,0,0,0,0],"id":36,"left_children":[1,3,5,7,9,11,13,15,17,19,21,23,25,27,29,-1,-1,-1,-1,-1,-1,-1,-1,-1,-1,-1,-1,-1,-1,-1,-1],"loss_changes":[9.4809885E0,4.5413733E-1,2.3158288E0,1.0048723E-1,4.8475266E-2,2.3692375E-1,6.0883E-1,1.2350416E-1,1.7624974E-2,8.1300855E-2,4.9048513E-2,1.7052913E-1,1.0353607E-1,3.6201644E-1,2.1115065E-1,0E0,0E0,0E0,0E0,0E0,0E0,0E0,0E0,0E0,0E0,0E0,0E0,0E0,0E0,0E0,0E0],"parents":[2147483647,0,0,1,1,2,2,3,3,4,4,5,5,6,6,7,7,8,8,9,9,10,10,11,11,12,12,13,13,14,14],"right_children":[2,4,6,8,10,12,14,16,18,20,22,24,26,28,30,-1,-1,-1,-1,-1,-1,-1,-1,-1,-1,-1,-1,-1,-1,-1,-1],"split_conditions":[2.1019852E-1,1.1632856E-1,4.1332373E-1,1.5526368E-1,8.453556E-2,4.414105E-1,5.402008E-1,6.2774956E-2,4.681996E-1,8.574476E-2,1.3977516E-1,3.422417E-1,6.403625E-1,7.3409975E-1,2.6318192E-1,-1.9227051E-3,-1.3218995E-3,-2.3206107E-3,-3.3120825E-3,-1.2890325E-4,5.3046774E-3,-1.2139579E-3,-6.203831E-4,3.3098194E-4,1.114229E-3,1.9730772E-3,-3.7652045E-3,2.1016442E-3,-7.0203315E-3,6.286371E-3,3.4961484E-3],"split_indices":[6,6,6,4,4,4,6,4,0,0,6,6,1,2,4,0,0,0,0,0,0,0,0,0,0,0,0,0,0,0,0],"split_type":[0,0,0,0,0,0,0,0,0,0,0,0,0,0,0,0,0,0,0,0,0,0,0,0,0,0,0,0,0,0,0],"sum_hessian":[4.185E3,2.024E3,2.161E3,1.429E3,5.95E2,1.407E3,7.54E2,1.297E3,1.32E2,1.6E1,5.79E2,1.272E3,1.35E2,4.52E2,3.02E2,7.57E2,5.4E2,1.04E2,2.8E1,1.4E1,2E0,1.87E2,3.92E2,9.3E2,3.42E2,1.33E2,2E0,4.49E2,3E0,2.8E1,2.74E2],"tree_param":{"num_deleted":"0","num_feature":"7","num_nodes":"31","size_leaf_vector":"1"}},{"base_weights":[9.3062804E-4,-2.4712173E-2,5.303732E-2,-4.0965494E-2,-7.564552E-5,3.964031E-2,1.01439804E-1,-5.3730953E-2,-2.9312717E-2,-8.747803E-3,5.762502E-3,2.5430996E-2,5.509702E-2,3.782135E-2,1.1324879E-1,-1.4970548E-3,-2.0558003E-3,-7.466771E-4,-1.4637505E-3,6.5050623E-4,-3.439824E-4,1.2458445E-4,1.8990504E-3,1.974921E-3,6.251657E-4,2.5665734E-3,1.4347482E-3,3.3364857E-3,-1.4037343E-3,3.5703178E-3,6.4632634E-4],"categories":[],"categories_nodes":[],"categories_segments":[],"categories_sizes":[],"default_left":[0,0,0,0,0,0,0,0,0,0,0,0,0,0,0,0,0,0,0,0,0,0,0,0,0,0,0,0,0,0,0],"id":37,"left_children":[1,3,5,7,9,11,13,15,17,19,21,23,25,27,29,-1,-1,-1,-1,-1,-1,-1,-1,-1,-1,-1,-1,-1,-1,-1,-1],"loss_changes":[5.562415E0,1.1171839E0,8.8629866E-1,2.4847889E-1,5.6248974E-2,2.3513961E-1,2.188437E-1,4.1960716E-2,7.469678E-2,3.7224837E-2,6.1236866E-2,1.0307649E-1,1.0996759E-1,3.032897E-1,1.295321E-1,0E0,0E0,0E0,0E0,0E0,0E0,0E0,0E0,0E0,0E0,0E0,0E0,0E0,0E0,0E0,0E0],"parents":[2147483647,0,0,1,1,2,2,3,3,4,4,5,5,6,6,7,7,8,8,9,9,10,10,11,11,12,12,13,13,14,14],"right_children":[2,4,6,8,10,12,14,16,18,20,22,24,26,28,30,-1,-1,-1,-1,-1,-1,-1,-1,-1,-1,-1,-1,-1,-1,-1,-1],"split_conditions":[3.1256726E-1,1.4939465E-1,5.402008E-1,6.2774956E-2,2.2508736E-1,4.0020445E-1,4.291465E-1,7.441469E-2,2.0685603E-1,1.5526368E-1,4.6551085E-1,1.9743808E-1,2.747332E-1,4.0020445E-1,8.0888313E-1,-1.4970548E-3,-2.0558003E-3,-7.466771E-4,-1.4637505E-3,6.5050623E-4,-3.439824E-4,1.2458445E-4,1.8990504E-3,1.974921E-3,6.251657E-4,2.5665734E-3,1.4347482E-3,3.3364857E-3,-1.4037343E-3,3.5703178E-3,6.4632634E-4],"split_indices":[4,4,4,4,4,4,3,0,0,4,2,2,0,0,1,0,0,0,0,0,0,0,0,0,0,0,0,0,0,0,0],"split_type":[0,0,0,0,0,0,0,0,0,0,0,0,0,0,0,0,0,0,0,0,0,0,0,0,0,0,0,0,0,0,0],"sum_hessian":[4.161E3,2.789E3,1.372E3,1.68E3,1.109E3,1.076E3,2.96E2,8E2,8.8E2,4.46E2,6.63E2,5.62E2,5.14E2,4.7E1,2.49E2,6.39E2,1.61E2,7.19E2,1.61E2,3.6E1,4.1E2,6.46E2,1.7E1,5.6E1,5.06E2,9.7E1,4.17E2,2.5E1,2.2E1,2.34E2,1.5E1],"tree_param":{"num_deleted":"0","num_feature":"7","num_nodes":"31","size_leaf_vector":"1"}},{"base_weights":[-1.5005199E-6,-4.1280452E-2,5.1524945E-2,-5.7962585E-2,-1.7621804E-2,3.8996782E-2,1.06908485E-1,-5.5077568E-2,-8.625225E-2,-2.7471043E-2,-3.4641046E-3,2.1458367E-2,5.692803E-2,1.9562708E-1,9.8374255E-2,-1.8974654E-3,-1.2852395E-3,1.2105089E-3,-2.6282875E-3,-7.811941E-4,-2.349277E-3,-3.0447013E-4,2.6762002E-4,4.7437358E-4,1.9306375E-3,1.7379394E-3,-4.332505E-3,4.466036E-3,8.087484E-3,1.9467922E-3,3.956061E-3],"categories":[],"categories_nodes":[],"categories_segments":[],"categories_sizes":[],"default_left":[0,0,0,0,0,0,0,0,0,0,0,0,0,0,0,0,0,0,0,0,0,0,0,0,0,0,0,0,0,0,0],"id":38,"left_children":[1,3,5,7,9,11,13,15,17,19,21,23,25,27,29,-1,-1,-1,-1,-1,-1,-1,-1,-1,-1,-1,-1,-1,-1,-1,-1],"loss_changes":[8.880048E0,9.1383934E-1,1.284318E0,1.0616541E-1,1.3376972E-1,4.755385E-1,2.3969889E-1,1.2087321E-1,2.4843633E-2,3.914389E-2,3.2792967E-2,1.8498304E-1,1.5966916E-1,6.0153008E-2,3.4357285E-1,0E0,0E0,0E0,0E0,0E0,0E0,0E0,0E0,0E0,0E0,0E0,0E0,0E0,0E0,0E0,0E0],"parents":[2147483647,0,0,1,1,2,2,3,3,4,4,5,5,6,6,7,7,8,8,9,9,10,10,11,11,12,12,13,13,14,14],"right_children":[2,4,6,8,10,12,14,16,18,20,22,24,26,28,30,-1,-1,-1,-1,-1,-1,-1,-1,-1,-1,-1,-1,-1,-1,-1,-1],"split_conditions":[2.576914E-1,1.0837048E-1,5.269095E-1,1.5526368E-1,1.8630953E-1,3.5904264E-1,2.431319E-1,6.2774956E-2,2.138212E-2,4.5352703E-1,2.6530048E-1,3.9592803E-1,7.693139E-1,7.053592E-1,5.5782753E-1,-1.8974654E-3,-1.2852395E-3,1.2105089E-3,-2.6282875E-3,-7.811941E-4,-2.349277E-3,-3.0447013E-4,2.6762002E-4,4.7437358E-4,1.9306375E-3,1.7379394E-3,-4.332505E-3,4.466036E-3,8.087484E-3,1.9467922E-3,3.956061E-3],"split_indices":[6,6,6,4,6,6,4,4,6,4,2,2,2,6,4,0,0,0,0,0,0,0,0,0,0,0,0,0,0,0,0],"split_type":[0,0,0,0,0,0,0,0,0,0,0,0,0,0,0,0,0,0,0,0,0,0,0,0,0,0,0,0,0,0,0],"sum_hessian":[4.173E3,2.317E3,1.856E3,1.358E3,9.59E2,1.515E3,3.41E2,1.235E3,1.23E2,5.65E2,3.94E2,7.67E2,7.48E2,2.8E1,3.13E2,7.38E2,4.97E2,1E0,1.22E2,5.51E2,1.4E1,2.56E2,1.38E2,6.79E2,8.8E1,7.45E2,3E0,1.9E1,9E0,1.58E2,1.55E2],"tree_param":{"num_deleted":"0","num_feature":"7","num_nodes":"31","size_leaf_vector":"1"}},{"base_weights":[1.0975193E-3,-3.911411E-2,5.1378086E-2,-5.5604823E-2,-1.4142973E-2,3.1119235E-2,9.06942E-2,-5.357432E-2,-9.604409E-2,-2.5348898E-2,7.962016E-4,2.34238E-2,7.010252E-2,7.668892E-2,1.4509341E-1,-1.7494147E-3,-1.2589303E-3,2.1814785E-3,-2.9963113E-3,7.0278795E-4,-8.0869667E-4,5.769221E-5,-2.138055E-3,1.453969E-3,5.2284374E-4,2.2435826E-3,-2.7436698E-3,3.778464E-3,1.8751977E-3,1.4735515E-3,4.6738437E-3],"categories":[],"categories_nodes":[],"categories_segments":[],"categories_sizes":[],"default_left":[0,0,0,0,0,0,0,0,0,0,0,0,0,0,0,0,0,0,0,0,0,0,0,0,0,0,0,0,0,0,0],"id":39,"left_children":[1,3,5,7,9,11,13,15,17,19,21,23,25,27,29,-1,-1,-1,-1,-1,-1,-1,-1,-1,-1,-1,-1,-1,-1,-1,-1],"loss_changes":[8.249191E0,9.327464E-1,1.4412308E0,1.0693741E-1,1.5118892E-1,3.5774982E-1,4.5818806E-1,6.9196224E-2,4.8660994E-2,4.109302E-2,3.164565E-2,1.4959842E-1,1.5590358E-1,3.3584833E-1,1.2073088E-1,0E0,0E0,0E0,0E0,0E0,0E0,0E0,0E0,0E0,0E0,0E0,0E0,0E0,0E0,0E0,0E0],"parents":[2147483647,0,0,1,1,2,2,3,3,4,4,5,5,6,6,7,7,8,8,9,9,10,10,11,11,12,12,13,13,14,14],"right_children":[2,4,6,8,10,12,14,16,18,20,22,24,26,28,30,-1,-1,-1,-1,-1,-1,-1,-1,-1,-1,-1,-1,-1,-1,-1,-1],"split_conditions":[2.576914E-1,1.1449019E-1,4.501305E-1,1.9035494E-1,1.9035494E-1,4.414105E-1,6.047306E-1,7.330872E-2,8.917572E-2,9.331944E-2,4.5747414E-1,1.9481322E-1,6.403625E-1,2.8864878E-1,5.330636E-1,-1.7494147E-3,-1.2589303E-3,2.1814785E-3,-2.9963113E-3,7.0278795E-4,-8.0869667E-4,5.769221E-5,-2.138055E-3,1.453969E-3,5.2284374E-4,2.2435826E-3,-2.7436698E-3,3.778464E-3,1.8751977E-3,1.4735515E-3,4.6738437E-3],"split_indices":[6,6,6,5,6,5,3,5,1,3,3,2,1,2,6,0,0,0,0,0,0,0,0,0,0,0,0,0,0,0,0],"split_type":[0,0,0,0,0,0,0,0,0,0,0,0,0,0,0,0,0,0,0,0,0,0,0,0,0,0,0,0,0,0,0],"sum_hessian":[4.078E3,2.266E3,1.812E3,1.364E3,9.02E2,1.197E3,6.15E2,1.301E3,6.3E1,5.15E2,3.87E2,1.001E3,1.96E2,4.91E2,1.24E2,9.21E2,3.8E2,1E0,6.2E1,1.6E1,4.99E2,3.82E2,5E0,1.92E2,8.09E2,1.91E2,5E0,1.08E2,3.83E2,1.3E1,1.11E2],"tree_param":{"num_deleted":"0","num_feature":"7","num_nodes":"31","size_leaf_vector":"1"}},{"base_weights":[-1.6776194E-4,-3.0059148E-2,4.153564E-2,-4.4159073E-2,-1.00671705E-2,3.1098135E-2,9.759963E-2,-6.411838E-2,-4.0347386E-2,-1.6873205E-2,1.2308328E-3,2.3380162E-2,6.1371576E-2,8.452073E-2,1.4653754E-1,-2.3123308E-3,-1.8113503E-3,4.8449016E-4,-1.2367537E-3,-4.0341707E-4,-1.2559008E-3,8.746397E-5,-2.044892E-3,1.578959E-3,5.442765E-4,3.6345723E-3,1.5559606E-3,5.116037E-3,2.2182618E-3,5.155868E-3,2.3499024E-3],"categories":[],"categories_nodes":[],"categories_segments":[],"categories_sizes":[],"default_left":[0,0,0,0,0,0,0,0,0,0,0,0,0,0,0,0,0,0,0,0,0,0,0,0,0,0,0,0,0,0,0],"id":40,"left_children":[1,3,5,7,9,11,13,15,17,19,21,23,25,27,29,-1,-1,-1,-1,-1,-1,-1,-1,-1,-1,-1,-1,-1,-1,-1,-1],"loss_changes":[5.18325E0,6.822815E-1,1.0128169E0,1.0544443E-1,7.714605E-2,3.4086168E-1,1.6170931E-1,6.300032E-3,5.9925437E-2,5.303237E-2,4.438816E-2,1.7814726E-1,1.6249847E-1,1.8484104E-1,8.326876E-2,0E0,0E0,0E0,0E0,0E0,0E0,0E0,0E0,0E0,0E0,0E0,0E0,0E0,0E0,0E0,0E0],"parents":[2147483647,0,0,1,1,2,2,3,3,4,4,5,5,6,6,7,7,8,8,9,9,10,10,11,11,12,12,13,13,14,14],"right_children":[2,4,6,8,10,12,14,16,18,20,22,24,26,28,30,-1,-1,-1,-1,-1,-1,-1,-1,-1,-1,-1,-1,-1,-1,-1,-1],"split_conditions":[2.6889366E-1,1.16215505E-1,5.402008E-1,3.6113665E-2,2.1019852E-1,4.7383758E-1,6.754832E-1,2.4105268E-2,2.9954629E-2,2.9162264E-1,4.501305E-1,2.0734265E-1,2.8864878E-1,2.4301885E-1,8.0888313E-1,-2.3123308E-3,-1.8113503E-3,4.8449016E-4,-1.2367537E-3,-4.0341707E-4,-1.2559008E-3,8.746397E-5,-2.044892E-3,1.578959E-3,5.442765E-4,3.6345723E-3,1.5559606E-3,5.116037E-3,2.2182618E-3,5.155868E-3,2.3499024E-3],"split_indices":[5,5,4,3,5,5,2,2,5,1,2,2,2,2,2,0,0,0,0,0,0,0,0,0,0,0,0,0,0,0,0],"split_type":[0,0,0,0,0,0,0,0,0,0,0,0,0,0,0,0,0,0,0,0,0,0,0,0,0,0,0,0,0,0,0],"sum_hessian":[4.156E3,2.421E3,1.735E3,1.419E3,1.002E3,1.464E3,2.71E2,2.25E2,1.194E3,6.25E2,3.77E2,1.168E3,2.96E2,2.16E2,5.5E1,4.6E1,1.79E2,1.8E1,1.176E3,5.51E2,7.4E1,3.69E2,8E0,1.76E2,9.92E2,3.9E1,2.57E2,2.2E1,1.94E2,3.9E1,1.6E1],"tree_param":{"num_deleted":"0","num_feature":"7","num_nodes":"31","size_leaf_vector":"1"}},{"base_weights":[4.00251E-5,-3.084734E-2,4.21197E-2,-4.4556465E-2,-1.1726897E-2,2.5396723E-2,7.927626E-2,-6.30971E-2,-4.0237803E-2,-2.0871302E-2,-5.43393E-3,2.0085085E-2,5.6040436E-2,6.9833666E-2,1.3254683E-1,-2.4402607E-3,-1.7962107E-3,-1.0618729E-3,-1.6087308E-3,9.789726E-4,-7.146246E-4,7.595817E-4,-2.2827716E-4,6.463061E-4,-2.2626799E-3,1.4421922E-3,3.6432748E-3,3.4561676E-3,1.9287709E-3,2.9548751E-3,4.9751387E-3],"categories":[],"categories_nodes":[],"categories_segments":[],"categories_sizes":[],"default_left":[0,0,0,0,0,0,0,0,0,0,0,0,0,0,0,0,0,0,0,0,0,0,0,0,0,0,0,0,0,0,0],"id":41,"left_children":[1,3,5,7,9,11,13,15,17,19,21,23,25,27,29,-1,-1,-1,-1,-1,-1,-1,-1,-1,-1,-1,-1,-1,-1,-1,-1],"loss_changes":[5.465366E0,6.3512945E-1,1.1040225E0,1.1052084E-1,5.8237657E-2,1.9891667E-1,2.684064E-1,1.0714531E-2,7.251334E-2,6.595293E-2,4.0465236E-2,1.4774367E-1,8.847767E-2,1.1101174E-1,7.662058E-2,0E0,0E0,0E0,0E0,0E0,0E0,0E0,0E0,0E0,0E0,0E0,0E0,0E0,0E0,0E0,0E0],"parents":[2147483647,0,0,1,1,2,2,3,3,4,4,5,5,6,6,7,7,8,8,9,9,10,10,11,11,12,12,13,13,14,14],"right_children":[2,4,6,8,10,12,14,16,18,20,22,24,26,28,30,-1,-1,-1,-1,-1,-1,-1,-1,-1,-1,-1,-1,-1,-1,-1,-1],"split_conditions":[2.6889366E-1,1.1438205E-1,4.6551085E-1,3.811916E-2,1.696708E-1,4.5747414E-1,6.754832E-1,2.4105268E-2,1.4906041E-1,1.02393314E-1,1.5526368E-1,5.6608546E-1,5.71807E-1,1.4483805E-1,6.403625E-1,-2.4402607E-3,-1.7962107E-3,-1.0618729E-3,-1.6087308E-3,9.789726E-4,-7.146246E-4,7.595817E-4,-2.2827716E-4,6.463061E-4,-2.2626799E-3,1.4421922E-3,3.6432748E-3,3.4561676E-3,1.9287709E-3,2.9548751E-3,4.9751387E-3],"split_indices":[5,5,5,3,5,3,5,1,0,3,4,1,4,1,0,0,0,0,0,0,0,0,0,0,0,0,0,0,0,0,0],"split_type":[0,0,0,0,0,0,0,0,0,0,0,0,0,0,0,0,0,0,0,0,0,0,0,0,0,0,0,0,0,0,0],"sum_hessian":[4.203E3,2.424E3,1.779E3,1.411E3,1.013E3,1.228E3,5.51E2,2.64E2,1.147E3,4.12E2,6.01E2,1.048E3,1.8E2,4.7E2,8.1E1,3.6E1,2.28E2,8.45E2,3.02E2,2.1E1,3.91E2,3.9E1,5.62E2,1.033E3,1.5E1,1.62E2,1.8E1,4.9E1,4.21E2,4.2E1,3.9E1],"tree_param":{"num_deleted":"0","num_feature":"7","num_nodes":"31","size_leaf_vector":"1"}},{"base_weights":[1.4793186E-3,-2.5545238E-2,5.301392E-2,-4.161195E-2,-3.2431486E-3,4.0139552E-2,1.0241145E-1,-4.924606E-2,-3.424691E-2,-8.633647E-3,1.0234774E-2,2.5123453E-2,5.769165E-2,8.256066E-2,1.3027489E-1,-1.3918998E-3,-1.8248474E-3,-8.402846E-4,-1.4200119E-3,-1.4607569E-4,-6.816616E-4,3.651066E-5,8.1219163E-4,6.5037934E-4,1.8131699E-3,2.8702116E-3,1.6015486E-3,2.6940736E-3,2.9915984E-4,4.2734793E-3,5.4527604E-4],"categories":[],"categories_nodes":[],"categories_segments":[],"categories_sizes":[],"default_left":[0,0,0,0,0,0,0,0,0,0,0,0,0,0,0,0,0,0,0,0,0,0,0,0,0,0,0,0,0,0,0],"id":42,"left_children":[1,3,5,7,9,11,13,15,17,19,21,23,25,27,29,-1,-1,-1,-1,-1,-1,-1,-1,-1,-1,-1,-1,-1,-1,-1,-1],"loss_changes":[5.789415E0,9.7700703E-1,9.0531445E-1,8.7430954E-2,8.313043E-2,2.9795933E-1,1.5241241E-1,2.2787452E-2,6.479293E-2,4.3219123E-2,4.9619857E-2,7.337156E-2,8.044338E-2,9.1097236E-2,1.6254449E-1,0E0,0E0,0E0,0E0,0E0,0E0,0E0,0E0,0E0,0E0,0E0,0E0,0E0,0E0,0E0,0E0],"parents":[2147483647,0,0,1,1,2,2,3,3,4,4,5,5,6,6,7,7,8,8,9,9,10,10,11,11,12,12,13,13,14,14],"right_children":[2,4,6,8,10,12,14,16,18,20,22,24,26,28,30,-1,-1,-1,-1,-1,-1,-1,-1,-1,-1,-1,-1,-1,-1,-1,-1],"split_conditions":[3.071652E-1,1.3645723E-1,5.402008E-1,6.2774956E-2,2.6889366E-1,4.103794E-1,5.957157E-1,1.1400848E-1,1.3608858E-1,2.885308E-1,3.1256726E-1,4.6551085E-1,2.4796377E-1,6.5084714E-1,8.0888313E-1,-1.3918998E-3,-1.8248474E-3,-8.402846E-4,-1.4200119E-3,-1.4607569E-4,-6.816616E-4,3.651066E-5,8.1219163E-4,6.5037934E-4,1.8131699E-3,2.8702116E-3,1.6015486E-3,2.6940736E-3,2.9915984E-4,4.2734793E-3,5.4527604E-4],"split_indices":[5,5,4,4,5,5,5,0,0,1,3,3,3,1,1,0,0,0,0,0,0,0,0,0,0,0,0,0,0,0,0],"split_type":[0,0,0,0,0,0,0,0,0,0,0,0,0,0,0,0,0,0,0,0,0,0,0,0,0,0,0,0,0,0,0],"sum_hessian":[4.155E3,2.726E3,1.429E3,1.584E3,1.142E3,1.135E3,2.94E2,7.75E2,8.09E2,8.16E2,3.26E2,6.13E2,5.22E2,1.74E2,1.2E2,6.26E2,1.49E2,5.5E2,2.59E2,6.45E2,1.71E2,2.13E2,1.13E2,5.6E2,5.3E1,5.1E1,4.71E2,1.58E2,1.6E1,1.08E2,1.2E1],"tree_param":{"num_deleted":"0","num_feature":"7","num_nodes":"31","size_leaf_vector":"1"}},{"base_weights":[-2.2620845E-5,-3.0488472E-2,3.9260972E-2,-4.316721E-2,-1.3523291E-2,2.3386816E-2,7.540355E-2,-5.9350558E-2,-3.9649513E-2,4.488897E-2,-1.4763715E-2,5.1865753E-2,1.826698E-2,6.548147E-2,1.5260375E-1,-1.4659703E-3,-1.9576391E-3,1.619155E-3,-1.2220109E-3,2.4723035E-4,3.510228E-3,-7.948575E-4,-2.6490647E-4,7.853537E-4,2.5282449E-3,9.7995806E-5,1.0411519E-3,1.7509885E-3,3.0365163E-3,4.879325E-3,2.5238732E-3],"categories":[],"categories_nodes":[],"categories_segments":[],"categories_sizes":[],"default_left":[0,0,0,0,0,0,0,0,0,0,0,0,0,0,0,0,0,0,0,0,0,0,0,0,0,0,0,0,0,0,0],"id":43,"left_children":[1,3,5,7,9,11,13,15,17,19,21,23,25,27,29,-1,-1,-1,-1,-1,-1,-1,-1,-1,-1,-1,-1,-1,-1,-1,-1],"loss_changes":[4.9511957E0,5.005927E-1,1.034972E0,7.3531866E-2,7.297376E-2,1.8233258E-1,4.1206598E-1,1.1420548E-2,1.1364901E-1,5.4538745E-2,6.7843705E-2,1.5680158E-1,2.6298612E-1,1.1868262E-1,2.8942704E-2,0E0,0E0,0E0,0E0,0E0,0E0,0E0,0E0,0E0,0E0,0E0,0E0,0E0,0E0,0E0,0E0],"parents":[2147483647,0,0,1,1,2,2,3,3,4,4,5,5,6,6,7,7,8,8,9,9,10,10,11,11,12,12,13,13,14,14],"right_children":[2,4,6,8,10,12,14,16,18,20,22,24,26,28,30,-1,-1,-1,-1,-1,-1,-1,-1,-1,-1,-1,-1,-1,-1,-1,-1],"split_conditions":[2.5929877E-1,1.0822793E-1,4.6551085E-1,3.7421167E-2,8.252024E-2,2.0734265E-1,7.053592E-1,2.9954629E-2,3.811916E-2,6.34926E-2,1.4939465E-1,3.071652E-1,3.466951E-1,6.1997825E-1,8.0888313E-1,-1.4659703E-3,-1.9576391E-3,1.619155E-3,-1.2220109E-3,2.4723035E-4,3.510228E-3,-7.948575E-4,-2.6490647E-4,7.853537E-4,2.5282449E-3,9.7995806E-5,1.0411519E-3,1.7509885E-3,3.0365163E-3,4.879325E-3,2.5238732E-3],"split_indices":[5,5,5,2,4,2,4,5,2,4,5,4,2,2,1,0,0,0,0,0,0,0,0,0,0,0,0,0,0,0,0],"split_type":[0,0,0,0,0,0,0,0,0,0,0,0,0,0,0,0,0,0,0,0,0,0,0,0,0,0,0,0,0,0,0],"sum_hessian":[4.135E3,2.329E3,1.806E3,1.332E3,9.97E2,1.256E3,5.5E2,2.35E2,1.097E3,2E1,9.77E2,1.9E2,1.066E3,4.89E2,6.1E1,8.8E1,1.47E2,1.2E1,1.085E3,1.4E1,6E0,3.27E2,6.5E2,1.07E2,8.3E1,5.58E2,5.08E2,4.1E2,7.9E1,5.2E1,9E0],"tree_param":{"num_deleted":"0","num_feature":"7","num_nodes":"31","size_leaf_vector":"1"}},{"base_weights":[2.565751E-4,-2.919459E-2,3.840646E-2,-4.1788302E-2,-1.2441061E-2,2.3417544E-2,7.148517E-2,-5.5455282E-2,-3.8332134E-2,-1.026071E-2,-3.5714235E-2,1.658391E-2,4.2010255E-2,6.0882207E-2,1.10929824E-1,-1.3126082E-3,-1.7902941E-3,-9.863678E-4,-1.5320184E-3,-4.436279E-4,-5.354928E-5,-1.1413797E-3,1.221073E-3,1.3551228E-3,2.6587947E-4,9.583526E-4,2.1655327E-3,3.7557322E-3,1.576365E-3,3.697331E-3,8.7993205E-5],"categories":[],"categories_nodes":[],"categories_segments":[],"categories_sizes":[],"default_left":[0,0,0,0,0,0,0,0,0,0,0,0,0,0,0,0,0,0,0,0,0,0,0,0,0,0,0,0,0,0,0],"id":44,"left_children":[1,3,5,7,9,11,13,15,17,19,21,23,25,27,29,-1,-1,-1,-1,-1,-1,-1,-1,-1,-1,-1,-1,-1,-1,-1,-1],"loss_changes":[4.6189475E0,4.8897505E-1,8.8632894E-1,6.0413837E-2,5.022502E-2,1.5609014E-1,2.2661877E-1,1.0478556E-2,7.193518E-2,3.500422E-2,1.6694292E-2,1.9913645E-1,9.822136E-2,2.3038864E-1,1.552403E-1,0E0,0E0,0E0,0E0,0E0,0E0,0E0,0E0,0E0,0E0,0E0,0E0,0E0,0E0,0E0,0E0],"parents":[2147483647,0,0,1,1,2,2,3,3,4,4,5,5,6,6,7,7,8,8,9,9,10,10,11,11,12,12,13,13,14,14],"right_children":[2,4,6,8,10,12,14,16,18,20,22,24,26,28,30,-1,-1,-1,-1,-1,-1,-1,-1,-1,-1,-1,-1,-1,-1,-1,-1],"split_conditions":[2.6318192E-1,1.0822793E-1,4.6551085E-1,4.0218048E-2,3.7211278E-1,3.902458E-1,6.1997825E-1,2.9035443E-2,1.2719166E-1,2.0741639E-1,2.5929877E-1,2.0734265E-1,4.905304E-1,1.5201458E-1,8.0888313E-1,-1.3126082E-3,-1.7902941E-3,-9.863678E-4,-1.5320184E-3,-4.436279E-4,-5.354928E-5,-1.1413797E-3,1.221073E-3,1.3551228E-3,2.6587947E-4,9.583526E-4,2.1655327E-3,3.7557322E-3,1.576365E-3,3.697331E-3,8.7993205E-5],"split_indices":[5,5,5,0,0,2,2,5,0,5,5,2,3,2,1,0,0,0,0,0,0,0,0,0,0,0,0,0,0,0,0],"split_type":[0,0,0,0,0,0,0,0,0,0,0,0,0,0,0,0,0,0,0,0,0,0,0,0,0,0,0,0,0,0,0],"sum_hessian":[4.109E3,2.319E3,1.79E3,1.323E3,9.96E2,1.233E3,5.57E2,2.64E2,1.059E3,9.12E2,8.4E1,9.03E2,3.3E2,4.41E2,1.16E2,7.3E1,1.91E2,7.44E2,3.15E2,5.94E2,3.18E2,8.2E1,2E0,1.91E2,7.12E2,2.49E2,8.1E1,4.9E1,3.92E2,1.04E2,1.2E1],"tree_param":{"num_deleted":"0","num_feature":"7","num_nodes":"31","size_leaf_vector":"1"}},{"base_weights":[-8.4304396E-4,-3.5673153E-2,4.4396084E-2,-4.627127E-2,-9.021565E-3,3.562949E-2,1.10184245E-1,-5.39275E-2,-3.7690092E-2,-7.699747E-3,-7.5130224E-2,2.4734251E-2,6.3754626E-2,1.827415E-1,9.626995E-2,-1.5210526E-3,-2.2858027E-3,-1.0647813E-3,-1.7982485E-3,-4.045425E-4,3.0618385E-4,-1.6376375E-3,-3.7622584E-3,1.5982937E-3,5.041443E-4,1.2203979E-3,2.296983E-3,4.1901767E-3,7.14772E-3,2.2743333E-3,4.6788533E-3],"categories":[],"categories_nodes":[],"categories_segments":[],"categories_sizes":[],"default_left":[0,0,0,0,0,0,0,0,0,0,0,0,0,0,0,0,0,0,0,0,0,0,0,0,0,0,0,0,0,0,0],"id":45,"left_children":[1,3,5,7,9,11,13,15,17,19,21,23,25,27,29,-1,-1,-1,-1,-1,-1,-1,-1,-1,-1,-1,-1,-1,-1,-1,-1],"loss_changes":[6.545398E0,6.625085E-1,1.03824E0,1.08276844E-1,5.788114E-2,4.8748565E-1,1.9643903E-1,5.9700966E-2,3.6744E-2,6.8193324E-2,6.5810457E-3,2.5982958E-1,1.2843645E-1,4.562533E-2,2.0799696E-1,0E0,0E0,0E0,0E0,0E0,0E0,0E0,0E0,0E0,0E0,0E0,0E0,0E0,0E0,0E0,0E0],"parents":[2147483647,0,0,1,1,2,2,3,3,4,4,5,5,6,6,7,7,8,8,9,9,10,10,11,11,12,12,13,13,14,14],"right_children":[2,4,6,8,10,12,14,16,18,20,22,24,26,28,30,-1,-1,-1,-1,-1,-1,-1,-1,-1,-1,-1,-1,-1,-1,-1,-1],"split_conditions":[2.576914E-1,1.4939465E-1,5.8168703E-1,6.61666E-2,4.414105E-1,4.291465E-1,2.4796377E-1,2.1019852E-1,3.173549E-1,2.6530048E-1,2.4065945E-1,1.9481322E-1,4.260498E-1,7.053592E-1,6.754832E-1,-1.5210526E-3,-2.2858027E-3,-1.0647813E-3,-1.7982485E-3,-4.045425E-4,3.0618385E-4,-1.6376375E-3,-3.7622584E-3,1.5982937E-3,5.041443E-4,1.2203979E-3,2.296983E-3,4.1901767E-3,7.14772E-3,2.2743333E-3,4.6788533E-3],"split_indices":[6,6,6,6,3,3,3,3,3,2,6,2,2,6,0,0,0,0,0,0,0,0,0,0,0,0,0,0,0,0,0],"split_type":[0,0,0,0,0,0,0,0,0,0,0,0,0,0,0,0,0,0,0,0,0,0,0,0,0,0,0,0,0,0,0],"sum_hessian":[4.152E3,2.346E3,1.806E3,1.678E3,6.68E2,1.595E3,2.11E2,8.84E2,7.94E2,6.56E2,1.2E1,1.151E3,4.44E2,3.2E1,1.79E2,7.75E2,1.09E2,7.25E2,6.9E1,4.96E2,1.6E2,1E1,2E0,2.49E2,9.02E2,1.6E2,2.84E2,2E1,1.2E1,1.35E2,4.4E1],"tree_param":{"num_deleted":"0","num_feature":"7","num_nodes":"31","size_leaf_vector":"1"}},{"base_weights":[4.428997E-4,-3.7213806E-2,3.609993E-2,-4.595856E-2,-2.209773E-2,1.6503409E-2,6.960597E-2,-4.345402E-2,-7.159461E-2,-2.0177681E-2,-6.893972E-2,1.3303375E-2,4.5829248E-2,6.025022E-2,1.2253414E-1,-1.6637143E-3,-1.1810167E-3,1.2385105E-3,-2.1891317E-3,5.812571E-4,-6.6144695E-4,-2.1463449E-3,-1.043147E-3,2.3496935E-4,8.034182E-4,1.7559195E-3,-1.3284642E-3,3.7180646E-3,1.6218818E-3,3.909292E-3,4.1652273E-4],"categories":[],"categories_nodes":[],"categories_segments":[],"categories_sizes":[],"default_left":[0,0,0,0,0,0,0,0,0,0,0,0,0,0,0,0,0,0,0,0,0,0,0,0,0,0,0,0,0,0,0],"id":46,"left_children":[1,3,5,7,9,11,13,15,17,19,21,23,25,27,29,-1,-1,-1,-1,-1,-1,-1,-1,-1,-1,-1,-1,-1,-1,-1,-1],"loss_changes":[5.6125965E0,2.6771927E-1,1.4085755E0,7.952261E-2,6.5793335E-2,1.2664229E-1,3.8480186E-1,5.5455685E-2,2.0569444E-2,5.362293E-2,9.3609095E-5,9.004162E-2,1.5481585E-1,2.5928473E-1,9.787953E-2,0E0,0E0,0E0,0E0,0E0,0E0,0E0,0E0,0E0,0E0,0E0,0E0,0E0,0E0,0E0,0E0],"parents":[2147483647,0,0,1,1,2,2,3,3,4,4,5,5,6,6,7,7,8,8,9,9,10,10,11,11,12,12,13,13,14,14],"right_children":[2,4,6,8,10,12,14,16,18,20,22,24,26,28,30,-1,-1,-1,-1,-1,-1,